0.39668587462477123 -0.299473689956829 -0.22559184782286001 0.06655907125795002 -0.2222136163673466 0.2306491418297103 0.17723902470725894 -0.18089316346925388 -0.07467879391042298 -0.2638927776986367 -0.3174902466155638 0.0036760027723891087 0.12039467235658519 -0.1434256583415511 -0.4382070213529794 -0.3634319975750468 0.20791750779912355 0.16637647946569445 -0.23840792716618098 0.14969360927622322 0.2549866682369175 -0.15087846010331063 -0.26514624927593 0.10183732311551319 0.20691698235370992 0.22748834810814245 0.3358006320481388 -0.47924417625193116 0.11940817300845241 0.48112006768869187 0.3104677256714251 -0.46457127095326 -0.4253530374262561 -0.3644343904095753 0.12485214948584582 0.09494649238072854 0.48307637174032486 0.23660479651353788 -0.11449323958211632 0.3124089693519379 -0.37971794061605246 -0.2989746109231366 -0.07154462947598872 -0.416620831837158 0.3991092812965707 -0.41031336963337445 0.3378240178509833 0.05925932834636283 -0.22977629914702055 -0.397142187675658 0.3919548957151563 -0.25490161785670373 0.13036870624734764 0.12975265724651008 -0.017781646189363065 -0.2838394616872194 0.29626743424009805 0.47912791022996626 -0.4837984666599306 0.03953577619283885 -0.3267778873321239 0.3616262924591012 -0.3890711796336069 0.33296109682182184 0.10822254852872999 -0.33236306140187966 0.020887955334238057 -0.3349690540961531 -0.004699901616228723 -0.003912761692909121 -0.25417540301343305 -0.40525175836179755 -0.3851220531110034 0.03594288324308226 -0.3911277707362601 0.02816291227591667 -0.22837075337676008 -0.18352782347716434 -0.1751928401584808 -0.18926624073975004 0.19578767100565678 0.1291849111406008 0.43263070526597613 0.1389526982527719 -0.090963568459424 0.4140350574452555 -0.20197207909793227 -0.2198716625715243 0.22887168815939854 -0.39601738304356765 0.2071098570404988 0.07489994994071253 0.14139125806077144 -0.04327431724953433 -0.6140060183363087 0.23714538163848986 -0.26458115665893245 -0.5139445650744807 -0.6133472547341784 -0.540003067002138 -0.20362659128432653 -0.14426805197380516 -0.3653389121430992 0.3599898208109264 0.2559929285372581 -0.40046597617209884 0.0349954196929691 0.4677810229653888 0.32936248398008994 0.32127031637369546 -0.08194746545186571 0.20364307034674634 0.28558560653829224 0.48831625399952505 -0.1467654533094695 -0.3712849455209906 0.4547263414844086 -0.4185597359284212 -0.4807215461003427 -0.10098697823564412 -0.3759899887853856 -0.5391812613435428 0.1558823904327127 -0.41843082823574124 -0.37951590264856505 -0.39236813804696175 -0.1986379849429849 0.1599184814262781 0.5332032810646069 -0.14773831107598495 -0.05548051150808983 -0.19503086771261713 0.05240397335661558 -0.4004054680622765 -0.21494285767539634 -0.06041632036749058 -0.31045093169062465 0.3831055049413579 -0.21488333498097303 0.34164993923556325 0.2398156516489729 0.04467441835620811 0.32288807395434077 -0.10328533237857493 -0.27794283904954575 -0.15277827913571723 0.37849530310655033 0.4054520355228158 -0.46006456256463657 -0.024239171803067946 -0.5648492921194679 -0.0485666841102487 0.3941065535096461 0.2892921089306861 -0.16092807393532857 -0.46873502046805365 -0.21008841765277067 -0.04417435238835886 -0.41917333868529477 0.16909401889698825 0.17307776148446352 -0.1089460287973906 0.1641502702104451 -0.525327499084171 -0.028692186150902462 -0.25299105569537317 -0.3873742323725897 -0.1460878530331281 -0.3302056477569706 0.4673562851434193 0.28783896058103475 -0.036940667871984814 0.06059796664802941 0.06802520152103529 -0.055589023645940594 0.5668375832185737 -0.3480375450850895 -0.5887653762560645 -0.1577820523731252 -0.06972274844094163 0.3831220228883014 -0.11653816421596737 0.24783625790955904 0.32891019166601954 -0.7028838686823115 0.5202264684115683 0.050386423489828566 -0.059814469709619726 -0.3489458058775426 0.3083969917367965 0.1957283799920094 0.2571193824905876 -0.5362314708429671 -0.16935215820173147 0.4405897867446838 -0.2752496154828722 -0.4721409859394199 -0.08128597294602047 -0.06375241192211616 -0.08293645660799709 0.40203429390859363 0.20929287390766513 0.48108074696839326 0.422019480839524 -0.0603418534220574 -0.07724881450317532 -0.35312435728269215 0.1944902428327905 -0.04257274195694773 0.06784444669589182 -0.2829370060587536 -0.13155289292654812 -0.05170401505018106 -0.3019563047825953 0.5200108774563703 0.29769519807916334 0.211959909503011 0.07522537436468653 -0.1159928663837655 0.05535701478055415 0.46422402311474004 -0.025249165568982282 -0.09459347119132852 0.10547748638964369 -0.02254158313993576 0.47440265950424776 0.39212933147058904 -0.16905498841371644 -0.09530031604145892 0.16975962243510115 -0.08049273589959137 0.4995532696213545 0.6682284042803168 0.13519261266791502 -0.026692402840564275 0.2730282596175603 0.6306910972661687 -0.022051731516049302 0.0790925572534372 -0.6944171288361676 0.2049014234958068 -0.0541244361186296 0.5765029415768228 -0.04489347481376328 -0.12067743223910685 0.7178553239300349 0.5291534227722954 0.28667975518996375 0.020372598382902788 0.45258085598491177 -0.29947131002722943 0.21936927311121007 0.13723831286447744 -0.3899473877964915 0.15823330387717058 0.4768258147067304 0.5455150564021922 -0.33927096030536125 0.7218130301196295 0.544168403692937 0.22613799430786802 0.4187010038871898 0.2781999763093352 0.28290427893097747 0.15933096825601856 0.5820026141109442 0.48393338428060756 -0.4581648885998888 0.8025278216485938 1.0887586438793562 0.7422334281022489 0.2590380094745984 0.26750785667655114 0.3321092137677919 -0.10757408133221526 0.8631010637597353 0.5166979320713144 0.4089387262703479 0.09453095783388678 0.4291355431105942 0.08166517736524194 0.2957194872421147 0.4560068263409793 -0.4331267362740372 0.026443255965417682 -0.32534595865461086 0.3251287094688335 0.661243033579406 0.25641372563444337 0.34487253625081365 0.3534049971233357 0.469323263385275 0.02759987016419724 0.5613208801625524 0.14393521240856777 0.19277815499047454 0.11767752941891242 1.0456251092540727 0.9169099346247425 0.500128805490688 0.29602848588077085 0.4925109948292377 0.5838292818479509 0.5533720453767916 -0.060103968321277755 0.2830585751430306 -0.23733621817748224 0.004030912449217577 0.3913117309674841 -0.16075019403173912 -0.16912451846701423 -0.10000112626594486 0.3191632001742069 -0.006713020850605114 0.5686017734516977 -0.1719985466185446 0.45542350940741116 0.740774949612497 0.5431815440279528 0.5307276902585117 0.3049104549918149 0.18702821225129346 0.04964362999830285 -0.01134902066128163 -0.13979039187527795 -0.05902541513527895 -0.016292569270698182 -0.40048648739785264 0.3819798471729508 -0.2132230230316306 0.6364348536594113 0.0018337337539752236 0.09636595180711223 0.07662394662409683 0.009175494645948952 0.42141205999768605 0.1137987466148105 0.48551097173039015 0.4287781839003281 0.22112882142954396 0.04930315541576081 0.1718470908344518 0.4944010793478034 0.7809596088967485 0.36314196835086965 0.2989651785669543 0.1451172279128621 0.3240891840579284 0.5567555032564521 0.49344811747249917 -0.10073569593295084 -1.0380171988462576 -0.6792643824737743 0.5798159456598049 -0.20932568628004586 -0.2068390111838936 0.19834529175442095 -0.08030630158564075 0.5992195914422046 0.4438379828438096 -0.19420632789525313 -0.17040240636896736 -0.3014354084596914 0.4736402707616368 0.40527174438252533 -0.2560920643831722 0.1908388338060089 0.12277321336943818 0.03794937537573094 0.7059136052354538 0.6050246148026489 0.22562777958471097 0.7681519173185238 0.4023974893083851 0.3191100577464438 0.158658832164421 0.25940358919916556 -0.3347302891630772 -0.311641515211431 0.05145380479183538 -0.42232584720183686 0.618092438395563 0.3397324808933196 0.30457730670558847 0.01593474901569618 -0.06799298632358336 0.3859023663825307 0.15016405357949897 -0.06738275666378112 -0.08306538470370857 -0.05785707486414084 -0.18036074475187788 -0.48753264942996055 0.01996790759306922 -0.26894154987783947 0.2611147340921257 0.2582989705498946 -0.058952256933737825 -0.2819745649459219 0.3269169761841555 0.46755305990527046 -0.12496266785901414 0.6709184281377477 0.5863208555726863 0.18274349778267207 -0.21645422802170833 -0.5185152980830304 -0.24622526798032712 -0.554928822416831 -0.15130852488305338 0.3769894835914269 -0.18756912269376708 0.1107337422267975 0.3226666256644106 0.18719553704434552 -0.18508733121842766 0.04771395384411099 0.2608724999974457 -0.3964108870848906 0.4884974665267649 0.17325156948457143 0.3802878959520954 0.40016742848805237 0.3734220351563109 -0.32099329888237454 -0.1603310764489434 -0.42193992689513354 -0.36951535617998815 0.043643688350739895 0.7514203738644043 0.1206405450337689 0.24890543270394924 -0.24394702886658687 -0.20760427173551754 -0.8939426209041702 0.09499930105607313 -0.3056282676613069 -0.03907260467352156 0.3041233098512067 -0.31802783547588265 -0.052655815113835006 -0.569522932531511 -0.25734290047592046 0.40372205199695893 -0.3039584615241092 0.37592754229539604 -0.3494760516338622 -0.14567258200536634 0.08294175960779833 0.24611284244974332 -0.29881584931470007 0.36877822784944364 0.12501969347313427 -0.2617541080799524 -0.10222339208185689 0.15975512157266283 -0.488401177085803 -0.28692800705103566 0.3448889973596058 -0.20571342261901196 -0.14335004019863504 -0.6984273457827691 -0.33319770322883047 0.03209913614924357 -0.25531034452806906 -0.31760319439973544 -0.3388708970366016 0.3772750990162532 -0.23320265472257182 -0.00451035444585546 -0.014955849607485094 0.07028443640287005 -0.07639780491462819 -0.17578697469285184 -0.07512366266395118 0.32529553027798946 0.49090496758739843 0.05919767644673542 0.04485707035706328 -0.2629643818190571 -0.3200823318316944 0.25280427553305346 -0.5202994703232039 -0.4483963089126607 0.029062911599282353 0.3132334040686538 -0.2951336832766936 -0.3769635107397278 -0.13482800081650828 0.13838918685733256 0.16456018592673605 -0.43832896102488633 -0.05012246888704649 -0.3121768708366333 -0.46659699127553245 -0.28701529684409116 -0.39539095662575624 0.20253900717795995 -0.23471949605028 -0.2413007809686277 -0.5427555160961826 -0.5830986069245649 -0.16401441746269493 0.01947988513722154 0.08460622320093825 -0.03118858710657236 -0.07192635450584342 -0.48749567641085106 -0.6289021859836508 0.20154963967470774 -0.11891768552745006 0.11693236415817151 -0.6237187694990751 -0.6733641832768679 -0.4435636677769622 0.0021713495823618193 -0.10745164663232287 -0.31911751637108343 -0.05555165585177059 -0.1495854233745843 -0.12836572083694084 -0.2505166368859877 0.08498285100288269 0.4009128636992852 -0.11357891221022551 0.05289950331236386 0.13398168034305177 0.11522483478832175 -0.5088335527167563 -0.02334560332818885 -0.22012928862883413 0.3012992157943782 -0.017776379046827676 0.46688939540642177 0.19152432517624077 -0.5012035057508862 -0.41952348252739435 -0.38387185787773925 0.19678764058357978 -0.35736453238062726 -0.5651329053531187 -0.1542980704964312 -0.31681302872776046 -0.07861166029581189 -0.15354308724189883 -0.5453419894012961 -0.10596971749157472 -0.45254548205222134 -0.5652366049098272 -0.267201424167597 -0.281260811641895 0.13194953085763753 0.006407740539372632 0.008622321657374485 -0.25976399669245565 0.16026775378756403 -0.13631787643918675 -0.2870980628544534 0.4657904328328015 -0.30408647733165106 -0.26355078376017016 0.450784031944689 -0.3125641429829185 0.22459336732062363 -0.02796089784626205 -0.10930535523098063 -0.09158236654612781 0.17823310761613778 -0.5801710571207217 -0.09961649753645246 -0.20880163852933914 -0.12456383561033033 -0.2597598648781183 -0.12446839484866072 0.12426989467345383 0.046237888870253346 -0.13864770529433001 -0.06815137752081127 -0.0859799446439769 -0.37777137887533024 0.06680708260960472 0.3482939188605135 -0.06492432229750685 -0.4173322560832296 -0.09406691855677357 0.33704948645627864 0.3602902054769022 -0.39146094845108753 -0.07995173138641375 -0.21012996440727102 0.17918955700058511 0.287285109355476 0.007721871632523317 -0.11266308400054545 0.4775522674553856 -0.3485028906177569 -0.5794754930099177 0.08619131804094018 0.21988120992122812 -0.1467712057693792 0.16798040387261318 -0.05865114318931132 0.12496887627721223 0.04002009633405377 -0.6419454926033984 -0.20902915383853576 -0.014467113560402887 -0.355008646137098 0.2599554727924821 -0.03433112152664489 -0.5371711599564997 -0.33300874714828826 -0.5287259441812694 0.1267611468543371 0.3322465993447947 0.042425906276878866 0.2094253882595045 0.12189923827774048 -0.27116642207474384 0.13257531721860746 -0.6395869486042755 -0.6615906343934306 -0.07421682480344546 0.2906649310235843 -0.08604883253547022 -0.42592035077983387 -0.18802923789668297 -0.2712175442258994 0.4804725397166343 0.31333534769921945 -0.1875249703349432 -0.3031940100668487 0.04055057932284046 0.4705108473825939 0.03997355464315888 0.31628265784929926 0.3683018160851779 0.34789628745721995 -0.3694129745031616 0.2120834968554607 -0.5252491403188816 0.028309599309869597 -0.4607709005949716 0.3611112138715145 0.3665001500759555 0.3855990810196168 0.018047238918562553 -0.4605776741423433 -0.2670952144187366 -0.5952185871080943 0.07368005525746534 -0.3013242884889093 -0.16364800137778232 0.3122813218220779 0.2646863373997679 0.11632196526922643 0.14216711957060718 -0.06426379656635844 0.49005526856096393 0.14365886658098134 -0.06436633326241319 0.5865674328390323 0.2644631130436502 -0.016149996965991783 0.35350291639962017 -0.09182970546377414 0.09982615794961144 -0.5408296151299345 -0.5096747589201692 -0.03710608970103758 -0.15535154027538622 0.40194277171582293 -0.2836127231229625 -0.17244510604188612 0.4708819272978202 0.3603972015707032 0.014218671320169185 -0.3756639345137194 0.12543718106320156 -0.32147025971761395 -0.03511744268337997 -0.22037552998094367 -0.08859842065139598 0.031387161868257886 -0.08864069432739509 0.17674976345929314 0.33170836897381084 -0.12895033994202132 0.06441801652492259 -0.26449861314950723 0.08630876828860327 -0.27969761314055747 -0.2983878048125632 -0.18703681985556708 0.023902391911915594 -0.38608345931905197 -0.1344258227597432 0.4198894302387733 -0.4526819364924056 0.455370179938245 -0.28959550502031006 -0.05156211189792803 0.2267302963294978 -0.4900309038858088 0.2898797856544677 -0.3923122270591983 -0.18087534433250746 0.3266198852819134 0.09401401794493329 0.5103110591884945 0.5099057984817956 0.2341477318868759 0.34358406455536256 0.15657646750831078 -0.20906149172937533 0.16459861050990873 0.1832545141438079 0.588285517773474 0.5303349788195816 -0.3861007526354014 -0.0011608442892254325 0.35546465593386783 -0.2110054457671046 -0.3444562169677562 0.2592987323901566 0.2161972249639487 -0.2865444938485239 -0.22906075653603364 0.08262779054179714 -0.42333102915829923 0.07126954127663154 0.3228454502998681 0.2875877036293763 -0.2139014900563589 0.016872617835848955 -0.06152612931276536 0.09439607808869652 0.49064431501901135 0.14463559553480626 -0.382575560409873 -0.3220938271319176 0.49982640093239034 0.2039877036210122 0.03248125889186904 -0.2768608658879431 -0.0721886660490179 0.4561288918169496 0.4219273937177592 -0.04651886575727172 0.49749132960830245 0.013372294081901086 -0.23715933145171897 -0.35152921718152946 -0.4571206650917949 -0.20975211888136713 -0.49563625639122544 -0.15485525894214547 0.16939754674353447 -0.1799895766952987 -0.22136095015420765 0.12653990182211103 0.34565658724155973 0.3840688160343838 0.13042677491903473 0.45612236045462173 -0.48359863701028516 -0.2156552862864645 0.06963826263481182 -0.19444113041312805 -0.31822997227441824 0.18174594061961363 -0.2952262335306638 0.2312268676928603 -0.19212383793395596 0.21397172287444272 0.21354215007661737 0.02224151730167725 -0.09252697991730525 -0.0989012017995026 0.015402907688812358 -0.272254900919622 0.2538521218402422 0.01759343106316491 -0.06069685831532612 -0.004341612537960243 0.12711716879907065 -0.47130420321493727 -0.4461840696973385 0.4443237902378565 -0.32867262036849176 -0.42643763916280586 -0.2838116218097755 -0.3981919024915619 -0.008634457675624652 -0.34218886531377446 -0.24555660292304737 -0.3825769892012595 0.33355758625133747 -0.3952270713284348 -0.16535192505433108 -0.35982988395443727 -0.26435952916126915 -0.02384059658899218 -0.10086463149028868 -0.00014258230769681468 0.41335610758023067 0.31502296925107665 -0.2753314829994179 0.3013576622133899 0.33889217208756894 0.25711836125337206 -0.16082483691009797 -0.3114171609436105 -0.4233715369983003 0.45545105449690004 0.3701702830817204 0.025585447537749606 -0.09729670517853581 -0.4674981850786336 -0.12196443067253927 -0.11307192436936404 -0.18517440994741471 -0.4313831099844575 -0.22581694135975675 0.2595782189884551 -0.08932297773101144 -0.3489824226135786 -0.4337673412461865 0.271736563766368 0.01493077766778694 -0.08388439378217097 -0.12328564442146436 0.031512045121798046 -0.10830170723772906 -0.14347941708199688 0.2738075280388387 -0.43331544265065103 0.49312810695323606 0.06956601518489092 0.4736508182952138 0.007979402020032444 -0.2121690722257472 -0.27929143447152416 -0.029309426869532668 -0.18310582736175815 -0.18377502312423735 0.0527775592703135 -0.21582574300711962 0.18020478310963878 -0.363707989201964 -0.37074789015400567 -0.4225762303001967 -0.46621481408608517 0.16264858997830398 -0.06319510413769357 -0.4513287193568019 -0.3323663742846992 0.0018381132568099166 0.03669138548141114 -0.01837311428327439 0.32970127567462587 0.12719358278566975 0.0914045488272327 -0.25522431926862604 0.07794401220677724 0.45254711037428075 0.16806885688411585 -0.24244744591679013 0.2092444876418892 0.40171793922594745 -0.14648265906134272 -0.2843761871292358 -0.19043773944878534 -0.23022359786275604 -0.32494503981033257 0.09326983922748966 -0.13195340356493285 -0.29058214572860025 -0.04052972311052539 0.1391740022292963 -0.5599541147564996 0.07487830159903817 -0.6505921384823209 0.3797241845807446 0.06658292993772308 0.35009763655935155 -0.28545507926612995 -0.25556507704638004 -0.40172630514840674 0.14824123572773068 0.14941487463321054 -0.18013951598484831 0.11737904927743635 0.3520373795136447 0.042969894959151704 -0.16093047307917246 -0.28551653786699205 0.26501393644776605 0.27697516795973914 0.10051304834371717 0.0949233015383066 0.47859791291969006 -0.11025035754418709 0.011395757049248662 0.09537157657552099 -0.3243367751286471 -0.2301686739213445 -0.22806800243275105 0.23586199866662622 0.07658374434269487 0.03982157606348293 -0.2786224825833353 -0.14005849505043835 -0.3721766307683557 -0.21479901967871623 0.053992663709167325 0.14413555569451955 -0.13117364521883756 -0.30112937569777515 -0.4353886091452067 0.37401536541902475 0.2197260829958001 0.00022907344134179367 0.060169877897307475 0.3153786453304098 -0.11974458093319473 -0.3699011064141462 -0.3549763056891433 -0.4791232112273835 0.1844913618161535 -0.13730347604692303 -0.5003726709814881 -0.3344695581487194 0.01757567662583038 -0.5798433837812954 0.011604815315741103 0.4343428650551145 0.16597802972774375 -0.19530740485315942 0.02135341236278736 -0.6239524822260551 -0.34470369655752914 -0.6220382143898846 0.01745067391343911 -0.4479402237130222 0.10801969554136732 0.5245472005255687 0.6069950782141944 0.3466823454155851 -0.281599073468759 0.2855828928761764 0.030745710138477673 -0.394399002984625 0.14064291845875154 0.3212507426745795 0.21059551287286443 0.09159695843321468 0.32584364366395624 0.010379340520026235 -0.4133046159616331 -0.03672353772551365 -0.4963927616198292 -0.046826830496210066 -0.019796066834964817 0.06120367165883849 -0.14593522310124912 0.21110376459363284 0.13217574590982556 -0.8363112725408193 -1.366896868416494 -0.7157241791467231 -0.7618668880832108 0.0801530388234474 0.2661164282576906 0.4610570427767092 0.5593724944054919 -0.23962994722524147 -0.3073854764249986 -0.1666158488747014 -0.16360897870959001 0.19153004475687455 -0.49708049392812936 0.16196192888996344 0.1962693709344148 0.24696292944441203 0.12118348617816718 -0.06102591950774704 -0.3910485769447406 0.3158834822879023 0.41438274845684187 -0.21254517770065426 0.3452498297246789 0.5607235367098645 0.45204711154479305 -0.07155320013623839 -0.17561828362425447 -0.2732312648388513 -0.9382648499518389 -0.27637175577958706 0.20638737839398183 -0.5269277072572336 -0.2587484996895345 -0.10256623122017233 -0.22836856085390403 -0.2853537626182161 -0.07610293425985976 0.18022442814897685 0.5145741763644961 0.2916213956807757 0.48234705531321487 -0.35488627370617404 0.38279244267739043 -0.09890578274519989 0.050040743731144845 0.4305878271022101 -0.06213905561899861 0.13150341764439782 0.13532607126937385 -0.3255048233542058 0.5520929036528761 0.1335352544484528 0.6962151223188505 0.17559345431230394 0.2117788959599436 -0.8306348433183648 -1.0871287682341344 -0.20572619076286003 -0.03502613697163373 -0.2771369400151089 0.26083759699185777 0.5217485253052673 0.14046559405559475 0.5218032569591672 0.06340813350527438 0.3269270062548523 0.013647745809435658 0.35657113888272096 -0.39490844855602325 0.07499836172830474 0.3148680787338681 0.1290564956099914 0.1627088999863378 -0.3600844070074182 0.28841260474086305 0.3224693054547875 -0.35911879258125873 -0.2574808537670868 -0.032428582840186314 0.32866502553733107 0.7015347557234132 0.24216696618846206 0.012771284408715293 -0.8737442272310711 -0.38861633682974744 -0.6353983141362869 0.3873184931073347 0.029935033425860368 0.4155761301116011 0.49678008159916137 0.7624081564636636 -0.14503805213431692 0.5069693321002819 0.5230329344124001 -0.10158611156783753 -0.22217244366828495 -0.18004089401433512 0.0005964306889407098 -0.3130749793408299 -0.27133677710384635 0.059742171224769415 0.48938142310733396 0.19558714435540742 -0.15072556355741254 0.25797542866085466 -0.1862267113527854 0.46593167400370616 0.5879279731671527 1.0007711923923581 0.21444306607840657 -0.668306234762781 -1.1399071956169577 -0.5939829445838434 0.09569957509057868 0.2794271428061681 0.13268081619013136 0.0647107803460164 0.37133702987325184 0.10594914794687829 0.16643576449860217 -0.31766781270522365 -0.2014369166329127 0.4481283009423099 0.41441057117557223 -0.20052415515074784 -0.41479927289319174 0.40146668713072037 0.13500646976767486 0.48582818132403777 -0.11023237968793922 0.0261597319735148 -0.11725845580804761 -0.1280609414124968 0.12912473476639025 0.8198341560030694 1.1105418441441601 0.8844794310855575 -0.03538823794482647 -1.0393439789803551 -1.2432196811581098 -0.17489358224445262 0.5185765175932645 -0.16021417795576062 0.3823959278391107 0.1308056360764608 0.48002837017829303 -0.4701830493514494 0.26213536578381735 -0.0441322423240315 0.4923710091644038 0.2632779386253347 -0.3166800717706294 -0.13887924369526858 0.32567402893372804 -0.311381764622631 0.15359124893628975 -0.26022242992695116 -0.15625696514539728 0.3555394717868253 0.4817853788883941 0.4625306960495632 0.4039609715416968 0.994964540433317 1.2623175947248149 -0.2619386458236734 -0.6164778322152047 -0.9138407638081201 -0.8180412041219041 -0.04800158474951361 -0.21485076316137477 -0.08252677922900857 0.21480891736973842 0.19873204729529242 0.03183098559126034 0.15730112935378876 0.17114074665494816 0.2153561886770839 -0.12639433647312687 0.23019636589550166 0.06812050006565448 0.12384383720356866 -0.27580305556437534 -0.3362805733158527 -0.35107697258763026 0.45613666845116463 -0.05151039369149041 0.5326745368330179 0.4261016342978569 0.6331683050661052 0.23863115605040838 -0.0584510190489833 0.19665228215785974 -0.46091530423230237 -0.9007567710243208 -0.34137701592880193 -0.5444167769296161 -0.027001932431454156 0.3434265425479857 0.27808260123569867 -0.32111520215101386 -0.3241524885537713 -0.36083119106737094 -0.1939084580977974 0.10987743595995295 -0.27448893230361393 -0.2643108128651551 0.3789924282450366 0.4800015392594461 -0.3564504546451501 0.3138827445769653 -0.29426452699973166 0.5491233714593942 0.41050338649818296 0.15975174584012894 -0.0928509788897791 -0.33999618682303023 -0.24422248051934398 -0.09653634802715509 0.22333054513047657 -0.10670502690357807 -0.5152263083038005 -0.9283257814854377 -0.5993120480418417 0.31492750011873877 -0.23354431444570686 -0.3228332892121236 -0.3005183548672179 0.010746759555884845 0.12589940910233552 0.025593996741726074 -0.34549164951909794 0.5262958015598489 0.06299209288199001 -0.3424931186436896 -0.1955427048094832 -0.21671701046558167 0.34863418170898297 -0.28958402873937794 0.5067237570781454 0.1327854832760024 -0.042245121943141 0.23727905122087856 0.19742626088632814 0.14998668025467288 -0.13616274237783896 -0.2668941961344793 0.07604377881083847 -0.5464129850736612 -0.6279247868840991 -0.517264697763284 -0.4170554808319902 -0.17066359030022682 -0.5791459608421836 -0.037153994742021135 0.10821774540565916 0.17850574974530808 -0.36632566814123796 0.15235961753648425 -0.20104888528181603 -0.261350041539572 -0.31183638874549735 0.01979497804947284 0.40937897245671234 -0.4831696271155605 -0.4653990548128567 -0.15248603946279088 -0.40616647804312783 -0.11428932136152165 -0.12812422535696444 -0.5292167656353245 0.21236176018543104 -0.4653431183796449 -0.030076184002114995 -0.12970923533942993 -0.09844678585757544 -0.4551745567406503 -1.0018375405770186 -0.3553736268209753 -0.23778986074623726 0.049569343288712604 -0.6331043145838106 0.11187109252107172 -0.26467546939386044 0.03997612757543511 -0.25986383802776225 0.42404700284403 0.28521784480271734 -0.3810367122326598 -0.4838529156635692 -0.2710741549474282 -0.39062901797903393 0.3424889604496737 0.4581017877382989 -0.26419883961342727 0.31743015270714803 -0.1870711741866269 0.021105468681932468 -0.38086911951383545 -0.1346782675317454 -0.5079412685970772 0.1898616176926246 -0.6991339207275137 -0.43083053914216957 -0.6617054577095653 -0.23380519022675814 -0.5214225076248642 -0.27196116502008844 -0.5640617455855951 0.12043906341879808 0.15092788387073214 -0.02526510645729735 0.09474705375277757 -0.029996476908542055 -0.0459609543323676 0.002570709971225684 0.005744232365061034 -0.30498706690505045 0.3634679303162902 0.47258070841869876 -0.44073695605618524 -0.4563169419141953 0.17230451785058912 0.4021756893552511 -0.19971000349496168 -0.25417017472632186 -0.1890312116478551 -0.21874644825511688 -0.3672778087146482 -0.3096039325062903 -0.2034002495797853 -0.4698936576142308 -0.622750233633214 0.18298015392570782 -0.7846585866145225 0.2680440203110805 -0.5050117401048098 -0.23797274722735817 -0.44049698614555743 0.3392546882133558 0.040674583729861144 0.038162315390522575 0.08520432694429521 -0.04407329250762039 0.24557118380042287 -0.446039549898061 0.45098800222457053 -0.21809024236323307 0.3936844955152567 -0.37667817206698667 0.25568285637244026 -0.18899584911451622 -0.21773796361870146 0.6184337136931162 0.1074065836520128 -0.34872944751496865 -0.5248589947398085 -0.07845854657873311 -0.6873068813082234 -0.7775057471464267 0.0653455911327177 -0.16543901858699367 -0.22676958614623952 -0.43976149445810647 -0.17572440495524008 0.2144430225704682 -0.12014990227972032 0.2049344325014629 0.022481131871681048 0.03800651951825762 0.46139855587264206 0.08158605315986077 0.20809223829834647 0.23741553937832702 -0.3071349755974723 -0.2061878556216193 -0.5001782710757606 -0.4838874375397071 0.20480861645172388 0.23121297967701285 0.3019181714461495 -0.34249947465323133 0.11783287548331511 -0.6255544170505003 -0.42781814427942705 0.3013467016364141 -0.17256341504943365 0.40584261409295364 -0.05774095591285183 0.14365196232695962 0.2032810044991758 -0.34195177995668236 0.17844237922322115 -0.7940108565793812 -0.31911384454729635 -0.09422425093855671 -0.2628321711898003 0.5353595071026325 -0.23285693747079828 -0.43563877070906193 -0.3622187497297187 0.10088269032321005 0.046447491849080653 -0.07664986135445363 -0.011710616474216784 -0.009559882821989002 -0.47981911131044286 0.23093536366838416 -0.3829282603140016 -0.16791606782840218 0.004178365880884447 0.28932466437886245 -0.42712678736792986 0.3255757306455027 -0.4717128722391595 -0.2143516588012662 -0.05488867887669629 0.0995315990261477 0.24369043108661106 -0.09035970293732348 -0.3970061887139913 0.14071916003747378 -0.3343191880778771 0.2234925740103024 0.10601425865926317 0.4844004952517782 0.3745674343303551 -0.43471752965179244 -0.19179978053701016 0.4087526947361639 -0.2821297594413282 -0.18627753408239908 0.31191753355306967 0.18518531028053803 0.13595732207116495 -0.42478824146915806 -0.33978543343465567 -0.2494280991202026 -0.049903138703488045 0.3367635339357793 -0.14956189664176875 -0.3091449670377902 0.2790779431014446 0.24127071080652548 -0.5994595852021225 -0.3256827927719015 0.17442413315530533 0.28611981346016935 0.2826294803087891 0.008468568080913083 0.5506308689363416 0.11560032065085979 0.11781467933602013 0.24038611845035684 -0.40719354508713945 0.12644704791840838 0.41958254163009306 0.31955050933675433 0.10639614273221805 0.36559679808513523 -0.45490600183504465 -0.4393527739781262 0.1262999789406466 -0.16593758980938664 -0.28677501139272826 -0.4136848785631034 -0.4292317159587194 -0.1474457508385062 0.36025833833988996 -0.08960694040569214 -0.25551753586261855 0.01893530987974084 0.22124233067152468 0.0849558652872718 0.15128238551637635 0.05830936328141126 0.010157845977941376 0.28157725913846265 -0.05662097077739723 -0.0015696627947344773 0.3138072079767466 -0.3879643199872936 0.40900519845002326 0.09380542578370803 0.11740646894686234 -0.03775366665251448 0.1943156517088034 0.29980972226576064 0.3175588993255103 0.4438171436651581 0.22819157964988246 -0.15504115778976021 0.2993167841247241 0.06713835666348682 0.4940171583514137 0.31823905427881327 -0.032633034861011656 0.05167847906386464 0.3350724384261012 -0.2326214986497979 -0.311080895924903 0.1214349738463318 0.31610529070474497 -0.17079628029819208 -0.04313692464885248 0.29569439195179414 -0.10598887562448339 0.07790046552454905 0.4218921466170273 -0.32670979339199 -0.3679575419706172 0.265800348136232 0.18658839278554373 0.4186792097584494 0.057265350069622814 -0.24785404214377105 -0.27417604683049623 0.4083664187110325 -0.0703120304804723 -0.354348617821086 0.3024230359557807 -0.37709097134120934 0.22569101512263554 -0.4525359657804435 0.11052230159815352 -0.45574945249718823 -0.14712430488918804 0.2322197319267611 -0.05259748054328329 -0.035762983605693285 0.5032855318240025 0.2049425135933192 0.37276905277710387 0.5595565706431553 -0.3399502830045323 -0.2506972592574883 0.08389571002454932 -0.07140645150804298 -0.23956303173058996 -0.011815441065138885 0.3108169372295431 -0.4077510230426595 -0.1200711607421544 -0.33031584416988063 -0.24790676268007983 0.10365964416396323 -0.23958059653140662 -0.27401712694274694 -0.48745717014999 0.3267856369505855 -0.3359350601291777 -0.3386868480434832 0.4139096674085973 0.18362404797589604 -0.0007671046212085152 -0.12889447156378478 -0.5005198227836578 0.08102541114673782 -0.5384878630495814 0.06527712228493054 0.09030393483036975 -0.09316397024211814 -0.04396413475612903 0.2831681285733896 0.1503409915501855 0.4036578586427517 0.2527189425084488 -0.47336303708265404 -0.3145667937195241 -0.028800225477994632 -0.16316651994863948 -0.13459544003619228 -0.489834233267627 -0.045479130951369795 0.26666947318832834 -0.4711522191610922 -0.2542828903315739 -0.3858306760506826 0.16624274682812135 -0.3865917670397546 -0.35245248732452833 -0.39328808894522654 0.29981216223987067 0.15472090715981898 -0.4125185906763897 0.17117436420326618 0.5385789668230732 0.32606752548873585 -0.3960817681651302 -0.4776494365269051 -0.13690153032034255 -0.10062435748706702 -0.4355048073996799 0.4309755114025196 0.015882307831815608 -0.03226193448821756 0.07810183316622366 -0.4039992693638128 0.1802127800809944 0.12031651982302893 0.3739230065757464 0.36427804083120907 0.2776558814553447 0.46945862512583747 -0.4368479976133365 0.12079788333838248 0.08846564541836921 -0.2775811374801671 -0.09290588005450173 -0.4645943182875052 0.2205040740052654 -0.08557897735178432 0.44250134907856786 -0.09154983324280763 0.3434181236639229 0.4867232230515655 0.08743570160416451 0.25243843728370186 -0.04123610528230148 0.47654504773313344 0.38573796073842015 -0.2523040694375841 0.1435248040224968 -0.3682710684831314 0.01916724802975489 0.14984814107035693 -0.3788520683520068 0.15189570442193379 0.43024462498637506 0.19944223797015626 0.41799133080771966 -0.024298725192346105 0.39412747026361317 -0.12474644910751564 0.05101201405097212 0.14732126915175903 0.4614227706204312 0.20501838129199046 -0.006540381737837381 -0.08994643449592336 0.3337861983026295 -0.3069846224754462 0.32419010502729867 0.05148232509472819 -0.32513460794164917 -0.13544836808859678 -0.4972675627515893 -0.20297698998128902 -0.07168561955471896 -0.4113005382549475 0.1389050230090498 0.3265030991284332 -0.31960672522079164 0.017753626783401394 0.44684294804372837 0.4681267423156782 0.36596110825904804 -0.42795135596548406 0.0826589184577331 -0.01054017952886177 0.321354564773743 -0.3637499064861924 -0.22403200982034044 0.3797490551560038 0.030298518915077906 -0.33412877912723843 -0.17179902426565566 -0.08207780519382853 -0.05780409507212042 -0.04580753375170684 0.3997970160047762 0.29922414414055243 0.4892757199867349 -0.08031700361954429 -0.3465832818472391 -0.02671785667724168 0.08046451470288098 0.1296459301000054 -0.08493812542502578 -0.3250152667685763 0.36864711325416066 -0.23829527474051013 -0.2741324265350414 0.3064364520761894 -0.4265420324087854 -0.12945789082308945 0.46374289866677865 -0.06476616805660729 0.49663546282521526 -0.4959066873867748 -0.09825264945055073 -0.3259431142795554 0.2223941036552514 -0.2661343474882712 0.35086313065644786 -0.02564925604879313 0.5160773983607182 0.26767981467069246 -0.3740574022748527 -0.46605689418411195 0.27331020541877704 -0.3036789860382531 -0.023184529791449682 -0.16520064299125042 -0.029130085548573364 -0.15515905548729136 0.2721930064913037 0.07004114805954637 0.18750302943297215 0.23173515381452484 -0.2717919609630594 -0.08645134227386594 0.11232792729458593 0.10949617892901642 -0.3253883240094194 0.12540208278594403 0.04983869709108983 -0.28107290240573585 -0.5123908260876124 -0.14879258799183642 -0.246453910131305 0.26503730559257654 0.47549063362548416 -0.32794453521477773 0.22344206473451714 0.15983732046267388 -0.4512381321257653 0.012795000481818648 0.2965650028193944 -0.5720723471142775 0.514811566780413 -0.03957176084089658 0.1071247023877512 -0.01929162069405732 0.3721140738378857 -0.30342294542157006 -0.518156060351931 -0.005339143497053102 0.32192178315305414 -0.1592276341254366 0.09769287858782243 -0.025832002925459348 -0.47895642899856106 -0.1321848478949751 0.19534089687434225 0.06090599792250422 -0.12862646702261002 0.08835061117541278 -0.33801385856540495 -0.10907149060627593 0.05957770591674367 0.4379306594742271 -0.46391398282233526 -0.43702564258849325 0.38726244613155314 0.055626661373206744 -0.10881842096652926 0.25727388906720916 -0.33034718096810445 -0.3245662734656922 0.4087717330532158 0.24751138828692357 0.07000696372281129 -0.15793626908765918 0.05390240540288943 0.2430124813997725 -0.6475812162426288 0.33398434022772283 0.4338722710006564 -0.016032052774996686 -0.2848196865298027 0.2827131704728824 0.03417841021087429 -0.10348271560748695 -0.4202836368810061 -0.29973068454499546 -0.3421928033200845 -0.05887285422122145 0.007227513836094644 -0.3931761663609415 0.1781593225395898 0.03766553326977704 -0.6140756707249609 0.0038721847874328883 0.14773006679255077 -0.06417977628400341 -0.15974613920351816 0.04901803701618369 -0.2006233597776928 0.19713431161958017 0.46012869362120024 -0.1590760840460908 0.19311824001706895 -0.3915288557135974 0.13704195435856154 -0.38124624730165685 0.2033462359688156 0.07679606985749539 -0.1353294614955015 0.2075772123614489 -0.4336156284451548 0.27868225971257055 0.11554952226668173 -0.24854035104176384 0.12387642555389114 -0.43180333532712495 -0.09222781290434133 0.17946381552252103 -0.1734763170418215 0.15920525453288534 -0.2722152833320049 0.16835046624935213 -0.08918324344183197 -0.2823099379206184 0.1827880468310115 -0.048177939470773874 -0.40900958076763955 0.09622807264602598 -0.09246371872812724 0.05002734123774328 -0.016609041425675753 -0.03401993899008322 0.14894802597269338 0.09623321469202867 0.40132565071330006 0.16727539931311572 0.32437206016298437 -0.38884209480060355 0.40572351104350474 -0.2795837175653335 0.36058365573367707 0.27829136845691455 -0.12024114084911863 -0.30459838482350926 0.14237367585228305 -0.06395385700863236 -0.03953824117206044 -0.15109186779327557 0.21658529019066614 -0.11717328985516484 -0.12981217460311822 0.1987024158827796 -0.37303126364664363 -0.09363066875550245 0.14012639873615143 0.1041565299226942 0.41120267117867615 -0.18862891807211304 0.7735590094671131 -0.10692012303104231 -0.5233180694645418 -0.6855775973530694 -0.4958451506470375 -0.18617003703072754 0.4466437860790566 -0.060816218111154015 -0.30147131299132846 -0.29211330825679516 -0.3315178838954121 0.03311902639105745 0.17062629209621094 -0.037557134068466905 -0.26838932033368224 0.10176264528494562 -0.11590672479190126 -0.015875722175402028 0.4014948517816549 -0.5461515632856296 0.14826757127237625 0.005153906581916874 0.2711208468608062 -0.008801177225175661 0.11712014848073272 -0.04802010668624096 0.2722780074625912 0.08305359550866749 0.14331161696580327 -0.16507353220178228 -0.5907388125041811 -0.2977775665419876 -0.22366329383397654 0.12947882292838817 0.05324418927563265 -0.19013574044316198 -0.015509292384096617 -0.5699467030785438 0.19330169282279505 0.008500081267982209 0.3224707081790875 0.021406981898626096 0.02477272581530601 0.3587436102585307 -0.05212645621123091 -0.09552806318414725 0.03169281397236675 -0.0880195081034758 0.0045425915288467445 0.5476916389011014 0.1842022383202824 0.19919834549605986 0.42032954391882815 0.44513322614445894 0.18224955579793609 -0.09887271453785691 -0.022581041764207152 0.41467364983277183 0.34578851238403685 -0.13565340615635815 0.20204437616478943 0.11098232793315284 0.43947941360507903 -0.3383349599697205 -0.4617640950747711 0.06611811992619171 -0.41351410195361593 0.48694643019831924 0.473885116854726 0.22121568321323126 -0.25131935327065047 0.22021062740785802 0.2348009719048757 0.001473605550007875 -0.13529278129177005 0.018794432611706224 0.07901581336466407 0.4502580165582854 0.20792789768700579 -0.3448588292395872 -0.08836396180885649 0.4521347566372766 0.373098608075872 0.08255224370520749 0.3948745561388947 0.2051791306961243 0.09738894591865017 -0.017551400343648705 0.2122942740649153 -0.26684776881014904 0.4551327856887235 0.007339329305669377 0.35169014961974454 0.051352954573454575 -0.4782487029025122 -0.03999284487555266 0.34621974847107845 0.3390443479289221 -0.11600241128307272 -0.07942187013105542 -0.0187129351730609 0.2440263438876292 -0.08681178177834145 -0.25469877619024556 -0.18576442921219963 -0.2025371852760463 0.3305554631141265 0.11990974602895683 -0.17840234530682336 0.4656545720093427 0.1723507864193192 0.48191472924898676 0.11655194520188565 -0.09460630445948616 0.4295592971649561 0.25954005770195654 -0.4703579564316744 0.10382031370974044 -0.19078874976558058 0.14367785525355994 0.13345704790456395 -0.20828361518605734 -0.13120647611073652 -0.10846051272801716 -0.5139848922575487 -0.17335956709417513 -0.0717244846965472 -0.3461215007174561 -0.24970797185792434 -0.21524097345905716 -0.4889481391385715 0.08360865174215036 -0.20888338390690017 0.32521489941677306 0.3296221192951799 0.5159058110259747 -0.32490357822174165 0.6236623328216728 -0.4087098903142653 0.23161041621469133 0.09341155330600856 0.4327201774316597 0.26813574376826366 -0.22248610384429238 0.3485893233512677 -0.06645099265033856 0.45982946162158567 0.43428116683600204 -0.34636061089747694 0.3231548898481277 -0.2285820799347481 -0.49201695301555876 -0.3001717395721263 0.42279346185721645 -0.01573236164341462 -0.05421764980872279 0.05035847279437897 -0.20290294978701442 -0.006557704935895853 -0.08336018711257709 -0.5013515602701 -0.04946209933291724 0.22697130516249772 0.08198577603353988 0.4184637272395786 0.18965940561172687 0.7457872209273829 0.1740805723180093 -0.031986204937633 -0.2810914398466656 0.2805112698333754 -0.06261554636913208 0.37431798994768173 0.24263985278393796 -0.06737710337958738 -0.5208336159565123 0.4203817453276372 -0.4153881583597719 0.28397973197842874 -0.14100923515378058 0.484216366704974 0.255269001981719 0.052711926932195285 -0.5924561767517369 -0.8679527401586236 -0.477808762394003 -0.46121576830013045 -0.13810529951239417 -0.042181290255878676 -0.043727504006752474 -0.035881374861619984 0.740279367657394 0.28168182715742873 0.2525931823895104 -0.21701832540010677 -0.5075112059985987 -0.07721779141043704 -0.32048092424328883 0.26891263814094873 0.6117839608619201 0.08966520048605005 -0.30031379557452814 -0.027750195646692517 0.27804773118692644 0.03327395099893733 -0.11572593869409237 0.5841264029849641 0.6673190811957568 1.1204015862490069 1.2905474944337394 1.1132137833148592 0.08298156853778178 -0.12009405036199003 -0.6458029081054312 -1.02336197516058 -0.6689863741385907 -0.4140819533731248 0.6231586900261646 0.4173175529605139 0.5895527622351568 -0.051614666775397076 0.050374341314141785 0.34279582522462504 0.26966262711799893 -0.6273200303606534 -0.15290015486834288 -0.25685030910153406 -0.16756283075452705 0.49391010002348723 0.34575820069263236 0.004739729006478011 0.3196472688019073 -0.023962548184696623 -0.5019501618965506 -0.17524613613609663 0.443883075467731 1.06261946665868 1.3239153430193704 1.544692410926037 2.06197229409138 1.4465161864691285 1.0854186094962597 0.44879061826486283 0.1052231532642984 0.7913027891882031 -0.09615124313460886 0.7224359295690053 0.021216964097110415 -0.2564098052997396 -0.4076574548731813 -0.29491405419857525 -0.12492269757664051 -0.14645178727991529 -0.10345709041565046 -0.46585809555526186 -0.011902193520833501 0.3030629238503897 -0.23942645509515273 -0.0014577357393077558 0.2983083650961582 0.11169256857132669 0.016654155024043906 -0.3951954305708004 0.7105636307122618 1.0990582322321227 1.3408838897737816 1.2622180954302042 2.2478666937659604 2.317652773635993 2.3858620179250654 2.4129526557745065 1.1885705642388622 1.0268046315807986 0.6457598776410167 -0.22115233990207936 0.19387866428567452 0.009621187175832496 0.16241765296288513 0.3511036603091935 -0.07031504014682038 -0.05712563132170731 0.007636809982623117 0.05040249120577382 0.07193276626504119 0.40038712008186517 -0.31780161929678546 0.43925379065907105 0.12698672892929597 0.4162149644911306 -0.3265625104751776 -0.08800446421329741 -0.10286850125309657 0.3313738010183726 0.4072294959484293 0.4831653752761371 0.6283770563023684 0.9378863155108751 0.6433348834500742 0.5590507100812867 0.42353969338544106 0.3882549778028901 0.11635025316423503 0.14310275451799745 -0.08421884317818651 -0.2745664152683995 0.0062025931783937244 0.1740813560585244 -0.23376504600756137 0.03420992075751915 0.15097320517365662 0.1883907964243789 -0.41822862689334706 0.07995162565814389 0.1960715213530974 0.282024496048385 0.39915787466133484 0.18214094488178934 0.03315316505162138 0.12613947354398994 0.25169319299952736 -0.3180655725430678 -0.19654899667258338 0.1644744841323905 -0.6763538891561152 -0.15329812821399633 -0.5667162909186445 0.12306795682109954 -0.33925403763698636 0.23967013173266666 -0.25490857664023653 0.48101478453211244 0.20531748338211828 -0.05040518868186051 -0.15269862598302303 0.14747649127753398 -0.2595080500204825 -0.21764759100073214 -0.6049921900586244 0.20862100638590828 0.16778189471424002 -0.3905859297827913 -0.4138974136004902 -0.15762220826951615 0.44825747503349916 0.37663559243361405 -0.05190844206303197 -0.22653074516023664 -0.34199387144054977 -0.4697536559629449 -0.5702737959793117 -0.6077905094027397 -0.23244287440051956 -0.6342432948591633 -0.4780673095659947 -0.5111955683384077 -0.6582456619655715 -0.2636503769187842 -0.3398117016221047 -0.31952612321033685 -0.4444258988646929 -0.5503330625391617 -0.1256658988714467 -0.324331997087349 -0.12362110809148348 0.3671532328588726 0.21720666831733063 0.2446167763302009 -0.11537998546258799 0.4282040095627513 0.3155559095054075 -0.10916248927000803 0.25467243561611064 0.18022069212924666 -0.1839020422133791 -0.15570030165802093 -0.3377346377509867 -0.6265064857403956 0.10056778493755596 -0.08562725757216301 -0.2531192996465309 -0.08598313015310416 -0.6645814958297024 0.05837114303842444 -0.39164365076269037 0.3060766580587368 -0.18879927027430696 0.4335440841276445 -0.31705096058665727 -0.22411831194978368 -0.2441401157734552 -0.7525890083860595 0.12322237482457402 -0.12783707670404776 -0.43382479522173334 0.3803848199606558 -0.40319595327891244 0.03289526797938868 0.4905957561152094 0.2482867947973817 0.2830880701348226 0.369944609003552 0.1440670381865011 -0.7293932096287404 -0.9778839500463485 -0.6053900236528993 -0.62625501649897 -0.19417753674637772 -0.3789151440826541 -0.8334378139800243 0.38808504026325386 -0.3745147220385962 -0.17204671269394584 -0.12010543400907576 -0.24756073895047626 0.0004727250034827216 0.510000281589451 0.15385229104211454 -0.3423632262863693 -0.2796922523645415 0.001099834547747647 0.4931081796405291 0.2849376793022981 0.42523368576251375 -0.12060991210070654 0.175317521174294 -0.1119205382182793 -0.007709905754097579 0.4385213547074125 0.3311373890565768 0.29988838963090314 -0.051570310501253595 -0.27032312426958255 -0.38049312510686256 -0.2701297231266472 -0.2730990440132211 -0.3529301614687225 -0.6138120985717792 -0.49939558651961685 -0.4326221916183345 -0.312718093033371 -0.1690742151190736 0.16407149493240772 0.19571898154711562 -0.35373367069581446 0.4910521421752518 0.15893726035608438 0.4478891908555932 -0.3456469069601478 0.10185518030343838 0.46311003631361825 0.12007731687411664 0.3121687848992399 0.10148292646209109 0.38156259400455717 0.18774166135391068 -0.3960011879915736 0.11809644079437182 -0.4064190009547802 -0.5209267005499589 -0.15252798953639157 0.2745779933587448 -0.20228708844614615 -0.41602714640687355 -0.495142239164286 -0.24563735327664418 0.16097024494948306 -0.28878836780784667 -0.2892695297889014 0.2348622742084751 -0.1602415086309695 0.37117112107999256 -0.16582557010753687 -0.24576956478726764 -0.03149200078385316 -0.4580850247591067 -0.3775823536096878 0.303875836247477 -0.4759834207587441 0.09050361651421246 0.41721556910708846 -0.019545626246332656 0.24341497505062704 -0.40699947695149463 -0.05672912549265685 0.020211838830178075 -0.4708858401265595 0.4803525170543181 -0.3836952128450174 -0.31720742890089576 -0.11718833218959168 -0.41880077333636284 0.1087292041144806 -0.03380665820613863 0.43417124506393 -0.3466938842280641 0.33642729908432295 -0.008503261031238805 0.30918014689109935 -0.22109045082374384 -0.3320151355214213 0.10053195399813392 -0.3093048410686297 -0.21121776023273078 0.3175132844355198 0.461288271908668 -0.4883214587652622 -0.2734548045711021 0.22205616875134174 -0.29829330832018697 -0.16933551783005218 -0.48188162399958223 -0.07823927447045897 0.4147860796454287 -0.1256760308741488 -0.4996718434661567 -0.023064167083259035 0.20691126275675997 -0.036290348652702094 -0.23386772420871146 0.422909825358968 0.017332843807051655 0.015535815126357821 0.08887316284199971 -0.04523798985328192 0.36849026797579953 -0.040063680935363145 0.32754501224504523 -0.3871527725574836 0.3764399835290361 0.1988200163317595 -0.4406903464719804 -0.1497559158627503 0.3678376097068669 -0.2299240495033037 -0.4673675801020968 0.16979545729391965 0.32415088512945145 0.47658358983708615 0.9677253839262585 0.2955876125062943 -0.3256727038374171 0.22456185748111457 0.06095128314732845 -0.47928747358153667 -0.17553944641523322 0.49606563612296806 0.10534116759179502 0.3237103316144353 -0.14491340817958287 0.48911418939893303 0.2569420672664162 -0.27432660824326693 0.3070024504541357 0.0082075166229363 0.46125590499106883 0.4174608546212816 -0.21081141168478656 -0.46467275433190325 0.008675488702898693 -0.49151933343206355 -0.49290734623953025 0.1463355989814914 -0.1803671838122317 -0.35096747977760767 -0.38869855311464596 0.32924541366778826 0.10950356356753965 0.49826890640046817 -0.24150718507567237 -0.2991369917209228 0.09952493567830734 0.13053534640275216 -0.34778711556870173 0.3232932527206469 -0.45173569192181234 0.2628699475663815 0.4852370519370789 0.4104017450200076 -0.2291550527502205 0.17149863121896675 -0.2143280548189374 0.020649108047066024 -0.07955526560706473 0.25899693585699457 -0.022391096933099864 0.3861686018324725 0.42115353065012084 0.494085418434079 0.14833996705023583 -0.1524288467774559 -0.03234381341997794 0.11387222513957573 -0.2818846342254647 -0.15954675275715013 -0.25361817516141083 0.19398326761314566 0.2730208770059489 -0.055768272945343485 -0.3696841147959471 0.3209169513695731 0.11673267741182923 -0.15700621180879018 0.23410515782790323 -0.281081158804059 0.04713460436508431 0.45850254509833355 0.4167671996559022 -0.4644989433685054 -0.23509284406393727 0.12278244591730214 0.12944676651604559 -0.34926499720643933 -0.4831685012541375 0.02067221760128666 -0.17378959958961943 -0.08836554409015261 -0.3894434876089795 -0.28068605317820633 0.14557112226247318 0.13700881369346696 -0.42731111047102693 -0.3781517535770397 -0.33269507880826543 -0.2570611475834248 -0.05172380747949157 -0.4765527608967807 -0.4895819910637349 -0.3596226244089061 -0.45275372260484764 0.3664576785305629 -0.31564088296932535 -0.05803639677858674 -0.20936598032604692 0.2961531851538181 -0.07744552240296729 -0.32951878111324656 -0.16842888369133907 -0.02849878275215039 -0.09428400683070678 0.2376653874177019 0.20487065931016665 0.38978977438642326 0.3693685151348244 -0.17195127838233554 0.3511066046763152 -0.5335363426568058 0.04954178042211738 0.4660848030401574 -0.11440118577079829 0.30150104337246636 0.44315745836343556 0.1954494616621557 0.2853036629098276 -0.2476394216823134 -0.12230804312432846 0.3412694242425115 -0.3650072541189828 -0.4021604016837318 0.3051991863638288 0.381744211588501 -0.28041841877308904 0.3349323730157558 0.20545041838847994 -0.2578069498160229 -0.1420308871228866 0.1667337990892797 -0.03343029946318505 0.6538779038704127 -0.35918447873330345 0.18230439303841237 -0.10788050465597762 -0.3771833583536865 0.28230682586975964 0.28835888082363154 0.07734435895321977 0.14473061408126986 0.30990493896531496 0.046136414346302376 0.14988456913056494 -0.3293855187952818 0.16261108370735744 0.20696568398219334 -0.17726441285940414 0.12552757808171675 -0.37329171737020084 -0.32281521760214543 0.4127384238118806 0.178280352849169 -0.1502832309428458 -0.4790745658386911 -0.15437285466677092 -0.18878359400763062 0.38659480555186726 0.19107269306903477 0.13225916078746341 0.5470786851531158 0.03566923040999368 -0.12441859299584788 0.38973681071155264 0.39183667594065286 -0.18709793975800557 0.08176697285597116 0.008351562298645528 0.6027678456793445 0.4005436984018794 -0.32529887325609375 0.4729085574880199 -0.022818582373890117 0.3282872358232416 -0.2791641475461821 0.4543700185100641 0.21681229509035538 0.014504978329560587 0.019719161167754563 -0.28928150510132644 0.4590223387954189 -0.008058213860247054 0.22569918657775778 -0.20238170932271116 -0.21219273898352853 0.3596648259246572 -0.14225281674592813 -0.31015124416147793 0.15639636298262616 0.05118516399135345 -0.34757071692578567 0.20739114742581574 -0.13972076929420457 -0.46369283630440605 0.4812306787724187 0.4091660492600594 0.32789025383597326 -0.30512570539229156 -0.11347197128758897 0.371427152707754 -0.42371054681003967 0.22591886355323298 0.10834827651161566 -0.22177304956013533 -0.2920085088419934 0.05916201370168364 -0.19121247538204045 0.10590472380621255 -0.2948771686433116 0.17059191433819068 0.06435708721929122 -0.3543953713549267 0.254759508167641 -0.024024442657493966 0.2730449296819016 0.07061066582622932 0.27092805592164443 0.17973015478980264 -0.11807829162037625 0.09286812952037476 0.2671355158359976 0.09376176637491045 -0.03705649745816821 0.1419163232882808 0.1869905260376924 -0.2948926615366056 0.08516265224177777 -0.47549556445083935 0.11984411635427343 -0.35579579399937816 0.24406724008537098 0.03715323193879914 0.5809520762346151 0.527071309482767 -0.3119572349889984 -0.5413757729869962 0.03497506538265476 -0.16200002832604785 -0.3042559800765077 0.31809961996760844 -0.29814714614053994 -0.07317803483602021 -0.1033275919773846 0.31039803206173106 0.07868496706821904 -9.034185971478417e-05 0.32064465550985105 -0.30014117585594746 0.14211258759176362 0.11755660104711901 -0.021919167445987035 0.09857315932831985 -0.17019881115556898 -0.2694397496365667 -0.16336521260514153 0.1230022811122136 0.0047148233242328775 -0.3316685645396334 0.4391207118609252 0.5153695205966071 0.24876242530451176 -0.403624333640696 -0.02658561177404119 0.345455246683454 0.30608105097754823 0.01655319609417904 0.381289557393893 0.09351556521577047 0.0959374106624467 0.27661881693219514 -0.3862091944865264 0.11781379656534902 -0.10076752885731255 0.07042116976500583 -0.5341352175584402 -0.8313155134821145 -0.513048280291982 -0.5182182996587501 0.24854379733385 -0.5301705653800267 -0.1531475309921325 0.13052553290632504 0.449482512003983 0.07385764023863339 0.36240785748045035 -0.49787586751383966 -0.21022709621887326 0.4768169220729707 0.20337938520355012 -0.038280797085802426 0.34211840925966064 -0.1311006024066088 0.301853203702434 -0.3901842072217039 0.2826185313750417 -0.058370589341692786 -0.1100922505645067 0.14654924437181951 0.0036693486251125596 0.053536360712971263 0.11781362499173428 -0.3270683972192735 -0.08920964086359337 0.06196476635485184 -0.019291448157399547 0.06292552404802121 0.13441560234593222 -0.4028129237179409 0.4141577614666446 0.1304944481817103 -0.13499424949588865 0.4557065542369044 -0.3136063552043235 0.2525952908037199 0.3418154360821977 0.19406304670058647 -0.16524440071307944 -0.20403253663604085 0.2602525351450803 -0.06372619122541247 0.011275284214048133 0.14632844114236102 -0.05930422256020414 0.054536029877775144 0.5990202217219966 0.5346842686296883 0.9857969972861872 0.9099949491019768 0.10535408260762935 0.34611747440485935 0.04386197642998753 -0.035300537960150445 -0.1618863820268624 0.20914410751169468 -0.3761725749058814 -0.0007761365545531889 0.21496081570990783 -0.18182636017929016 0.4379040187015436 0.460348993136695 -0.03801841004720595 0.08578632455855788 -0.16956599862986751 0.2608058523147954 -0.5998053594275542 0.0865956489472034 -0.3304675357389986 0.11802672260440301 0.06940118892923679 -0.14282445278765477 0.30302139550840046 0.17426487547355482 -0.09346408728090412 0.17413696301463985 -0.07569272122272651 0.06315619256121881 0.32915085065180577 0.24870171449083492 0.44065490969182 0.19119811644305817 0.002624531200112513 -0.5826576032938522 -0.16652266206883834 -0.8876993009118862 -0.2691290174567019 0.067169610995648 -0.14421461652020326 -0.06270264287201942 -0.19046566240663898 -0.38381325231767127 0.35072500832470016 -0.18067835355697742 -0.37060949773318297 0.012191748748908287 -1.0107159152333274 -0.29282699165054066 0.07649986922574616 -0.06488750451109211 0.39023424276232993 0.08954234364018845 0.46761072382078384 -0.02438572871702327 0.07999392853506829 -0.20457537995825348 0.6434933744242983 -0.2161421238978807 -0.08171255006145138 0.3230752254879341 -0.2796799176822265 -0.17052408072630235 -0.45313410530222187 -0.12926701368029267 -0.6924526629352993 0.2691376996991931 -0.036621826973099306 -0.035641274539709465 0.13685755591887896 0.4855950423146906 -0.03946012432555757 -0.2890143217494481 0.14343675419102683 -1.0987577132962953 -1.0820410862304823 -0.6339055586737876 -1.0874265662221811 -0.6525549786486181 -0.2053281853818427 -0.028270269029821993 0.6880355898538936 0.128423430378303 0.08772542822313252 0.05760380289332081 -0.1600944566078295 0.11300929482127657 -0.38889655006664314 -0.31790102983346696 0.022046978055937333 0.11070067658797865 -0.08663764690596307 -0.1990389781769673 -0.19036918020832097 -0.42601859562141203 0.09111918052128161 -0.0858340771547542 -0.21181183791580485 -0.20097233012594506 -0.39224941238431016 -0.22439591416440968 -0.2415508286495725 -0.9165425854860801 -0.9058814446180757 -1.0703639832465053 -1.5939999920107732 -1.5436583192947992 -1.1019325418883303 0.1304454057558598 0.7740152129126299 0.04670423686204086 0.6737426639595749 -0.12904066947587534 -0.31884877149102675 0.2337282373193766 0.2061765148538437 -0.0003689788211683286 -0.009114912004456598 -0.22168915421466331 0.023815170955967527 -0.04984848082446969 0.10823518214920486 0.07524648525249819 -0.27207008706679897 0.2064065899646866 -0.3123280407999652 -0.3154984038762148 0.2958514852521036 0.21286128884770045 -0.09826739856476857 -0.4806300767621449 -0.9086997026704063 -1.1448780150787132 -1.7454706768494694 -1.6974463244370777 -1.7896225380580315 -2.2736110118410275 -0.8178804632028615 -0.2588706746829043 -0.3765824697187672 0.35337564919407727 0.252151780044268 0.10131684761886364 -0.01880367557235495 0.1621105073302544 0.20246309636582152 0.2806504313227094 -0.11723794309435522 -0.3217412546483807 0.4026991302325729 -0.09081248374669525 -0.10165581954557071 0.30827111518230876 0.35461555419869417 0.4934383819086945 -0.25460484373439735 -0.09923454229591971 -0.1919845703927806 -0.07861456169334778 0.05223184890828247 -0.2192645365613014 -0.7451442649742476 -1.4981221020875866 -1.6673483724266551 -1.963606667946184 -1.8802466130344517 -1.26631421898084 -1.0217032433137467 -0.6504011821609451 0.020214703251283123 0.32162913149942124 -0.4942979605108912 0.1365280392986593 -0.14126131672728098 0.3214270668916772 0.37076278407473595 -0.05881744504833545 -0.08107347991597806 -0.5071657970762258 0.017020114047803073 0.40264489114278346 0.48494518509443296 0.4236925333275319 -0.24537200244583543 -0.1298570801583108 0.03627373938154792 -0.18104367851100667 0.6143286652477828 0.34235186601538614 0.9856027307026597 0.6373251910267483 -0.37682299753886445 -0.39116412031199277 -0.7604454970426855 -0.7915826162874562 0.057081670900570175 -0.520185848404136 -0.1475651689505289 -0.14518576960436014 0.08470747726935147 0.3167103607256118 -0.3636159255837333 -0.14797223618151248 -0.296310802450013 0.13944633966926703 0.31995016390189956 -0.32717760554967174 -0.4305716739684523 -0.16691825176631397 -0.32776909920194675 0.36072258792631906 0.0013029856169596834 0.13617171145817927 0.6494262934590533 0.6007333489252419 0.708029784067877 0.4482903407039681 0.6341202902828939 0.2933111048346437 0.952636243404737 0.7499609530225614 -0.11788619137114817 -0.04799177354158929 0.24628611391379768 -0.5790485588341415 -0.25707398494443395 -0.42257581018373125 -0.17185875902201153 0.23608668492670612 -0.12198901807110053 0.2680369173182782 -0.3720134785963286 -0.021173907738668004 0.4196954569631917 -0.26574109612052643 0.12214839035593547 -0.355488986802631 0.33525848326245367 0.3614490824476176 -0.11024754148391479 -0.1381698313226853 0.41209711736315113 0.320560041417081 0.5436523332789819 0.24536722798958244 0.6196870794399139 0.5822251764716587 0.36414474283163073 0.3909566987815716 -0.018984532125779524 0.02649799502624193 -0.2708475605697204 -0.5148983563918305 -0.24382253316407904 -0.06334250835207053 -0.028892693505650806 -0.19416683900467788 -0.12335441230215737 -0.024272864829561067 0.2322387563229017 -0.10588943110468392 0.2117064593000298 -0.3964704458619416 0.060962202999322035 0.13037481545863094 -0.08508636685603352 -0.4107345286868767 0.1675900179736573 0.6009331701650544 0.5300937924739195 0.20254799290332076 0.23153840475151846 -0.07862857118506868 0.5074197608199337 0.050574492595277895 -0.2391347662335751 0.3434113922510893 0.376052494808403 -0.2727380317171623 0.13259930128582623 0.40186507815040934 -0.40491404649406876 -0.15004829590912624 0.08761520838556523 -0.440922493961072 0.03302582883197431 -0.05567980137823308 -0.4305954951840574 0.12281256239640857 0.1852373678530586 0.1858349836002214 -0.3749194340317631 -0.44949378651582816 0.23789267329266925 -0.3096903970253859 0.4340149336399498 -0.4082497936666496 0.3148118217382423 -0.08966729953787217 -0.2896195480695077 -0.17787922410422707 0.20427215939857077 -0.14093339640779404 -0.1464304354831261 0.1099131664782 -0.5821725846919606 -0.025121845690592993 0.18107437123135908 -0.09303557109185222 -0.18516276409959873 0.03625459566710782 -0.3852007820411522 0.4232937587775479 0.16249498122730754 0.28045823988661756 -0.08389612090582098 -0.47799227301387753 -0.37527023075247706 -0.41551464774990543 0.31945100887241173 0.1173824998832259 -0.3756578445665537 -0.08725314316378663 0.240418612272418 0.5698829999920396 0.17944562044738077 -0.152063382090972 0.044048658976498 0.0014987835855941876 -0.30308215302682007 -0.4818306479357723 0.28180427589827606 0.1168434282368184 0.013541946011935832 -0.3815601346066157 -0.24968076559705357 0.04223972941767081 -0.17620062024943167 0.5126872631716425 -0.3814518263846504 0.11624647255297894 -0.2982070215034423 -0.3276996043701838 0.06343871438289174 0.03840389532559619 -0.0230153992276412 0.24135935014776566 -0.38708741969972577 -0.26682148185143195 0.1301262966876755 0.15915186327045017 -0.031175833226560295 0.5695627526431676 0.13799186478070363 -0.063046552742966 0.0906448250248119 0.6872770636221359 0.3270615330138607 0.08193009152433517 0.32918526072509 -0.3114681140288027 -0.21945121231359427 0.2743299374046271 -0.4237216242149042 -0.13237299068809683 0.012834288401446044 -0.3957221133696073 0.06229511912937221 -0.7182497111081738 0.10841720399247115 0.418162039829144 -0.4789395073494012 -0.10818015150626274 -0.39589678618852203 0.009273789064823719 0.34341921655653757 0.18845652640296628 0.32670702501396187 -0.0960161488243696 -0.02984245467501893 -0.07144417733997509 -0.3732492168024248 0.42212089329199026 -0.09365287567448263 -0.2105020399171305 -0.32230704762742585 0.26568095417421617 0.07332359151360379 0.18491251788940583 0.3360759556281155 -0.10552281920933697 0.007674430808126654 0.0067736090513668724 0.4138038425323453 -0.4822434720445798 -0.08569820615934544 -0.1246215187083216 0.18467241945589646 0.20841300806123625 -0.4606848154366876 0.20577018777463596 0.44475757474314953 0.22025394017108493 0.3875229116498589 -0.020147042880137467 -0.3979811053409882 -0.3157993337652931 0.27829755688688884 -0.42641561935344174 0.41153207393630986 -0.2903048914278448 0.18220598610281538 0.2547794371496898 0.29503598925006064 0.47616225285344205 -0.050219746355826975 -0.03335871618554656 -0.03626309175437201 -0.1619803759002106 0.051731058047910956 -0.3897233004400634 0.2974278101045035 0.24685683647128767 -0.09197620478895123 -0.2240769497796036 -0.48183535767144214 -0.07668397904264573 -0.4058592519605577 0.2909923897895129 0.2739249856762281 -0.4962557739077114 0.46332432898553866 0.2426814946274577 0.4395162939345152 0.1925372960652334 0.1809521518340459 0.20169106562094985 -0.20292031235857041 0.20492207858644734 -0.3960849716329191 -0.459161901324427 0.4723686892273682 0.12674201474410282 -0.29192304751441694 -0.13572915159696386 0.20387457516311996 0.10689589285131595 -0.39346610746493 -0.334779918130686 0.3603021545897022 0.41770749766144627 -0.2127941988350114 -0.30254363312764787 0.03973132725892493 -0.10008121628855797 0.16919511199592988 -0.35100894167076485 0.2933214907902332 -0.07061933345974836 0.3427340270088248 -0.035834977515442845 -1.1548407580018796 0.25110238238285587 0.14791466672615883 0.08492885987684606 -0.32249458065199277 0.0320000658753643 -0.163430338846402 0.007799483963248255 0.36482255430239996 0.013781529743990273 -0.3856608612108169 -0.36305904635008235 -0.3099058991023267 0.14232925157673443 0.23982147147161445 -0.24900445177131922 0.1970668393973916 0.3891228402840534 0.08889376123874859 -0.45091239513497894 -0.2103646766999836 0.24553726779222151 -0.14789655845134075 0.22976051644322637 0.10710181519851092 0.06958206472681627 0.43775866659849283 -0.44147887201497615 -0.13304826613472842 0.10522220137709837 0.10372093363667922 0.3049353242598821 -0.32960287572435276 0.038779449976599364 0.1047081816335413 -0.05412004385334181 -0.343590247005314 0.36823095518714605 0.43128638853974877 -0.056168515529221176 -0.4558597083834058 0.2879574041227887 0.09274976970604815 0.390485052307289 0.19745175489697703 0.2540463874027245 -0.07423523638947749 0.36045493410603996 0.12897314298106635 0.4510271564780276 -0.2609947341278332 -0.39823450488055234 0.20016873453034636 0.007667804454199567 0.0682884357137753 -0.46069825841732825 0.499525681620276 0.15287780789921634 -0.0015626609632393151 -0.20240456242681482 -0.029220406166916166 -0.18739022345349382 -0.12628965893158117 -0.44891834105163053 -0.026283929060996254 -0.07503515330258098 -0.036434398675123755 -0.48302752349480454 0.027790997813931715 -0.1376050241151614 -0.04379619635233546 -0.3742701368942713 0.4468834999975125 0.17375109978582828 0.0668356684339866 -0.22516599688195982 0.2256972796889856 -0.18756913927689367 0.4556637831974388 -0.009964984147519257 -0.4964650833797198 -0.06915923971409618 0.4242290770753447 0.23368998152059783 -0.019183017377307654 0.0741292141623715 -0.36248728277330755 -0.039351678618478776 0.4793311592234666 -0.2272694409198077 0.2632478104952602 -0.13223958025489235 -0.4444702606357064 -0.04959951822039273 0.235739793788623 0.02331981079409736 0.2855441232022199 0.43311584868424213 0.14449576918543441 0.1483137441610145 0.36641268030190755 -0.1323292675625865 -0.12956936066172847 0.3262197381869927 -0.24485433624416178 -0.003368954053515625 0.20770438526178278 -0.2808846048553926 -0.20871653751313074 -0.3117532976160801 -0.40331062713276294 -0.10845544023514846 0.24069271465164332 0.11153219214003252 -0.28345384023632864 0.3850501437940108 0.24520796596056574 -0.46299899612788514 0.34578818219746627 0.07491130111948065 0.4116220303173964 0.039116418468259626 0.38868337564362737 0.1952177327504981 0.39894558191404716 0.10071177296033469 0.009792295686521492 0.09408743271710836 0.455247762543276 -0.19036918052427382 -0.23401028390573786 0.04793222467048479 -0.04335285893314563 -0.21510196102481 -0.4762682838734913 -0.43397369411464853 -0.10114882259369588 -0.3216276503059802 -0.298234995765046 0.41962470914459704 -0.1446580512736182 -0.34774384950869686 0.3061994706110055 0.04396035309729896 -0.2588938576156221 0.21303477953873637 0.4067114776224391 0.3864310745726231 -0.10348278612634552 0.21472666501754153 -0.025697285967161143 -0.19360814332764933 0.5590016966815712 -0.08009484834359767 0.39781811010755325 0.022399255404261235 0.21253747230728076 0.4533467077727406 0.26083279670671433 0.023773156708144096 0.42561942745691117 -0.1558748155685616 0.1623812482399015 0.0351295398713961 0.23790679425776223 -0.35113087372726814 -0.21593762389201684 -0.16700379918092004 0.1568081670881017 -0.20753686921007375 -0.2988585052088326 0.30614820435285245 0.1197027721717739 0.32879607407710976 0.3455034604460735 0.2633476934800528 -0.40622253481985765 0.13809568979881218 -0.3116626265086794 -0.017773342054593588 0.8262119898628367 0.13878283796914326 0.16638183968676185 0.332799649202725 0.3906118959711354 0.31978056873081917 0.04975197585714981 0.39061379426169945 0.03838666721153285 -0.22444223590262194 -0.10486969229407338 -0.22494203415385441 0.39276384109468276 0.37425304341673 0.01753484397434951 -0.2229129355563646 0.03271085393079885 0.3362387877746143 0.2546348211365596 -0.08649640859476244 0.08052510812821356 -0.44843566336801827 -0.22791363525033742 -0.2046227890515489 -0.5542801842071035 0.4303375220928379 -0.2090729519568069 0.23197653261140636 0.21556260886469894 -0.02500388459332337 -0.10149758578105085 0.7474227587034553 0.1493491716866709 -0.05224262887502648 -0.22379969587658086 0.21495453685490448 -0.10572074830058277 -0.3722220585845591 -0.21543966603689235 0.4906927483875411 0.09911524415880513 0.029162349229563213 0.530625049983953 0.21954154033345702 -0.08719865837228012 0.022119094408765208 0.03685811025170916 0.34357725910166853 0.0730172877858215 0.19272994108215494 -0.4632928614746368 -0.022726685958335727 -0.42448469414114687 0.39481156247498217 0.07137514722764035 0.16511129017511986 -0.20410555699881724 0.3769114472278215 0.4675619539987856 -0.29148332597294824 -0.49199314054618387 0.056963783385832994 -0.46930579568138076 0.3584455918354565 0.6159726032428124 0.21584629094675217 0.3563865027327788 0.6245501986139387 -0.14319266719389928 0.5055629768394625 -0.23650487659191602 -0.28477674054675944 -0.17244246597183815 0.18610206554748857 -0.3348790877613928 -0.02879600639560801 0.2793344606221725 -0.00344840720674202 -0.24551003144047967 0.15824812973530705 -0.21212713895089608 0.18129334271034564 0.21315555706911196 0.2846042905344584 0.3526621454048362 -0.2862049646780867 -0.10128523683679441 -0.4817491111074697 -0.034624780962601735 0.15465431581476766 0.2815451520506992 0.4230319682589388 0.5683082985491094 0.5728274559004848 0.2306449754635127 0.8926861599620356 0.8773991026600254 0.6560652910464063 -0.04014246967683489 -0.19771342300763947 0.2802798576276009 -0.34036717322897125 0.10315516752720433 -0.03641094560642359 -0.24567935572990288 -0.1525522146715351 -0.3646525002159985 0.36426803570423383 0.3741248565138122 0.16868044703191457 -0.557656339466688 0.05060525615474714 0.4308226600050368 -0.014925081457509405 -0.23403519570626513 -0.25799353311136236 0.1761557811227029 0.17146146945751525 0.46549968968546923 0.07281889901536742 0.13827536571110446 -0.023996514515068595 -0.4512043412483113 0.28777811073992415 0.09606075455214329 0.12597042842231765 0.6098022719395005 0.03845374862833589 -0.0886706393744695 0.24023242871993578 0.06245123396108619 0.33802084745550776 0.16282020208927453 -0.2081532078775798 -0.22106623766916025 0.08720518871675437 -0.455191461534282 -0.24519255241596263 -0.4730485060014357 -0.6977568296058788 -0.25726080928868134 -0.04736287094566823 0.20601831658112044 0.4406638859134588 -0.02024131620348315 0.4616772777570311 -0.4005275974539369 -0.07294969001812059 -0.2868739732859123 -0.5481138756097077 -0.11794566986041109 -0.5803164155163093 -0.14145840249592448 -0.047515970909025346 0.36499063917042834 0.10258134770709774 -0.048114730523387286 0.4561259499867084 -0.2918313062064377 0.07656896379740356 0.3262743607882299 0.1447052824391999 -0.026887026246263098 0.27718485801377324 -0.23752878441600628 -0.38275103995017584 -0.20167423667375395 -0.2157220702872701 0.04812458808467486 0.3630961582908266 0.2584660740778751 0.7980689468116765 -0.45939999222204797 -0.2363945915270883 -0.13165024748783927 -0.39290007574512253 -0.7717175891166193 -0.537425948241127 -0.7826016560826063 -0.21209206988431317 -0.19576055194296055 -0.06500970761187845 -0.3475768480717814 0.0646358481642017 0.06572046801054018 0.08140446004821449 0.3437868401932352 -0.44674026107079395 0.12143610188330928 -0.3098510541328901 0.03336218653684263 -0.4579875402967004 0.5342167987140534 -0.23965796469588063 0.1691579560766469 0.217588666539559 -0.7054362655804366 0.3279580144431459 1.0249031173589256 0.584550669773963 -0.036562367282432146 -0.6370347540321027 -0.5471806954430777 -0.3202809869238846 -0.8454520937388441 -0.1325917116250724 -0.38685192726535866 -0.6605148692026515 -0.2782131368393018 -0.38674590073495063 -0.13993765388264237 -0.20790867337893754 0.1779070732471741 0.3266245005311457 -0.06709389914160015 -0.05285684922527652 -0.08116922300060368 -0.0036945283537499094 -0.16026110929450288 0.32711445218077884 -0.19187361581261084 0.31658209822886596 -0.20111100953666847 -0.2108846977363287 -0.37380585185640786 0.23567671282756508 0.5741990963304289 -0.42650184243591777 -0.10168952807366659 -0.3355813505928407 -0.543594892979763 -0.5274396980592865 -0.6808385884061284 -0.9608867569421007 -0.9312849417041219 -0.4268174283636625 -0.05485472348065413 0.39856059704085717 0.16483714178618902 -0.2846446342301539 0.3479681015689775 0.18669396266652416 0.21030491060634598 -0.28575458177760354 0.3357271476030362 0.3780179386322806 0.006926791181837014 0.025826114801294545 -0.30386008641466955 0.14240763209392338 -0.15088797176821714 0.06089320902822194 -0.5658839225879293 -0.22153750904684927 0.5812009550871245 0.25719437988435595 -0.8088919275783547 -0.4483370256066623 -0.3401189439086028 -0.5474099893333648 -0.7873718225071622 -0.7870726796859527 0.053419482819959764 0.13268835105744 -0.6998738151079675 -0.07714521641284744 0.3441347932552089 0.31413435836214926 0.4432239230983592 0.3244259034449758 -0.24419262785075657 -0.0921436421947567 -0.34784497517120255 -0.14544170329157274 -0.05848555856299331 -0.17148236371264802 0.26967932136702377 0.21615766895520233 -0.11946812283239942 0.028488191156813347 -0.38178450368977745 0.25043363048297906 0.48896003294294144 0.13886100963258516 -0.7891154734643843 -0.1245644133609679 -0.5066015488960905 -0.11562071545370355 -0.7862956261214782 -0.013128445684506431 -0.29492237331115656 -0.33281801481698225 0.34231340463962506 0.321862191020256 0.36823974493859124 0.09978674045616683 0.22287214599954877 0.06044746850156335 0.13800006858275424 0.18050795843228531 -0.37792967176291686 0.2702942801360493 0.6912360570567029 0.6666399801427506 -0.3318908866001517 -0.12354050418755348 -0.11614151384752348 0.12048840698902855 -0.04036228853752162 -0.039495790932897575 -0.0775991725161307 -0.5894172859601208 -0.8404341385542419 -0.3323887893470875 -0.6700905960128449 0.007850234915911093 -0.5110085267629955 0.43380321039546266 0.28411239892126955 0.20612264994374102 0.5321029642213021 -0.07857560326896702 0.3985316503327707 0.11403765981640683 0.17803513185527353 0.4713450284858458 0.1524263828623501 0.481084719775364 0.4708972230575823 0.33442038735738017 0.034581052475736576 0.4435051494041527 0.41272395698894593 -0.4024144315894993 0.16105280392068666 0.037555526292559406 -0.2303241071023468 -0.23068601273324965 0.04475388032361032 0.16239847949492806 -0.5616778708159443 -0.1750273820842491 -0.29935508062673466 -0.34260110134347654 -0.09095660649972077 -0.11580013049535148 0.10849412101044745 0.34620293751898434 0.321306252515862 0.5355285909860412 -0.42376616454685573 0.05584198677470239 -0.4140192221264042 0.23079616844716744 0.01586923181062778 -0.0301045114309024 0.32817220711051015 0.12457499787399781 -0.17327052483318192 0.12501095393996003 -0.32203972369162037 0.2802324728505554 -0.029467169620938483 -0.31394876185280507 -0.15066136271838906 -0.4001745043455247 -0.03574971860608634 0.0011702374897010549 -0.31130493841164 0.5052019332777847 0.14462379874055065 0.4347949158478518 0.6075420576761156 0.5351491686105925 0.14098824188452466 0.4794848908577177 0.5685793478863138 0.5953282134045963 -0.3098488891737457 0.327833304144926 0.2232094291961428 -0.1895134830812506 -0.3185352382181694 0.1394392964911197 -0.25239107543627715 0.21272709979607776 -0.26801966945569206 0.3865889527483894 0.03863640475118799 -0.3063327387693903 0.674716875609868 0.0031950597497587044 -0.21752064390703837 0.03681986034979528 -0.2951565272641408 0.1775211260237064 0.5152829831746563 0.31379106746334734 0.8200868244206794 0.3690761710758661 0.6116368069625276 0.8784253566421999 0.3029311954559148 0.7296079634863563 0.6243091658194733 -0.3230189119879895 0.003313979541906095 0.1918161564867669 -0.10443080636519464 0.4081048782119642 0.18438244135669032 -0.16204325770371328 0.3741778610407278 0.00365891503774488 0.0030535410898586083 -0.002727872141040291 0.1402848500758852 0.15272111193238136 0.3485810127408325 0.3508124531322717 -0.09361534194010626 0.11169817077259249 0.08913701115870774 0.1482580535547657 0.07813345293765475 -0.21851022505535805 -0.27594975927041615 0.4072330390242671 0.26464136728293597 0.4831425001822072 0.7344028909129002 0.28130417151118836 0.09264252814951221 -0.40031674822490737 0.5000922529776033 0.3831292772023817 -0.18998589007194938 -0.06104901737384837 0.038830952660055956 -0.07801071299785425 0.3410851314464612 -0.29186363206902327 -0.07918581302485017 0.059626390161218484 0.20519539937590098 0.40325479254068836 0.9069676004443504 0.17595833678737963 0.5041725744684751 0.3454503613961146 0.10006804582322693 0.2845984066719796 -0.2980547911777732 0.46758531699262323 0.42445022277506506 0.35920569817483106 -0.17678730572464343 -0.029795035964277385 0.6150594717455871 0.4377092742407036 0.6999672704574358 -0.12497941396541293 -0.2212515550366274 -0.036336425886507796 0.41945378359860536 0.21163709596885905 0.3047236624880352 0.5320756749546878 0.13311717682239477 0.03426433252509889 0.524223522179446 0.3835151437693956 -0.08422645690774212 -0.09136763812059333 0.843339516841868 0.7833509175286701 0.3398521842636487 0.47683244658712653 0.48784101583535633 0.3390972875939194 0.43509316358077016 -0.06288460644364113 0.5424967552420346 -0.11689393834299353 -0.21050521168310612 -0.10401304152854768 0.15660770157453655 0.49174116947731655 -0.257314538549949 0.33753729623373807 -0.38997259151940983 -0.016838169781254006 -0.04023394171155026 -0.32779394446581234 0.45542539798713255 0.1453484395839271 -0.2378853404256298 0.1703333145301002 0.05311859954646023 -0.39542074090171986 0.351398628889726 -0.09411748935336635 0.18163122027865852 0.020040029748489504 -0.13168637477164072 0.28685956209206265 0.2517533920202911 0.20370277359366865 0.5987734792271123 0.032015756990286054 -0.14338234818252565 0.4530204207005092 0.4335900906440915 -0.3592743515758817 -0.5389898010422935 0.4447879316250192 -0.1583869654222084 0.22070966648852577 -0.41790205420470194 0.04172408541823531 0.1405549028977875 -0.1300188807868844 0.11811510061955544 -0.3012550131637555 -0.25609183432819255 0.39114162313695167 0.29408249712956697 -0.3988936966948342 -0.1084680122068271 0.033869942139786696 0.06940876974379492 -0.5417524190804377 -0.1979583350817999 0.22953409304618438 -0.10215766657793757 -0.013835661306996797 0.11853652361827052 0.37639887529328714 0.027564230120165963 -0.16923635227515577 0.08517776907825979 0.3476452272019447 -0.5184018135578133 -0.37378563668761167 0.37171375039915955 -0.1989033839434455 0.27585732514443945 0.45018647842848064 -0.1596572944403971 0.38584345134591436 0.27973655954714716 -0.07657102001285598 0.2947533617973245 -0.4755384681973677 0.3084878784657224 0.34494022592545204 0.1690970174377142 0.004211839190002789 -0.6695662819466984 -0.12352909498502525 -0.22423384245675496 -0.420954714870192 -0.4975461427780248 -0.47714879941300326 -0.05396424448505167 0.24498684716090913 -0.1854927337280707 -0.042416463849168626 -0.05082382391988586 -0.13490445582950353 0.05934858267593242 -0.20510366344945918 0.18059642117482605 0.07360289608198764 -0.17781485236908093 -0.026063618835498237 -0.051696341674830504 -0.3786052352545999 -0.22769163548626858 -0.028595987606133133 -0.45473195938208344 -0.3321508361005202 -0.22835122737675395 -0.28643966472970644 -0.15981354603677966 0.43616809985615346 0.4560867029426197 0.07561614525941662 -0.3029218537641227 -0.30016988797862915 -0.10034523324019928 0.3470438371683063 -0.22191021012783332 -0.5014193837049485 -0.45571084382260707 0.3785873996894908 0.15996888236527554 0.46054996399563547 0.04557005252852039 0.49170364312037407 0.37451264475104173 -0.21997322400667663 -0.42565072241450597 0.04471880805570316 0.31039937959190966 0.2453712368423449 0.4723394204397161 0.33751159698553024 0.23232678415291674 0.2311973832379406 -0.43137481961774904 0.18153173634693798 -0.3784503492050698 -0.4440072948230186 0.2737652162587485 -0.06908479259830214 -0.12794590912730597 0.4274507310003457 0.10205952212359226 -0.08393314209681059 0.08927376633537999 0.03173667819439178 0.4890636241560211 -0.03106683246886288 0.1632132264320556 0.14256959150758597 -0.21525504450702293 -0.17389317854264408 0.2829061042496075 0.48340996723082663 0.29574273747203794 -0.2376618176619948 -0.021606543737426764 -0.03436748986026872 0.2084270086078659 0.3339093845241947 -0.2798583155210025 -0.1459496102756761 -0.2698602168026209 0.09105387985822579 -0.45183401982634325 -0.002712104153792162 -0.4439690763768882 -0.2631133610570503 -0.15357367150312082 -0.4670338517827596 0.379306630751275 -0.49226616361930714 0.2738164671692235 0.12989751448835266 0.12998324646733156 0.08190793259302022 0.22302259919917544 -0.1346823309714161 0.2596176486542538 0.343198101309392 -0.3937232759083003 -0.08127817799568776 -0.08242685869886046 -0.15195202072233016 0.06583130842913609 0.07718343072802836 -0.12760841521873334 0.4050055574748668 0.3396382348254558 -0.3948980620713486 0.45223287685256297 0.24134271376331062 -0.34805768411873184 -0.21053110625740257 -0.2718790139725294 0.07233251337288231 0.12535385848405523 -0.031197635784537135 -0.0368853829429804 0.2254095242771238 0.15075467877165202 -0.015559816914214878 0.35546438489332177 0.5120419411170115 0.18613724381816174 -0.24081833170293793 0.43173493554557846 -0.38034250858048047 0.29280644818838664 -0.37752373157266006 -0.5003723706194186 0.03062845178383981 0.2571406776426517 0.33566659574043245 -0.33814992814795675 0.2719807684160056 0.1948300223392006 0.0023947796371431964 0.29244546212853784 -0.28866106139422637 -0.11296513836934761 -0.02115577673195756 -0.18529792921187865 0.12299392654753834 -0.27579785899602055 -0.6400822455985099 -0.5720016210740597 -0.7751820760694209 0.017324482973358785 -0.35337636181935883 0.12452509468639421 -0.35018317484829836 -0.24204055246914866 -0.3876939817214853 -0.27045748927510527 -0.3343914681530561 0.3079947320278992 -0.48429972524194514 -0.14117964033656225 -0.2471997668236855 -0.19362841970652905 0.4226385902440115 -0.07057436419955798 0.18691605167026712 -0.0043804596472819856 -0.02519063184192397 -0.062076475343556904 -0.055686360389569096 0.026863731349167454 0.22233929950896944 -0.09319866769604487 -0.659508179138157 -0.44087581441691664 -0.48171779348276594 -0.5281872957300868 -0.1855872547635519 -0.5597450191563367 -0.1571260657121257 0.31209773482004843 -0.8010069316163783 0.22464525117818213 -0.21472335857499494 -0.14446280142445586 0.22266097132405985 0.142512835279294 0.3092185612925337 -0.3299109232088311 -0.05860401299710359 0.5058361210432439 0.466271500422103 -0.36019731636952157 0.06964323911932102 0.24304775759576264 -0.20085634777065917 0.029310810862613175 -0.027808791846898925 -0.023590976131601975 -0.22155532409281448 -0.026876719405670792 -0.5979650085041954 -0.6203389679673242 -0.4666574642751446 -0.26853533705208255 -0.49334010024964425 -0.48066705624940304 -0.05323895208799509 -0.17082103121859843 -0.8005035345542374 -0.08338871033628976 -0.25840374112850845 -0.16911203342370962 -0.29065314292030714 0.1332770798230459 0.6249403032876129 -0.11893519607061187 -0.10675533338705807 0.4112470994249337 -0.43127709406887094 -0.24267585209745557 -0.07617159569690413 -0.20385333158391092 0.049413181299006244 -0.274868761988133 0.6349364547727478 -0.07683295512408758 0.5932263851329371 0.010883658211834301 -0.571712996945441 -0.005914837833023678 -0.07416240288666764 -0.5411779892970427 0.028878776432824316 0.19412427444698865 -0.11555517005847211 -0.3434928389296679 0.24397019713089466 -0.5636623933585347 0.03982510852070677 -0.165966373401226 0.10727237939681818 0.1521487109113119 0.6446344536081963 0.026968182473598626 0.3991251047497807 -0.13698975385225548 0.4707716219581803 -0.3020826372226358 0.22896610007131285 0.1092047572559197 0.4858434640590503 0.17147882909233694 -0.023904396341730135 0.6604563106295126 0.11664594989320855 0.076100173395257 0.13548578630916316 -0.22517002553910817 0.17643397377235276 0.24283750427280795 0.012509344674855774 0.06530013036217945 -0.6900225952435987 0.08023621221983362 0.041850696405604536 -0.3896869655022254 0.4103560258455928 -0.16110061220526956 -0.10924994465138872 -0.13165397462183534 -0.1536496175502289 -0.3749195614804423 -0.10656096596997564 -0.4206280963429232 0.4247601355244969 0.17721545650806214 0.3974774625345825 -0.15937956800412795 -0.021073783206805242 0.2866886333611658 -0.24284001279693646 0.09422138046059901 -0.030694836790132296 -0.2903796951373216 0.2057968746742771 0.23335755353047252 -0.004103663628596733 -0.4094730821425517 0.325693612191588 -0.05919521776791187 -0.275622655733832 0.031075506087468705 0.11557217946654327 0.4943728992967126 -0.009729335680077637 -0.35877774703046234 0.5061874551236364 -0.04576210586961169 0.17785969340594826 -0.33632806352313444 0.3830911697107747 -0.3795611854386502 -0.1948947334326448 -0.26883356243607137 0.37777043435398605 0.3155813698691357 0.6040809264170256 0.06959294300585224 -0.34911720199566726 0.5255461903109089 -0.440958802763914 -0.4950416203563022 0.27258271309595 -0.15285255247576793 0.36938083898237806 0.3366139100774137 0.16363650817947822 -0.20849788162395977 0.22776148057975923 0.40913913101650023 -0.3047825428658564 -0.005021150744599623 0.1331502007513281 0.27550946679344857 -0.29805246850100275 0.47706752484664894 -0.6142334437148597 -0.27185513094063896 -0.2034307147544525 -0.43283720122913794 0.13040897077289063 -0.3232093768134155 -0.4876001656827495 -0.16940834784456457 0.16023003069443462 -0.10664287993755027 -0.2679395474577392 -0.10478308293298068 0.0838332921110511 -0.13668866612982483 -0.21799173398429175 0.2582069331744399 -0.08801018171505572 -0.12027348966766473 -0.2877247863448234 0.2772124597599699 0.3270319608353302 0.008474804707476916 -0.1132814823895354 0.03594736158133458 -0.07430303767083297 0.5182535201962569 0.48144780993104686 0.10053649036247563 0.21344856631681475 -0.44312737518169487 -0.17282475586973864 0.132023157005026 -0.47269681377806555 -0.1543059863348865 0.1912060195045729 0.42390320231888506 -0.24956881818468665 0.17733226122891294 0.20439858062514726 0.0542943071254599 0.5486637382828999 -0.22895708604703705 -0.48924331478195243 -0.051073689561909885 0.42324369955530644 0.5262428427491688 -0.02860089270235007 -0.2019282009315228 0.2777340594793049 -0.04041875977241455 0.5277204381597477 0.15937900177733855 0.6821874045730539 -0.1946779469232863 0.49224584533646015 0.16878800891585236 0.17253115866156765 0.023957458228665775 0.14369114801444452 -0.5207424764186002 0.19784099295504284 0.23237350934284984 0.10889583766101943 -0.2523822285170928 0.12407747894844527 -0.0010177232955445655 -0.001822561416964395 0.18698328950546605 -0.33063811036300816 0.11158328134952088 -0.1056077244153785 -0.30355838850657935 -0.43543618145123464 0.3733337437748292 0.11167684103319427 -0.30568767754319087 -0.10324746702729921 0.583064576923796 0.24396811759285167 0.00025035863822905273 -0.2565071908311345 0.35775294346276176 -0.05557945187629201 0.2015252256434297 -0.052336720342102835 -0.003966136441348332 0.2606269149846019 -0.3253786647524964 0.2078036855478262 -0.357067397190222 -0.07620756031845141 -0.28011559945559344 -0.035286454182716046 0.06889132548043461 0.2607405693019015 0.6160596868036168 -0.08580584796928276 -0.30709780684733207 -0.27390090102393105 -0.3476638274657144 0.35190678543642234 0.06683650880773118 0.02941858267972438 -0.3188771378731981 0.25611511159076 -0.1219971271594711 0.5420459632221656 0.39397975396801255 0.027930099747895884 -0.19758343781158594 0.3168299028682741 -0.1984201676328544 0.053613070150333064 -0.25116494503579084 0.13660368475108842 0.05572343659881359 0.017658653982113366 -0.3876451182712708 -0.24600707973407948 0.14695992849451595 -0.146061344204642 0.47539020202629995 0.30559771072520503 0.2349868664087003 0.3131740099873881 0.6268613643307166 -0.20488044514216194 0.01176038625513737 0.027063878771820014 0.21777076649770943 0.18267803090456924 0.12354810384934418 -0.000887930114292835 0.05604279485791964 -0.07123054864346405 -0.02269595527671811 0.296793720497609 0.4421665048579395 0.4997367815610131 0.6530413407341309 0.17137458641381223 -0.37207834228036113 -0.3231047936616621 -0.4797350601055687 0.21848186094503583 -0.4565058199279008 -0.22705886877283574 -0.3013440651533485 -0.19087309056821733 0.28186889873415893 0.7070818271206175 0.3397536366346582 0.7298416414536565 0.24255921275521186 0.24385103845077608 0.31641911408913814 0.1065608722666193 0.32624594242463606 0.6983373067621336 0.39477080124091485 -0.12912339942419998 0.47717523283687807 0.6159702824976693 -0.03948235684927386 -0.07209162440570192 -0.06037208783187906 -0.05786690149329407 -0.10699475841311518 -0.15450144154949863 -0.41977207903150604 -0.2971715508716056 -0.18909865571121334 0.02439726511455349 0.32848747105481696 0.13984728912233757 0.22565003444133974 -0.24689152417148622 -0.01968463357202242 -0.3470947862319406 0.28941329917793296 0.8291130362855271 0.12209379015843821 0.32186549188130203 -0.059458707400894054 -7.628320792046576e-05 0.33666987006944904 0.22218239526350794 0.7225381787261808 0.5190607428111935 0.12378798038004589 0.012194718886877311 0.010657522275924487 -0.4641736550270851 -0.1718754994075732 0.09143132237980421 -0.22482417893105455 0.06897505845786517 0.029988505146806992 -0.4290627395058092 0.005448117351026778 -0.3529478100152357 -0.0998069938661712 0.43203818218785545 0.08079102212450393 0.03349773163795875 -0.07215704135503198 -0.29568003659734704 -0.5286468689690975 0.34664077481865496 -0.181661246097383 -0.06790128580083737 -0.03202430146295859 0.410963583094684 1.0522615047423751 0.9010491976769424 0.9710297786903799 0.6818007101369729 0.3439732708688489 0.08848182008275202 -0.06553093714204358 -0.3121860080631049 -0.0008142475360272577 -0.41142918295234376 -0.09202371148883466 -0.1635183024816867 -0.37415391500356976 -0.4108308894778099 0.09285804768868317 0.2996717970968607 0.4056030279527385 0.07116187001188994 0.30804567746520334 -0.18959547974418808 -0.039701658590071236 -0.168613754831445 -0.7058920079185926 -0.3303822617115642 -0.28442533473317305 -0.1295596651508331 -0.4436835852162777 0.41422876786021057 0.4245014970178766 0.12668679543255845 0.6515642397686668 0.3708316074708514 -0.6993420644152655 -0.13433189945723303 -0.2965057893950161 -0.1348362256336817 0.0023353509973066274 -0.0654866111445945 -0.6831313230358893 -0.9639539649248495 -0.10849564002338724 0.21086289259871172 -0.34522572603844204 -0.47701109802409464 -0.06859301589475397 -0.4323462213725058 -0.3943860783291138 0.11936003380715794 -0.3631926058959859 -0.3767342928718944 -0.4440024845918888 0.09366891194952245 -0.7397425545094092 -0.16411697990848742 -0.42759403436074117 -0.6225175161453704 -0.3232067219626416 -0.784230938341362 -0.5519459451833638 0.4520953423159198 -0.5041470515706857 -0.42609280639058333 0.1943278495954586 0.1023791616708719 -0.5432767683012693 -0.4190651992219583 0.06361540787797233 -0.7995635440559157 -0.32457941777827093 -0.5314458973848482 0.21824490688445503 0.024042443129255277 -0.226997335956184 -0.4191699400991075 0.43635142456045817 0.30564350330369805 0.15940955217429034 0.031721782095369286 -0.2122227037899783 -0.3440703859008469 -0.570019155715279 -0.6209898928430295 -0.6146677182853199 -0.8368728365531726 -1.0091889276239685 -1.2899926365971226 -0.7739219260227694 -0.4061939412599213 -0.033365139421835076 0.02076132115132414 -0.4042931743363363 0.02541945308477813 -0.5709248213546534 -0.5170449085054822 -0.12876205215308786 0.06596493001072476 -0.31071577696445224 0.13841032989669658 -0.07544466994713123 -0.4090593204796002 0.4489111684170148 0.2575663506977228 0.1843136391944175 0.2823926853717918 0.11346239353539156 0.1592097110915144 -0.4914602441965302 -0.7044203566413497 -0.510097908486792 -0.01388197139327492 -0.3222176367725869 -0.2894499609490168 0.1023367275703564 -0.05719832857513435 -0.650311116174628 -0.041297937796901406 -0.08547383329979452 -0.5072760512656164 -0.035239003942133765 0.3881847269505094 0.23242754756807005 -0.2939999945325011 -0.35989242119582476 -0.47274400529172195 -0.2832760772296431 0.28524469586032264 -0.3441495987274677 -0.3272413078061053 -0.357341399589846 0.14534419627939182 0.06033499198370756 0.15268338410561771 -0.14662238514048642 -0.4880599574508956 0.05864561048892626 -0.3522014359463874 -0.4473410504025415 0.06032453086429167 0.49642321189501454 0.010694559907473089 -0.18324872360076117 -0.1767725272639896 -0.043332050206550565 -0.6710119577130548 -0.16664661589352808 0.4013050755167565 0.37048573104333604 0.5318154568989687 -0.3653784571737561 -0.2829088161456761 -0.12920947086778373 0.26493102012300185 -0.27454855663255456 -0.10699660331223583 -0.41381144101773465 -0.24024079970011392 -0.4720132763282405 -0.2052182071813733 -0.4173401941260523 -0.023287316357138817 0.0340740584775035 -0.08859505268097971 -0.050135739398437976 0.4695715974550216 -0.021031922541173927 -0.1701674986040336 0.44162766394951436 -0.21734240639792937 0.5449929772675757 -0.30256472587423777 0.20518912863890618 0.335798559784803 -0.2108233798508333 -0.1558873620416397 -0.09151399487310008 0.015877311131733098 -0.2430085781256066 0.44095339009873163 -0.41797270555668137 0.3726114048640953 0.1285050274998618 -0.14991882390932668 -0.3644350517903192 -0.10470141728273208 -0.13396584256682964 0.3108989366671807 0.03843583525732058 0.15225115773847667 0.2764011641598922 0.10413211831795013 0.05530900306053511 -0.18054717541100335 -0.13374902682058473 -0.31727871369604704 0.2661217169357993 0.04934962441487158 -0.12262161759136656 -0.11962128893930182 -0.7035856398370945 0.15931227060522352 0.2563685229531796 -0.3679280689199764 0.1380079708242244 -0.5254197270665386 0.5248087004457445 0.10826318962870038 0.5717618227123584 0.32310755936750124 -0.0376894046649693 -0.12551362085869092 0.06863843930808787 -0.10621275678517672 0.1682849481475871 -0.18102332381420627 -0.13115880022418694 -0.3418074977928477 -0.24558390241808475 -0.14158463112055655 0.539738019285952 0.24222020617060888 0.2872198884264677 -0.18715837970462104 0.09598974885214535 0.25411172401843707 0.5031146989994153 0.3574866173405011 -0.33696246322461915 -0.10267660399421069 0.3403742683680137 0.262191348640424 0.034622497991728146 -0.3224020530215983 0.07435488759004354 0.1034738768652075 -0.24212258387136099 0.04191592535508127 0.22836282018114795 0.2331897466710374 0.39684014048962607 0.33319849272034985 -0.3012682445257029 -0.3790267514268686 0.22712782722631564 0.31518054130248596 -0.04891906544289775 -0.1772841793565285 -0.11063071485929254 0.09664903277667315 0.5322760273552226 0.5028995487730318 -0.3195399116324943 0.31596672227138367 0.1369506712110167 0.19929321861075913 0.22080532445058418 -0.3572926912809776 0.47222009326239855 0.30671862159243135 0.4326691665396366 -0.1027469486308771 -0.06414948010437065 -0.2902185626611242 0.20417630120589994 -0.45580971167748485 0.25639576073983417 0.29777981172102713 -0.3185089732201849 0.23890933751998134 -0.230719404162138 0.4211134290329154 0.06833493552523795 -0.33537321709324286 -0.49578287708284297 -0.22068155359812525 -0.31652532337489736 -0.2588736462154602 0.40281541522481695 0.0693298423429776 0.4818972722456463 0.18540535445132605 -0.1977131277025691 0.24078693530364664 0.23494378422403367 -0.40241805945516296 0.44142810076704914 -0.016400419714884387 0.33487982489985124 0.18927417760451398 0.5047948400239041 -0.44363409960738753 -0.29028543589277034 -0.4156121744451689 -0.3130039396202091 0.3281157711922078 0.2174947752145594 -0.39472623490949155 -0.24481583347566435 0.3673157425978727 -0.4698272316742361 0.3725580439623041 0.42322014070059244 -0.4738925533242495 -0.10047580969411019 0.3688747562849214 -0.44385662807034 0.20029689784952132 -0.024042568570225686 0.18429556273316283 0.22238753369510156 -0.04701448136499035 0.2414196120497371 0.21203160730835383 -0.34645712750741053 0.4550519191805199 -0.3556098854358912 -0.4155225538461256 0.11903355892697687 -0.25749104070156537 -0.24529665094552744 0.40558522612423686 -0.22014590401724565 -0.08676353813798043 -0.42595978468313267 -0.24006378529333738 -0.4239477101930499 0.0735193316530951 -0.32212361189586725 -0.08715600771285237 0.330278365218315 -0.1830174917937622 0.420308132779758 0.024081375012126826 -0.11005612273163595 -0.049754894510237034 -0.36735392253231763 0.2625063421092501 -0.02757894742404411 -0.16774263755336077 -0.30018906658902134 -0.13485398823125516 -0.143979481809761 -0.4556446853203484 0.2673577359064443 0.3981959477039012 -0.1351742603789952 -0.10429122651901727 -0.28752671109187034 0.346106862799501 -0.1974119697301671 -0.06690032478254127 -0.006434179704226106 0.4592365886901586 0.1990926615575126 -0.1921003784953994 0.26061641296186566 0.18576201872169257 0.495404453508431 -0.18788446055765728 0.18948192557437166 -0.4866536935787722 0.12695386412676274 -0.41532436026443725 0.1504166399263256 -0.2984513262914958 0.4826575060564821 0.5344024199922677 0.27868277733148955 -0.36390993293685475 0.21854653874199664 0.010933724528524612 -0.5382527029640272 -0.3402960250163528 -0.49405668498578065 0.4664434334320303 0.29488700625230185 -0.37795382460284155 0.4893251310110183 0.09937088530023834 -0.41004438701793805 -0.2924134690088742 -0.194733604045509 -0.2527196253459483 -0.2823525162195035 -0.0985507754338761 -0.10912632086280853 0.17954232619607735 0.020537438348828905 0.2549776700737582 -0.2770615525454915 -0.21497987641657867 -0.056552624080724125 0.09530079909897227 0.02345494243246023 0.42213488265492766 0.3552974954954923 0.5548300892909094 0.4752606503133553 0.22409191961337271 0.49487501071798823 -0.42411014562884986 0.04389607529741953 0.5658331758458138 -0.38106937325167917 0.02738837649539847 0.4229126216877358 0.376451482310281 -0.3888690434748388 -0.06214679204700322 -0.1643193101212126 -0.3844354501262377 0.47118476862583053 0.43405795435110306 -0.027651238015496057 -0.26097981697794626 0.5508543894559323 0.5602642992327302 -0.3527443060664854 0.14763592762956898 0.046830575277592594 0.0747466801913574 -0.06999136465813864 -0.020434492205936457 -0.2468691570889742 -0.4190895382857363 -0.10393389185851361 -0.6641031115757321 -0.8655758808819666 -0.7284895776796457 -0.018400254593658523 -0.5137854546762254 -0.0028346058166241533 -0.2407221886316438 0.0052443814584848284 -0.034181416759409354 -0.40292844490687924 -0.26957783448306505 0.2158343787921292 0.2638850586083267 -0.48880537947305636 -0.3512033357081592 -0.2887526156516768 -0.37626101699705605 0.13342561674541803 -0.19890646595188807 -0.5593258095091461 0.19145058773726967 0.07103579538747742 -0.024559674681027384 0.308607132962771 -0.18279757551764889 0.38268595713153436 -0.27505678588664995 0.21101652156736944 -0.1878012792757355 -0.9890567536886058 -0.6094158551604703 -0.3931020790813504 -0.8566010849506586 -0.4009533446756236 0.15014021479818582 0.19034369098453452 -0.4071703871717098 0.25469343565241365 0.16976694479863425 -0.2539924656737184 0.19294910817649824 -0.040802892905333885 0.05446218767090946 -0.39901034081451775 0.09122774044439108 0.5191079547619549 -0.13184452436441388 -0.5116378881431102 -0.366848628704669 -0.01221401752107559 -0.21294367091520347 0.24343554185867416 0.35275815582720277 0.026422375670503095 0.1454753134155224 0.45389348081228437 0.2727484417936304 0.0009173179719920007 -0.17846569620083766 -0.3661578491287294 -0.5881320160288999 -0.07718758979255323 -0.20063156858075584 0.009116774138398984 -0.21675657115016056 -0.1774369627270964 0.0848926480244152 0.029493442514717243 -0.04503417669077775 0.24910989958190066 0.3291407619476566 -0.027744999611017805 0.1859617135186545 0.1892822967844761 -0.3553521996899049 0.27691866938690674 -0.013438889807798726 0.4106571161328762 0.03715369787263373 0.3188113355402781 0.8013015691603491 -0.16808760852984825 0.8226839749941808 0.39563453588508124 0.13702672666532362 -0.35593784544647744 -0.43518609403461617 -0.6078138486544885 -0.4261441582555574 -0.555837549500848 0.3187610424253959 -0.5086525868763087 -0.37115008724564696 -0.2845145499859824 0.31249364381661576 -0.4182388349288526 0.3574188104075885 -0.4223871131615904 0.43046568393101514 -0.2776172964704918 -0.19789524738872602 0.22948681571103444 -0.11483007845886974 0.11440823827137962 -0.1617596852546528 -0.24420639763056515 -0.5334641094436074 -0.352296292734427 0.02572063482039233 0.12357565860361401 0.4108251357535596 0.3048698716894525 -0.05661404704704771 -1.0880933168760638 -0.3165081386500082 -0.8919644387410455 0.338326725975901 -0.38819667361726123 -0.2096503958399438 -0.08920150032912946 -0.76088070743714 -0.43865530502025424 0.0002169139106238793 0.3787163513647404 -0.4274995223846077 0.4812577584577213 -0.47324334402305274 0.14402530227536603 -0.014786964243907061 0.04109207367429274 