-0.3604789131348777 -0.11833147462649496 0.23517512548747643 0.2044608546987874 -0.17548602481678388 -0.20054781197364202 0.068380451801481 0.20123750212007618 0.4147703929374883 -0.23014854818971608 -0.42037500950552875 -0.022711439045161264 0.06467628501039391 -0.19294505201538492 0.22158693502777616 0.36636377496445105 0.09199282270574449 -0.058087463559652996 -0.33889026155603463 -0.4270845635429228 -0.4624271268850837 -0.281503803615882 0.37638399031630443 0.3925126137270304 0.36952106876535284 0.42984048795001994 -0.44774357380795715 0.18832917359569756 -0.18143741041833716 0.16444376556428497 -0.2109036682570289 -0.22316805008951368 -0.3458073911227122 -0.1362083416179093 0.11068570475398876 -0.07991153565036035 -0.01662732621002372 0.38864384938013175 0.3694347371493656 0.29235226268890224 0.4624601042497717 -0.4094364712144074 -0.39096641783076347 -0.13893619290035542 -0.38937080332248153 -0.07634484013427356 -0.39104283967603637 0.3599983088100591 -0.3972622537874091 0.39965302841298767 0.08700711955903395 -0.07009705384566489 -0.27828853751976645 0.03319221448785781 -0.01407349340377495 -0.27999258660399795 -0.2831757342376161 0.047401330020101606 -0.12918434799193868 -0.40412809098429037 0.12166127219615663 -0.1409093087517247 -0.028071679980512187 0.3426417869815688 -0.1854766316571933 -0.20038851187648754 0.41305130970777815 -0.4037019939675547 -0.020880820896734487 -0.410855996214303 -0.08084820540005155 -0.07562975635728009 0.4123463756824747 0.0909941740585366 0.4508020180179554 -0.34731555617546017 0.06880279501769992 0.032867421725777834 0.3118935084092147 -0.14627062272895341 0.1012070323386024 0.4244706030302179 -0.15975896829477276 0.38533907587552196 0.4225974650990103 -0.08968158304814444 0.37059285006898457 -0.0816881597934781 -0.10359836763191488 -0.12124814610097889 -0.05592955460020799 -0.3504584414807539 0.4805451743235747 0.17543857796241658 -0.09850445375663985 0.2845553734726419 0.09624436236910294 -0.4720512085369939 0.20587653080199453 -0.46850404209999874 0.3173194499790585 0.3221360517105897 0.18913207929125286 0.08587434974297403 0.260893241234768 -0.32325894637088093 0.20618085433715816 0.4792181719980445 -0.39489560731031603 -0.2790490908316755 0.3154265511306935 0.1720027464729137 -0.36018503064567653 -0.23482849326174293 0.143712496488131 0.349372737355817 0.39985253351423233 -0.16023658375434335 0.30788734051021927 -0.15016731888240076 0.2687973993054461 -0.25659441731006993 -0.39336241210543443 0.08442393989683616 -0.1084383103540012 0.36961526858184757 -0.30298383360467274 0.1988709644742983 0.011567639948308561 0.41192296420690255 -0.3306124299105371 0.4304355539677627 0.24459478547048918 0.3196862732849127 -0.24963172891023877 0.34789362654835276 -0.1689882679029011 0.09333073291498317 0.3803106510339114 -0.1154904728824162 0.011525798220978434 -0.4070983468130792 -0.4183544865797689 -0.38826749188830556 -0.15818301841971139 0.3420119902546199 -0.49892825209451175 0.35894336351655065 0.13865304274899337 0.11779784891845957 -0.1258550015590163 -0.058604929220402835 0.20239383144885625 0.23477995511079774 -0.40677122313263303 0.3516061033126767 -0.3387204138361114 -0.449076937384735 0.18051047433957246 0.13874919508934014 0.2778290320946869 -0.45443901646010365 0.3202927669680694 0.4486149773167595 -0.37961801250281435 -0.2614465318218039 -0.17526713477204814 -0.22025960824832636 0.4912384328586774 -0.2079040209954146 -0.30724421705580085 0.33463744321117206 0.47447331059669273 0.08874890649382472 -0.08978396443885717 0.4281716014092296 -0.3254929730804301 0.4929914983741043 0.09735048444407446 0.04506994954503396 -0.22222033626426696 0.3777870433673167 -0.17959734162316232 -0.1142080828374723 0.20440669370371756 -0.44077027276905467 0.4376515679626035 0.37846694207336273 -0.0033912492150687257 -0.15828281815202272 -0.29541512460662955 -0.10301560134852183 0.37149845934868164 -0.25964942085219367 -0.3215155630448967 -0.082577072117487 0.27476956597729074 0.06266717225317087 0.20163549237052225 -0.4251280001473592 -0.29415834781896655 -0.047040384795195345 0.15795092239007202 0.31156722794500846 0.32227449025918287 0.3975114930219805 0.34063884842752146 0.41812532503914634 -0.28661869234637816 0.14824006885186236 -0.015796677784910007 0.290871079409347 0.372213655274262 -0.3899199102193197 -0.04067979771670449 -0.3346393123649618 -0.4469595926071229 -0.11669429638602224 -0.22378127422804683 -0.23584560239257668 0.2502838049403906 -0.34465385273603977 0.013519376194763177 0.30026596959287166 -0.210902162277547 0.3696476445098831 -0.20184192142479773 -0.12141760244785171 0.022013352599754676 0.05635113786146928 0.07802018639635566 -0.009218229635376107 -0.2661046120168722 -0.046589866096286126 0.21588892516420943 -0.2844966907705261 -0.37571321063440977 0.3999533778713432 0.32487535565017467 -0.2418416941079794 -0.13145527009311775 -0.27833744353789436 -0.22545213461451852 -0.16932012163003285 0.08496858884121783 0.07507025947720491 0.13739911601570076 -0.1689984158403619 0.39067511007020106 -0.20343686919588388 -0.14751442620385602 0.3155040468256647 -0.18069969363170568 0.10700839221630443 0.32884219713931895 -0.21474970328525977 0.15128448285809926 -0.3292529169426125 0.4418784567311068 -0.34427097820995245 0.2631361739243867 0.3352956909924856 0.440693312847225 0.47039495224916017 0.3365376032734537 -0.27349727064819085 -0.22321013783747534 0.4523403868574982 -0.11684462878099999 -0.33219484199800176 -0.16019970619464674 -0.0594112564728998 0.17810854188496383 0.07473990134236219 -0.08680750723359287 0.4054009523412826 0.18795579289212516 0.4464700721932613 0.028186609704410892 0.14050273452784934 -0.18801861680673493 0.08020457014073012 -0.024318613206668394 -0.12333855622752998 -0.0799879967056738 0.4027176159845065 0.44136953117334976 -0.18042115376311674 0.18694058266425384 -0.3558778429362809 0.001665233425969359 -0.42739706152639645 -0.49367131145810306 -0.22862183281991066 0.13242875646259977 -0.3635009689281856 -0.29706195138911506 0.4915372652826211 -0.28542998170244394 0.06532553464037805 -0.332414693331862 -0.32425593872115677 -0.2208294399101548 0.11647916637571343 -0.16367252346934402 -0.4052651765011064 0.2972121492466455 0.4605897081255186 0.07373796853713444 0.07633466779709386 0.27041055383234125 -0.4867251952431382 -0.29505852253694664 0.31813971041524514 0.3814141570338796 -0.3041740289479855 0.26397057313215533 -0.27575874474182493 0.1438953604152945 0.14980547182583304 0.07464436420323828 0.09627530486376779 0.37735570890011794 0.3085624522306095 -0.4997852794079125 0.2089342152263226 -0.4153300764338118 -0.23524083896295678 -0.46032594278805794 -0.20564055875163045 -0.24840207232079825 -0.49703831460196113 -0.17999428408359308 0.020188846988654086 -0.27002318565195005 -0.29379037262334373 -0.29256621700807506 -0.12861751641686225 0.4428946618857843 0.09889793155164206 0.47848409707770245 -0.22443539797280676 -0.13649378907086518 -0.40678827241674087 0.13081563618203773 0.3403274708488737 -0.34856497398445807 0.3099925350123953 0.26881848422048216 0.20136751926195162 0.14497667669047187 0.3354795739759239 0.29774039442760036 -0.1575561475109829 -0.3824559431483603 0.009760065319455391 -0.222715855447572 -0.1754177943998131 0.012691687269321572 -0.2734593656877349 0.44016122153033277 -0.16841414495132012 -0.019960262953996777 -0.13529941400783418 -0.2152679821874245 -0.463903284352987 0.4818104576841693 0.23893997130958378 0.03913273067444467 0.44272907792868466 0.0679362279336152 -0.019627973964765233 -0.3941658386443456 -0.10878798870674344 0.1679889985508045 0.3763690193717165 -0.28943281808435073 0.1469283348875402 0.42832038251111926 0.4669485768936561 0.14478479006652034 -0.410483249589943 -0.13279069489164008 -0.12197483232467143 0.4602425127924712 0.477266178396044 -0.04632452249106622 -0.2520168401717865 0.31814264611331633 -0.20766836408568023 -0.47192187209636793 0.007347108307000916 0.3749213769045294 -0.27431594252537517 0.02313662399404548 0.3169700889303313 -0.3241268340806014 0.12702552857216332 -0.16325520479136402 0.022931698572849157 0.403954043050187 0.41728512482329894 0.4563183199680022 -0.1580359960838048 -0.21134387963689116 0.4876363591970253 0.4691676822795612 -0.3477825984964883 -0.18562894916818207 0.1971437171866215 -0.03156694731233123 -0.4928911470936028 -0.2176299539692056 0.018821057143876718 -0.4486198320135112 0.20618398662503046 0.4136172893939132 0.30128953196435193 -0.37789774970981993 0.17603615934814776 -0.376969152919015 -0.018270470505385217 0.4305323987592048 -0.3774160036853569 0.104530787359701 -0.21429430338591993 -0.4419579436010911 -0.022015323677157195 0.02207903147275947 0.46272493856416297 -0.19074793823431846 -0.15748904003702435 0.12097293101065998 0.30194309415131193 -0.374593032898209 -0.3915339748112765 0.256067183001464 -0.0381635722055953 0.19871052192722694 0.22108891043479761 -0.3933029948825255 0.34282004319242354 0.22329591170979357 -0.10650870198009432 0.21115666192496318 0.4548912135228306 0.04442227243121244 0.3978365392933383 -0.03056554972093828 0.4107238737501673 -0.4658502119693849 -0.3298954065819685 -0.2926432098955284 -0.4166985320361032 0.49204120673421725 -0.48313852999876183 -0.05168510553866368 -0.21563125683373174 -0.2043784520728048 -0.253216721906808 -0.17648256311402344 0.4139542203623229 -0.4805001338055952 0.19881847572461908 0.32431266164463 -0.4183043273852285 0.005412867293366319 -0.012914842939753424 0.02485325457201204 -0.1637039979979168 -0.1502589754264797 0.060447310740873395 0.33183818640093943 0.34995961297770195 -0.12792683720544118 -0.3814012365810131 0.26955882174649026 -0.1742287382601716 -0.3577281010236232 -0.15881188171419724 0.4870787308702682 0.4017045702484997 0.4981014244774915 -0.3596594902012694 -0.3543141915667316 0.45467501405611177 -0.16058238727848329 0.200460670582996 -0.49300204927723523 -0.046813819507788845 0.23204696209290931 0.4595113721484302 0.30406084009328815 0.37919854121704544 0.31723169257700345 0.10374870663673397 -0.0831574902718506 -0.4028127864289144 0.16744825862351076 -0.26992353185127627 -0.2252975586851511 0.08067399339832881 -0.2778476466940615 -0.2859751425103779 -0.03572193721246508 0.23336521591731407 0.0055874692174822105 0.4258031216582635 -0.028492811144985364 -0.36161696354483774 0.278210583564532 0.35042061708485395 -0.4456364319394016 0.22616296377898826 -0.1516371195827113 -0.49823510411246796 -0.49730646259707467 0.40431768541400315 -0.1216925220699735 0.20865469005875303 0.47888165189180476 0.3288085691658209 -0.025481052638578916 0.42273042898293633 -0.32412739133722324 -0.06364695835268053 0.1926574936223282 -0.07059560284801947 -0.482099394586903 0.3805824987432308 -0.23939569592926435 -0.0985368367560231 -0.33940367034564045 -0.27201759653854396 0.2587540283197445 0.283177612892175 -0.29161148173378737 -0.2322498933209467 -0.2614568049459294 -0.27802288330359803 0.27817407106571623 -0.25244112648841344 -0.4529358722374015 0.09350020468534759 -0.12199410440660374 0.15211789011607613 -0.3113849585327504 -0.05842185671365696 0.03915133091031875 0.4174628071393849 -0.4992243908705093 -0.23574898176304693 -0.4565638627013783 -0.4513791247265394 -0.34937018751376625 -0.2057729731325285 -0.056712527518732014 -0.11069636873728939 -0.15794197757286332 -0.31350962877679955 -0.3053643757218798 0.08668988243082643 -0.15423173996273032 -0.33457735289765145 0.055893902604501 0.10179762622015609 0.12536441381717578 -0.36482994896510723 0.28648527040391025 0.2868487432398008 0.4257394314232956 0.11252248309182267 0.14639997500220814 -0.07399118511867209 0.15863216158455484 -0.02270311688823834 0.4761404762056687 -0.19834593455060356 -0.42369515743433495 -0.08797981617481843 -0.39643309196373444 -0.002401347315852398 -0.1839606466575946 -0.2134341132781119 0.37250289472298415 0.07363880184444904 -0.3734761609781758 -0.46806164279166407 0.11905913687434011 0.09750148383377988 0.31079901045353 -0.2076025832517283 0.22694834159781851 0.1866120853901072 -0.4026171403432106 -0.09946344571320054 -0.23198969423577587 -0.3756542673156633 -0.17373221524862337 0.30219546216767523 0.15817245119985657 0.35574461395386103 0.19300860204298975 0.31075835319557354 0.44659403284702903 0.3266000757841717 0.4360822664552545 -0.3454727839092214 0.20419445380279788 -0.08361156729857633 -0.43693521610794916 0.3983946531378275 -0.422025534164605 -0.22625244699858382 0.25785517269044045 0.15450065807586943 -0.49346191442189746 -0.2931849922735499 -0.12313779367759847 0.0829802035892031 -0.06638854451505938 0.3569936585486061 -0.15520150037481095 0.14666761999542421 0.1410515881228751 -0.3257079096290103 0.02051145088738815 -0.32727560394690136 0.1742532482548831 -0.13751760089090714 -0.34257303969829633 -0.3748914986455353 0.46050369437064875 -0.024018471214178327 -0.4404636053878568 -0.4150930843471773 0.4924243950117766 -0.09522152802463935 0.38228991331024753 -0.39150603777285764 -0.22312374944539237 -0.4489629016634942 -0.47600715299916774 -0.029625609882978132 -0.2768556805483996 -0.005487207736662891 -0.4091814380888126 -0.47836993079678736 0.18034072034057924 -0.4373692965932161 0.3719449848161258 -0.41953320202657884 -0.43861852082605746 -0.30314193822343316 -0.09616476117567596 0.3392293674545732 -0.2423281627293814 0.005190960636166753 0.16282791158162802 0.029197981395142847 -0.28937849295436735 -0.013626369295298923 -0.2443729730043528 0.34160904298584305 -0.1999743690974195 -0.17348660268344784 -0.15802972502597334 0.10672480138299756 -0.4022314145142717 -0.2620624110720813 -0.40570954255376035 0.0025792366110715115 0.14913547550081518 -0.42119751400030403 -0.08509450288279252 -0.37089132103418265 0.03717711638830845 0.00811811467119894 0.46729402332810566 -0.38437390116345527 0.13951918432879973 -0.23026814975944254 0.4308229524470255 0.40088201290287606 0.4540187949106712 -0.10298060260601238 -0.4565057362676642 -0.15229570046902374 0.06257876557233677 0.16348984283290713 0.31899221049375726 -0.3851212386782802 -0.46583021627891674 -0.3358353588618146 0.00808517295684874 0.013739753735617644 0.19035488125665834 -0.49153330678851626 -0.22859771609524626 -0.2984403479404466 -0.022507583786467777 -0.39919348016290357 0.33549552745523314 -0.1892080143337017 -0.12415729394153963 -0.12811716737680745 0.06506440656177315 -0.12030625630169223 0.3689336932739261 0.3149158192833734 -0.4259711632903591 -0.041064062936268075 0.36723519542940586 -0.17488946133342842 0.47682023724819744 0.3406203229902348 0.04262677817977678 0.3694102326897132 0.49397176455291325 -0.3685942109081898 -0.10165089854218368 0.441936526583506 -0.23342928888579906 0.10574536524826228 0.24862077735279797 0.36400791379683295 0.4263321092654817 -0.34266487806937085 0.29355127166447037 -0.3052080861055704 0.22083491182775983 -0.29302004931361747 0.3366779100348666 -0.24162323718616052 0.02797237940335129 -0.4612146119879168 0.022967938634123275 0.1029515179007241 0.22047770674166756 -0.46202590252915365 0.12164980384483304 -0.4756170579843507 0.08737388938078228 0.46752929820362943 -0.3363264395852138 -0.18026880869971607 -0.16643998291927242 -0.3779206470776234 -0.4039812252563272 0.19963643846635282 -0.3737070566622782 0.2842676831533085 0.13955707898675862 -0.039923371459372636 0.4668477318804928 0.17798532309668413 -0.3670844051041714 0.09835147043000936 -0.2129871272001319 -0.43485479872981436 0.053959268284371587 0.19647885029358803 -0.1464776337671806 0.3101928212592725 -0.06660841592172462 0.12990766323192926 -0.08991908420481254 0.08189366907590889 -0.19955260118685558 -0.21124829701820802 0.14370864931629068 0.35460531911695925 0.0677648472472715 0.1534089821356558 0.07124656185058165 0.495454160685169 0.4865258275091606 -0.1360033641917875 -0.33452587147578816 -0.028639094192199566 -0.18818800308877026 -0.21229437442411414 0.33300464453362344 0.07259073672022875 0.08665777340846503 0.12545551596890714 0.12791398169035328 0.008618119455685136 0.4415925326268809 -0.2674692832196365 0.35154151074520346 -0.4909805100927622 0.13355812776139375 0.3267079235050333 -0.17006799901478076 -0.29756972368126744 0.25612983312332505 0.2818089902968801 -0.018592023520246248 -0.08518084203627896 0.06352505418416088 0.13833153573357893 0.041388801998192726 0.051357084375878714 0.26650578085101273 -0.16399364026182495 -0.0018123881030727151 0.29819534130659475 -0.20162775310555148 -0.045157371316531525 0.1661389403630933 0.2031132458742445 0.21141506768972074 -0.058217261460454695 0.08222656022749675 -0.4949350934680903 -0.3549940513354357 -0.24284024345969746 0.05491914198645065 -0.15003306310575693 -0.2975523320745975 0.4330135843744174 0.26470668243031403 0.4626157531641665 -0.25534741424494045 0.09538151703139619 0.009466098989452054 -0.27983186218891465 -0.17050742287284304 0.4049586656747364 -0.31838668362253963 0.42470919632714865 0.2821316458680565 0.42077625437105615 -0.31699061112567206 0.2287904752994968 -0.1625650162968001 0.20507783615944952 0.19052463417068077 -0.3435113732434556 0.3800085764226079 -0.031499399205882184 -0.4492787796958032 -0.07244449382695262 -0.2909751037402494 -0.28192775227463074 -0.13358283345638367 0.11426949576655976 0.10716547108888608 0.4297460025567422 0.15127392520612049 0.15027386506795803 -0.2958464255713339 0.19346599860584002 0.2527574841900665 -0.03322085195560864 -0.10248833199134122 0.39565306308255355 -0.327624243089205 0.43807364881547184 -0.33445084823726456 0.4222701963551384 -0.469392878102033 -0.38569955436473013 -0.47115437513974 -0.3896243771789909 -0.3279568706565944 0.3913351386613273 -0.45824598168343067 0.39642173502810063 0.3096540867190628 -0.25908304172140495 -0.20671044227624424 0.4899115120758375 -0.22681431084405357 0.4757947769574722 -0.05906359217847856 0.08707139573351774 -0.3802535087419995 0.23927941140151265 0.06675255362597055 -0.21424060042739423 0.2593804814388059 -0.15604467022869084 -0.3288735848158234 0.3642541129913569 -0.2808029547877393 0.27553001529891386 0.2652300534693134 0.16314845179696136 -0.3080721110246415 0.22889508357887678 -0.4817514355496768 -0.21300384888867852 0.17433306624768208 0.18959842228045765 -0.3962913532108955 0.1732284817152867 0.4526153359242534 0.3299870372469713 0.41670109841486724 -0.029323591681867822 0.1380510687027211 -0.2993837864047094 0.3368689692627074 -0.020321858417495786 0.025188143276607566 0.3161261223085372 0.07461003803748145 -0.3568467573428429 0.061352394434751156 0.18348819557762341 -0.301492694209896 -0.11785275488509472 -0.4667680311491763 0.05709264008562043 -0.11614148088069098 0.32112234668867223 -0.18253970751046344 -0.21608866875881905 -0.07378037575013585 0.3005502189869389 0.38497918732959835 -0.05167219844518045 0.3220571600155847 0.11785144618574217 0.4421750780242467 0.2158913790907564 -0.31724023635601206 0.18482660820403163 -0.16753747118121842 -0.46627484498655114 0.3655848698069709 0.3867483128538871 0.29319159263131067 0.36579380940560513 -0.2979810304542835 -0.24207151584248932 -0.33990923354026503 -0.4347880286857174 -0.277953746914004 -0.395979526315956 0.45910001352340535 -0.03064323846648631 0.31312558389103184 -0.3143179732399376 -0.40701831026389146 0.10666676154642274 0.03829093051879218 -0.44871069428424637 -0.0143353961150402 0.19067769657499334 -0.4351313289819977 0.4480421157169284 -0.2413279092241316 0.48695862329792494 0.2979594507327704 0.2619376627089648 -0.3518073384934569 -0.03083148980488004 0.37392392970021826 0.2827431411419902 0.4738338254073572 -0.22126845549985608 0.17067852106642023 0.45314915281464463 -0.4537120346310982 -0.22207593792859537 0.03677269570147079 -0.2268864387513706 0.49714888374044475 -0.1914005393709971 0.41684541025666055 0.10414298997281324 0.48645067592175495 -0.23383171229801192 0.3058222070496358 0.3618169696285538 0.0732032908133261 0.07654724957440429 -0.47390916125431604 -0.38934200660335994 -0.27761581993577344 0.2114097090035335 0.34371784154608076 0.07454285965330376 -0.43156775982268936 -0.05852902825877071 -0.11304524125762805 -0.053961810698983204 -0.17753262627966815 -0.41676835857142835 -0.2843948512339469 -0.33804540039334807 0.2589735870291261 -0.2262579761369008 0.021576456734189176 -0.3957787621466059 -0.3480853199877748 -0.165358588985846 0.1730361529807899 -0.45757193987153544 -0.43026299285277225 -0.06808093674466165 0.3057817535784839 -0.024485980174494104 -0.0005338369834928525 0.013132038739248064 -0.15550897468512082 -0.41401361424645255 -0.4439388796363779 0.3800705639965237 0.4462023116784648 0.2146253293100232 0.04112618099597065 -0.22600651782532466 -0.1586043632083588 -0.18908407635700342 0.23388460852941928 0.0955626791155817 0.20289261309795137 -0.41576628860525733 0.2176652057653672 0.4034277225820495 -0.4246697391294805 0.23887065766232662 0.016636124178893485 0.3799660547965952 0.43574922521741655 0.415278777191217 -0.41109523710208207 -0.49864587146676764 0.3329879563448266 0.43486113274140437 -0.20668621343953464 0.475767206403643 -0.09370677600468447 0.48553958894733473 0.1387926268534624 0.42519332044539937 0.20551387649490482 0.3769608619464395 0.25525111977984627 0.3323000799794702 -0.15714981958926966 -0.3976277538225792 -0.1286197865853127 0.07173216378482261 0.2775442197925795 0.16102093635324433 0.0678134259506541 0.09975620482390946 0.07245179431875348 -0.12748093364851787 -0.18680150124365258 -0.15554111497524858 0.255932891752952 0.41032306871860613 0.13575246393421203 -0.024658002844186955 0.003387512175582641 0.1861990448448606 -0.009689501788614496 0.12232333842107068 -0.2801620431870204 -0.4486098115391576 0.20416233945315576 -0.15259839123423546 0.022283913950651657 0.3029820740182624 0.3211074006646202 -0.30828695336645995 -0.38776360054128445 0.304228172755166 0.3635428111492255 -0.23567409609201428 -0.38668205649538756 0.18597726302026818 -0.45637295468976635 0.0421431491792017 -0.487181838608152 -0.2838953195022065 -0.2539539727224891 0.36814316582283846 -0.1434855230165204 -0.10125897951694973 -0.18266621703834907 0.17979867688837847 -0.2362060479714051 0.4253966846706251 -0.25901599290600485 0.2672614482291742 -0.1328108987858403 -0.4288383291644453 0.07186983280397352 -0.10136871977531059 0.18893449606991264 0.04502416206940252 0.22618146700704167 -0.4101421408814192 0.0799177474751297 0.3787717790974786 -0.20066712014405907 0.39977442282909526 -0.19959381078017313 0.03167927247167124 -0.06248336032249602 0.3175473743130639 -0.04387695967651395 0.14511961740807133 -0.20670123087475434 -0.22434092827811103 -0.4298067133683867 0.45254833463239985 -0.2868056128841302 -0.4389952174912751 -0.31250146673636103 0.08470684194364331 -0.016252440770564203 -0.4687198668319772 -0.10578766786634652 0.26029889619260915 0.4731760461987331 0.050978161123208965 0.3862784286867651 0.19798601671202765 -0.4644675502453318 -0.060337666013075775 -0.06532217684035302 -0.20538420472115948 0.318014356735687 -0.3045501493709063 0.34104311214760497 0.4510010043336923 -0.1824897746369294 0.3501933027559997 -0.1887612632341764 0.4659933666670466 0.46018095793167124 -0.19365000410923072 -0.12143472531478183 -0.3543729415049145 -0.1582644731501447 0.27339719121698425 -0.13511259684102073 0.4240033936900003 0.40252326832357777 0.4450711514791239 -0.39987529730934557 -0.2507578748306738 -0.26692199368026504 0.19519224734751706 0.4071490501304985 0.14984974559334074 -0.2038954728946799 0.010831693195938685 -0.09572263049682672 0.0027123465697243 -0.42827619647321347 0.06966034195207738 0.400076055724522 0.11896702542742033 -0.3389657837931618 0.38502050045906955 -0.0629575216994227 -0.19053338793746855 0.41956238590759054 -0.12635112789277492 -0.3460034264713794 -0.10352806976284512 -0.38441327115390933 0.30706049069608843 0.04540301149443848 -0.33944521697599783 0.009220066465567278 0.39452551226121535 -0.026171769410502588 -0.22957766338441332 0.39827861026776845 0.3819239587937868 0.24055434464929193 -0.4613186535009437 -0.01241877720012885 -0.15812647599221397 0.06600662873299101 0.08079165442368874 0.25515427907859156 -0.21586497734368237 0.1907541212077376 -0.4994287621099035 -0.20613296938311865 -0.22019722151088483 0.41681133591856145 -0.11741508871766959 0.21842163896951217 -0.3937413517811291 -0.38610501050546764 -0.2623354574718664 -0.2854677542384346 0.06165968771693586 -0.04005222244205742 -0.15620682154409027 -0.1592617764051052 -0.04416292915649189 0.11409731245448562 -0.431199786001194 0.326001429621227 0.37205971810639993 0.022022871559461255 -0.17021153954145096 -0.3491918229180411 -0.39594387065514025 -0.3168230891601812 -0.3671729846242827 -0.20122393578814524 -0.033925396906479666 0.38520226383581435 0.3838046345839079 0.4176809187077697 -0.15873900281053666 0.15059203980663993 0.4931196838474948 0.049052148838206855 0.2566140759500264 -0.3988360663122008 -0.0896382458692635 -0.26858969392467724 -0.06464987860433336 0.48177971041292356 0.15291476880244737 -0.4407976074618306 -0.47783470528191574 0.4360502587707551 0.15207576161117675 0.14378487537292817 0.18688429060034073 0.3558007618511084 -0.0006486855237577416 -0.17388278955101788 -0.20441087396189317 0.13003332792995814 0.45761867200631146 0.4049424229439409 -0.27035951647092316 -0.1826001178065596 0.25978068864708515 -0.1686224562012537 0.1904856760631619 0.11466495822516976 0.37373681132156955 -0.11384569779536258 0.4303642864186763 0.18925256529472034 -0.4702193773674961 -0.19653918369105827 0.4499504667890041 0.30273147066827444 0.4129746206079651 -0.1429831829459015 0.11120007721101832 0.4538758195632746 0.22034488923379048 0.22524197917122535 -0.06481057990844774 -0.13453174282231395 0.1825816260813169 0.46417833205584347 0.09337119634328006 0.3436054256237794 -0.49040300103047463 0.01832820244224509 -0.11727656416694143 0.1548171125605725 -0.05466972881299326 -0.3600164942160837 -0.3942301802455568 -0.22872772950651632 0.40346162024419263 0.1323088189256365 0.32490934776206304 0.4484716227872082 0.10901842118327176 -0.30135553822161154 0.21130096717133595 0.202287414780283 -0.192929293018535 -0.13939435256616517 0.46332578898751087 0.13960210013355379 0.3200778264329016 -0.18496052599126978 0.19720415953990278 -0.4217620397912254 0.2775305571116752 -0.17497156396904356 0.3519874634622103 0.2401235322788422 0.30358510121955906 0.11366240804673988 -0.2769195455956567 0.32360320523426456 -0.29202753944966553 -0.038476734192630646 0.4433666917156769 -0.03802353103022804 -0.22387744291272627 -0.3713491077970624 0.04757098440561447 -0.3135887585273267 -0.13631433535113346 -0.40808818572771377 0.33202209880234423 0.178632092541136 0.35555534680131795 0.48652572350497325 0.31322701451186286 -0.11568304318694145 0.43205504676938367 0.32836047535122836 0.303149237917017 -0.157457593157179 -0.4793733576559268 0.21129720387871287 -0.1256286332198514 -0.27974657464999675 -0.42889890730306235 0.060391470115886636 0.30837223904599553 -0.4171870432035838 -0.37280104681648185 0.18345091629180255 -0.28129719215929017 -0.2623237519423126 -0.06983314508216776 -0.28729084821984474 0.22684948064832566 0.22498732914999575 -0.04209390315620731 0.29405674162557427 0.0027075890666822255 -0.459908700854442 -0.36650305811469897 -0.17441962150017076 -0.4141482928392992 0.2945540674251179 0.0714905592712155 -0.46665619337161757 0.08720082147615693 -0.14273917369974976 -0.3194323834782873 -0.12234356507581745 -0.301666135419592 0.20346956098267743 -0.3381384909455698 0.4494728053633448 -0.30537158017695887 0.18165831857894943 0.12341281271348548 -0.19008276069388286 0.4799507006816157 -0.45897861981251487 -0.2901646644325804 0.12161887994029452 -0.14087198439013737 0.11846521561886125 0.3069608614823548 -0.3893667918422413 -0.05822620852033977 0.4375814590222672 0.23063342411483512 0.13208246442718974 0.25078666094723834 -0.03794819306344732 0.3264340471660677 0.31668613889112207 -0.01774838372146703 -0.05152916101086524 0.3750057990294622 -0.150498317605824 -0.14832495744203045 0.20048456942051285 0.3157772637749423 -0.2768758389876651 -0.4209226862212121 0.19828167874369573 0.3230644347536197 -0.48209306045548184 0.4326485017046353 0.3668615247603546 0.34209397174859735 0.023381850668952486 -0.13755689339204957 0.05462936543751107 -0.0001220308050154939 0.09475415699023393 -0.4720493040884015 -0.4410117058037405 0.12429304541697472 -0.3609782972958422 -0.091709011089664 -0.10252387888436221 -0.06050989371361559 0.19580195017796065 -0.46286440144560514 -0.34022615252583766 -0.12819266045007183 0.12107250042222972 -0.23377061790356457 -0.4125763776001503 -0.49658239517751646 0.28553923437210627 -0.010247428756481991 -0.387096437572259 -0.3691862850816481 0.456588440127604 0.49891176980966045 0.4763955581986422 -0.10818033342059508 -0.39876998558983356 0.1251003792177906 0.4742089987213486 0.16650936172863273 0.30098388750748295 -0.19871243124170035 -0.3933874572188555 -0.008962862786051184 -0.10370764752771855 0.34062501373877596 -0.3314494115295793 0.18856753873312482 -0.18794564885768572 0.30613263303200255 0.19893586868347435 -0.3418731783500776 0.4676221370711503 -0.41332299881073475 -0.3791659152703455 -0.0421386606053219 0.033302240871654454 0.3061045065123106 0.2720505398883115 -0.45227702692785743 -0.3747181918684469 0.21104007124633017 0.193743486206152 0.30876266327858726 0.4339978748974459 0.39100653646816874 0.10488034882321895 -0.3575094883716249 0.43339680642503253 -0.3600181914205348 0.09199569495841664 -0.48145481388813727 -0.25372759576051274 0.008904177231450094 -0.088230380947116 0.45030502126733163 0.256666457783006 -0.05097826654575022 0.06811996790661201 -0.13962995173325643 -0.3763743662902138 0.4263893715518686 0.06731643885181982 -0.30244930523530567 0.0021335335108506603 -0.019991623104779754 0.2538986492980566 -0.4395328662656791 -0.1856370718493725 0.4100362917269752 0.17920481369029573 0.17611981314586378 -0.10901522567591704 0.3696582189064723 -0.49749401551910466 -0.22230313280460545 0.2195114510495253 -0.4416398216932894 -0.14556395143912082 -0.16203772390494753 -0.12217382640521246 -0.2320902754137003 -0.4540145328509795 -0.03577633506888134 -0.49211758684575424 -0.4584919025015862 0.04106422380855379 0.1649353073539095 0.2870955544259094 -0.4947583360540393 0.4079565418397322 0.023310326553191985 -0.457360541343107 -0.3338165761343652 -0.4793843682322162 0.44758806459382217 -0.4562063358888391 0.3023379069538005 0.2501799748274339 0.4379608865085375 -0.047020029734213376 -0.03760266583592675 -0.20577473928655787 0.353108429995697 0.0904659216387117 0.43880740683875885 -0.32116843192828237 0.27159498978436225 0.3496591645395256 0.3189509462630852 -0.44362412285552577 0.29704020967406153 -0.34282904112205836 0.07419391582509871 -0.15213742712590672 -0.15123864892310002 -0.10057593952333688 0.37745132218382405 0.24776636543568853 -0.11557565853330964 0.41245800070233984 0.045151024084341684 0.3546235053151535 -0.23291992879875878 -0.126797490271649 -0.32709103385399796 -0.35976557675320986 0.026904522135805298 -0.29858432839169025 -0.01665293160845771 0.19653937258932386 -0.11079811238348725 0.17078104663351423 -0.21567657510320004 0.16216556844325147 0.0743464025256263 -0.2098750191307741 -0.056384667358799545 -0.08917946809095456 -0.2640594102512176 -0.042308525261607 0.46314376212588304 0.25405250372303156 0.03762934996280898 0.07895074654054013 -0.4128324604496605 0.1475109459092515 -0.25297685338579146 -0.03718338850494651 -0.1999458745977004 0.23572083479154404 -0.08451926788898045 -0.023479423356538742 -0.20876584463313008 -0.40453348143237733 0.17522154792449818 -0.07604066977166624 -0.387158906146883 -0.49350189351711604 -0.4852221751392356 0.07475646163870209 0.4383058201100507 -0.463195667995275 0.4055017816443852 0.038559641242799425 0.28294338708103417 0.007760891279957716 0.003180787868381718 -0.03372470070539313 0.2281783654132188 0.030322030470990025 -0.2700649572246483 -0.44548094350172074 0.19393346116266996 -0.0469878192975427 -0.13685195052936638 -0.07321033820691591 0.020836157612629913 0.49138210162168605 -0.15187096318655946 -0.27950766740997535 0.2694963474363409 0.026592770333018656 -0.2213750304875065 0.2234571581436391 0.3089902878536368 -0.2362610491584215 0.1846469794402119 0.19655491683709292 0.41492267625097556 0.41058045069649185 0.30135414774712943 -0.3502797065102953 -0.12023551353776152 -0.45635620185185777 -0.47993454915702005 0.22624495131827949 -0.37744412052426224 -0.1941979626113608 0.2472954566867841 0.17283333648605637 -0.03609044958538721 0.32376717475959005 0.4987536040595496 0.1334036947547621 -0.18285017908392964 -0.011558764787932496 -0.1525153021342256 -0.18862575059687536 -0.24387890265039636 0.013709279257376528 0.1268534220680605 -0.08835913770937998 0.24742284454252927 0.2027023306215242 0.28194588493536976 0.28231060231803085 -0.1432341375319277 -0.24781022272274167 -0.059466549468828345 -0.4745010845956319 0.18080058426800238 0.16290039747606055 0.4151307836437135 0.07088303154109366 0.0035158416936994508 0.4269602339917984 0.05442137895811583 0.3290095993874498 -0.337397363968317 0.15570722498800527 -0.4658560696237629 -0.41226007521336405 -0.21336108097476403 0.09596109443393652 -0.2511981634859085 -0.03467565501500236 0.15969425489847355 0.2713878809228272 0.055905663233473124 0.2294406449317281 0.009196301683434993 -0.2846062545928286 0.18584369789758237 0.4510231438060761 -0.3044237160696044 -0.28800153623660996 -0.19769448934383782 0.32915269578014816 -0.232765373836737 -0.04453354348194816 0.27084375958293105 0.49762360376158055 0.06671028834025294 -0.15631348888028263 -0.08286312249835892 0.2983857422832068 -0.07509693561945396 0.4854740965723363 -0.33457847572810206 -0.404991866308685 -0.4290690878722072 -0.1874221282670131 -0.2776678582797847 0.3985469247748883 -0.3243233412217107 0.29470359919692646 0.01250065729497496 0.20902874726430276 -0.07123916809171205 -0.027048966506783123 -0.12599017177631122 0.15793848956658896 -0.0497733379919818 -0.4658080849806101 -0.2785590127747458 -0.14595354613695688 -0.3218075501434391 -0.4734603841547539 -0.03593267169305403 -0.3801887159326176 0.3438806760228693 -0.4722801138053101 0.26818566194384696 -0.2616593657553332 0.12947644613765752 0.021952627405560365 0.38976128587494396 -0.3569921255970179 0.42879331328999326 -0.4797255883949787 0.1252292159823032 -0.39814206553969145 0.28910385630255964 -0.3602949242083495 0.4450985804312828 0.09942388314936002 -0.4844524695373764 0.3550553099541994 -0.07030822208206922 -0.04269913976238682 0.18394503656167638 -0.14620557732167527 0.05528737195345801 0.2788643074315875 0.234750139362088 -0.020873490100571268 0.297988787320822 0.009339361575598226 -0.22368429240134147 0.1682932037383441 -0.47384088289919524 0.28613474417242923 -0.033746792099059286 0.2382015973200753 -0.06563616259268668 0.002091307343872195 -0.10963455442553727 0.05721807012047053 0.04879524330564233 -0.3347226002328427 -0.29476892321604575 0.09250899378193489 -0.02402009429404406 -0.31506211275612517 0.008508576932909295 -0.07321499998395053 -0.10777768062914816 -0.1966960101823111 -0.21177919147479152 -0.40584141531524875 -0.08910216300969764 0.2762618835822477 -0.30719378656031726 -0.02242562187223096 -0.290942218488657 -0.3461084782037047 0.030952406294094015 -0.004647337592305734 0.35360847672962237 0.00870423655193342 0.40143961163224784 -0.28390818251905614 0.32854464932671823 -0.14075127095648088 5.886282275768817e-05 -0.17483259672400742 0.1300313039312374 -0.19454404758211663 -0.2825555158489488 0.4399340161023775 -0.3687106839548774 -0.21399912241238062 -0.17180464509192228 0.10999047060215472 -0.07145817630029039 0.19198732396194562 -0.2054707806834385 0.02325926698369085 -0.45449966323960256 -0.02084553709408743 0.21735113020359598 -0.12469080581497105 0.042490306974122594 -0.4490992586300462 0.28923682752816204 0.4198403317266497 -0.100685939026531 -0.4714755565004056 0.4833742888094491 -0.18060696854213598 -0.36550220708239756 0.007373267758304158 0.43611464339296613 0.29943832548520233 0.008299525168581567 -0.31459181077538156 -0.3172318756107779 0.4420841628538008 0.026434075880330088 0.27820050925951534 -0.20887067742082266 0.40248832046482674 0.19824756747131111 -0.05951249345489107 -0.352756164723825 0.33313470658058775 -0.021421781720816546 -0.15742113454143236 -0.4621263708453539 -0.19226285252445563 0.20960019471515645 -0.22657888333993403 0.426978495702793 -0.28367121706449716 0.022360448236650177 0.36962674030823817 0.15675796774133033 0.2541260174921651 0.18658761088352738 -0.2112751850890503 -0.443448033136717 -0.4070613149644794 -0.42704219524011133 0.23118982742994587 0.3560191114014919 -0.4005570641656232 -0.197828590928101 0.21332784788970516 -0.24426450996240745 0.3949251432244162 -0.3508873743093047 0.04518333068898006 0.2502567798838383 -0.45713071835626773 -0.4596435296456737 -0.09339749228600691 0.09346960339762 0.20089560604960022 -0.2588273963787222 0.29074473730784933 -0.4836930622474138 0.09414065725705556 0.06424459220090062 -0.028152760308426727 -0.4579340153431667 0.2601685966671602 0.3069681798004217 -0.397696008255359 -0.4624958187987299 0.2979481768726542 -0.2916093762191323 0.4378094369846679 -0.18290991213353358 0.293515460876852 -0.12380940966870857 0.26813501800666806 -0.17889587927159456 -0.05113452856272693 -0.456164113774572 -0.3602891690205974 -0.028634197708830356 -0.11706274812402906 -0.12360961446210883 0.24648882217063228 -0.11994568650754323 -0.2814008205866617 0.3967323452071486 -0.17708114252622686 0.2513844055193456 0.3976633637042196 -0.4517288574280276 0.41010358564939664 0.10241945766586968 -0.3504123569017644 -0.16094063295931726 -0.07959800903753722 -0.33441246817391435 0.38697232554502425 -0.19999984692114703 -0.2541676293008045 -0.3609820618857612 -0.09389503576829938 -0.34600567383107117 -0.12280368408639275 -0.13522241628194387 -0.0037040193822250878 -0.427208569845811 0.44826634747340544 0.4130563760720647 -0.4949019868778649 0.24168850481696746 -0.013770980993150106 -0.056829081010593585 -0.3142579116329598 -0.3118011064730949 0.10466652084651873 0.15415464252343036 -0.010783557320604098 0.04801212450631609 -0.1032617065513004 0.18144986582867773 -0.38101424012363916 -0.22502614899737738 -0.2323786837231423 0.3271220890177369 0.314916154670261 0.2419243655765887 -0.24258255328702072 0.037846415477330364 0.09377832760011251 -0.018127237387509765 -0.17454647756598152 -0.29509215370717945 -0.05315272536489102 0.38551723581677233 0.3565418433699933 0.23821534569853242 -0.37223721005421484 0.050180016733721744 0.20531738410905276 -0.43597755069231825 0.1164797208392564 0.43860141966920285 0.42482416414263746 -0.1390798224494454 -0.4453605752258428 0.05533798595206396 -0.031646001877434826 0.46117615317005756 0.4067328056147409 -0.4618765048019978 -0.4097247183565004 -0.4776026378571484 0.06607336698432376 0.3924491758720331 -0.09430061577411974 -0.0005935911410843708 0.4221945755368678 0.4079972014319708 -0.017128711182015643 0.09861984063254747 0.03839888406550973 -0.2556202285980944 -0.11713178482420228 -0.14954277045272601 -0.021252066196825625 -0.3651064071224278 -0.48331066165904313 -0.21854556188291485 -0.45110690438708734 0.2705775529088684 0.25883897711181325 -0.28847130153390044 -0.2063907284669575 0.35124858535172065 0.07750192978262327 -0.20585856824003157 0.2686957206482723 -0.35709303807588066 -0.026148670827998877 0.3070780968724176 -0.10620771329000189 0.06861404585543607 -0.0923329975798789 -0.04922841437101322 0.09090752848818084 -0.11092089535471028 -0.363737162193545 -0.30077343606656903 -0.258616911085481 0.06279133164059292 0.47276504900953664 0.18335677067649403 -0.4951413534898954 -0.26472705489471593 0.41531851187208857 0.14334177769861745 -0.336730209965893 0.3545959631852136 -0.36918285820866825 0.27728179241663453 -0.18138155083842045 -0.45960656940087374 -0.3699709624394816 0.0710552846771827 0.409733303806297 -0.2906488553364095 -0.21017646031431103 0.23688355323536803 0.32052839232388597 -0.20927828103347412 0.40184856365770705 0.06367048332211733 -0.2601373775876439 -0.07405610086481418 -0.1857378603208738 0.37282271098391684 0.4651828965218523 0.3887527802648604 0.43942981460931374 0.3047347657232319 0.3527519849081191 0.31560585469711444 0.10014351123172816 0.3251221488140196 0.4174863279531723 -0.28877969258052527 -0.15695727380965874 0.06091193453820287 0.3108408319970707 -0.13051827551471618 -0.16568903735911067 -0.2069995459539461 -0.24270398793340198 -0.3385327924240328 -0.08180637688510817 -0.1593808991944371 0.4550150025150558 0.11306497890294476 -0.31527254065859545 0.10571320444045929 0.28871715885934635 -0.46184128314651185 0.17676726027900547 0.056786198139532895 -0.41483506297940387 -0.3667502162317191 -0.25011502933592034 0.34895753984376077 -0.03351711983162253 0.2676000329322731 -0.10903537742694391 -0.3293358592927732 0.43162745975917427 -0.11972754246061079 0.3000801950867684 -0.17631200219787546 0.05513738778946309 -0.21645964913521432 -0.21441286333863763 -0.0013087694092056568 -0.4468524397171536 -0.362870157634296 -0.17436052616799957 -0.1113480893190103 0.4433568573557781 0.2994389558435504 -0.34664389557228836 0.062315989554782236 -0.354763644620283 -0.12622526982820048 -0.4208908831885655 0.024047751956478125 0.2121832603226821 0.12245738191861755 0.4609740108002487 -0.3179340103957663 -0.1563268043941729 -0.19993416434886713 -0.2745075480083845 0.37168501511287944 0.1258146300270092 0.21104307491272223 -0.4754986678216139 0.13678034318143606 -0.459262569238851 -0.0531256272011571 0.24312238560021582 -0.36235826846823393 0.4821924397847799 -0.059595568956434475 0.4313596052858295 -0.020056653552579573 -0.24133060963188324 -0.06861486451580623 -0.35388766979824404 0.012960492991796135 -0.4076535806534214 -0.4431844234654898 0.20423953984236032 -0.05245674449256832 -0.16395227606610674 0.42485801159270953 0.10779893723166967 0.20009612074171346 0.3474875409662693 0.34730795379718316 -0.15049128393935485 -0.3045780492391911 -0.03890119113144297 0.12027212176832724 -0.3973113747462582 -0.09395205102994098 0.4397554781352141 0.3948257081515898 -0.1458018069214888 -0.016978138138669996 -0.23647350090942287 -0.2972552549237274 0.15275442894480784 0.15253574738216524 0.0133882546659293 0.08887718484897233 -0.1554437245099446 0.1841884617868268 -0.010431039760372185 0.4681212755269898 -0.26074593862799333 0.4864186953709534 -0.009811076686116027 -0.34104257015477846 -0.21798983971999686 0.017229298107858337 0.18426161076958014 -0.2998841546636928 0.2328515943616628 -0.49983842141584267 -0.1640551108394248 0.2069358846532504 0.4565417746492494 0.10028284551785505 -0.15095292530941806 -0.252506210065908 -0.04109659194704518 -0.00702431332452691 0.24839785724477303 0.3177707272912006 0.3282576265217493 -0.18634365825413846 -0.2165579868287275 0.27601116371272805 0.10159885807987667 0.1393759301177604 -0.4047580699322716 0.2240594597812493 -0.4963223206846472 0.46658762874058557 0.3959843717836663 0.10068990906769615 -0.1264252118225151 -0.15010549271106144 0.2235425795158933 0.27650474102120226 0.12783113121123357 -0.11678693900838788 0.4784486841391056 -0.34456642789253744 0.12262885476306307 0.3215706659130073 -0.22536714846533035 -0.1283805073385621 0.38259186617873653 -0.06041371477008295 -0.2315687562343407 -0.2084419158684533 0.2060764770634944 -0.42424166312119194 0.37692812040857426 0.2018334020528577 0.1377800842134762 -0.3871089159798835 -0.42769551441008435 -0.15912972321069307 0.2450551050838885 -0.3296217191451337 0.2756196858005302 0.16441745106003125 0.4407517546083902 0.12828545843765682 -0.09366679828695301 -0.47467643534412685 0.04787498573532811 0.21788158975574756 0.46371459891077205 -0.22031743148680782 0.12275388261221543 0.18338121647462868 0.05613423419747965 -0.19200713035432548 0.15970941658862492 0.466898250052893 0.006878395581110808 -0.4094958855944806 -0.39427638790673414 -0.0960053782415271 -0.33086012146787847 -0.33968934547399865 -0.144178080193891 -0.1647335565681003 0.23863754183686403 -0.1546010327158195 -0.4882802165615987 -0.07323688562681818 -0.07533082565083038 -0.1936062183913262 0.13933011862287759 0.4534554083837202 0.07183874955023695 -0.2253422869806978 -0.06368517378256267 -0.10401359422045764 -0.10783711988406153 -0.1575449264529878 0.35626519062791995 -0.26409486850439456 0.4960849882582351 0.16361307195422536 -0.4279420996225387 0.39779982267772174 -0.13923071509294505 -0.45750159902576193 0.16796144390122636 0.09475018344868125 -0.43688959521852244 -0.04389539922026797 -0.04764271910880069 0.4893083060958091 0.4879772271505688 -0.2431259489635218 -0.16245327857124736 0.17898247775444776 -0.07311138613211665 -0.004906380534150712 0.43688522063122914 0.04455223167461442 -0.01872226410510014 -0.17229781973419744 0.3811371761184197 -0.27908291734171276 0.4342588736367944 0.19649658106616097 0.05271093950840433 0.1914652855734683 -0.13908397710486908 0.420236333296896 -0.22324745697443804 -0.31651478030242597 -0.4194293330545895 0.26283288063446586 -0.3303468015456692 -0.44180038092039176 -0.0881567516650128 -0.3461749008173981 0.08662174215153362 0.3425878686093593 0.24029998280611797 -0.3371101722512533 0.34154760321717903 -0.24148196753316287 -0.42482025739065765 -0.12111810704469994 -0.017029459286882487 -0.432040054163073 0.4358575083125744 -0.4190953599752447 0.15783321522988114 0.4026079909110224 0.09230488424857497 0.2979328245666123 -0.023584303518936478 -0.36795073813903845 -0.26276913483039344 0.46213585385096223 0.10009259863926168 -0.3033722361177925 0.023333217799780925 0.11508948108766348 0.2780970371699002 -0.1922743869383018 -0.3416594359186187 0.315422595756522 0.38096422083230086 0.46953261954469616 -0.17290000945126127 -0.3403570034277501 -0.020190458754922536 0.36813303072268067 -0.0190560179899385 -0.47582807364225865 -0.45781059520818845 -0.13948999523600492 0.17660426212382974 -0.13664690548838876 -0.47260520138206685 0.05153406381525649 -0.07905435566790198 0.16897571037135617 -0.14753577112772498 -0.41391555776604394 -0.016786023864257427 -0.28165159848187016 0.0016679078699097794 -0.14178668514332937 -0.39996257475268004 -0.4022109948911585 0.3640123285378368 0.07978852199205966 0.16824655585892756 0.22722783326754759 0.34109814887727774 0.11403000253539752 -0.3069172901118842 0.16636609018063353 -0.06965682526081063 -0.09548780916893695 -0.21504463922534822 -0.3023357189320234 -0.02981283181355976 0.18203589789207653 0.35938600684000355 0.3884813632383839 -0.21065738600417394 -0.02765975021344602 -0.4918275763933626 -0.04416872564720842 0.29705972816570636 -0.44730540765179094 -0.21787576917264018 0.40328282159130835 -0.2560224992687351 0.4021578566726107 0.35437860533666776 0.015044949090780468 -0.13354993640226864 0.27031578890973773 -0.4959530963387103 0.4668972242592856 -0.4539950270393144 0.20121105763198466 0.41671270080980705 0.4336539980396812 0.27756706284400323 -0.4970229551683152 -0.02939714118487391 0.4045174894851802 -0.31020440005758787 0.4398204244214948 -0.1945972645137628 -0.21738118064248801 -0.349946441242893 0.26798543401812236 0.17752417840918666 0.41995807791758166 0.301501228911246 -0.06229090699527151 0.1893355679746389 0.17487115083424132 0.0909424712010064 0.34109645634659114 0.12428791284792462 -0.20592887767328194 0.43305781303903845 0.16944921388873369 -0.3191015664342213 0.3335644233457773 0.449072980906303 0.24639013657830733 -0.48110486473224023 -0.05635786354093775 0.20497982531063308 0.3929259688964679 -0.3331811833851177 -0.2844740051111315 -0.25254617291147397 0.33961488532945405 -0.056002044560575226 0.046858816533479786 -0.4955354828349188 0.19119202623183573 -0.3726639643153796 0.23150040479665956 -0.29512948086962276 0.13827470969211453 0.03282373545147799 -0.20886754674343588 0.1674053135986744 -0.15508629847996314 0.14172258332569176 -0.07577981864085825 -0.27306075702311816 -0.42319145651082335 -0.027239615650033522 0.4507973015348534 -0.06868339487493247 0.3805714316021205 0.17314010644213518 -0.20559267886093024 0.4569880359698437 -0.05982413481921878 -0.04932143408194589 -0.052493238856522684 0.2334866977946929 0.24193812565449857 0.4923445631075578 -0.2531901616241251 0.45935047561957576 -0.34736271832040533 -0.2391482989942404 -0.21214786268864583 0.3684091559746815 -0.10317950968887091 -0.00530644004637959 0.16545335583276466 0.2625478990028687 0.3591197074824425 0.02750940176119676 0.010033839570358194 0.2499230012831738 -0.44018929412310637 0.05958875857920909 -0.11016895557916451 -0.18457183973894775 -0.3082980474440349 -0.09287581397333278 0.4300470272431538 0.26563966931935235 -0.45772130384678833 0.0686688168649936 0.006824897915410522 -0.42518999026538773 0.478082836930786 0.41414174826287564 0.447940729744599 0.09736158988312826 0.40327571043997656 0.27127635067235645 -0.38067017614343 -0.2578206670373375 -0.48090632232039887 0.41465016287760326 -0.38888118099991786 0.2832221054714382 -0.2061234602657509 0.48473752956982874 -0.21481256274867544 -0.014685280279783663 0.07800349672761797 0.19806860304536744 0.4954672785357199 0.33608043840984936 0.18910819017204183 -0.4623021222750361 0.35194599344524746 -0.3959742534520877 -0.21472051373465917 0.190968499895654 0.42433185103702087 -0.19344374529881037 0.011697972685486224 0.10868968603964835 0.413678502600215 -0.34934425782496503 0.3555313030127446 0.08238413773982523 0.22325106347898493 0.10653445006452089 -0.4593899722987267 -0.3029969150408065 0.4451018123775965 0.026026755611888053 0.09241017650954642 0.2940801128128717 0.4953098833885323 0.1305881477352856 0.10524405793781832 -0.013260999563057263 0.3040692984158999 0.3368132714304721 -0.4378723205368783 0.45329652586510183 -0.1943889209674713 -0.3158107282870586 -0.1306884088765753 0.45251931623601194 -0.22474117494162982 0.18435600573023758 -0.09483600023763572 0.24145581151537743 -0.49430903602288045 0.0555121399055899 -0.24535242601843565 0.40778161426425097 0.4024392941855991 -0.3127110894125248 0.4447643091645678 0.28793363612887457 0.15379594807178432 -0.02328192056766265 -0.18073686648997667 0.42296337696514696 -0.3088809664965092 -0.09631610063851426 -0.046385668508266864 0.19243759160736928 -0.03804219042183277 0.32221220634430303 0.4184417271711156 0.30719724642051804 -0.2922028708858515 0.37132882457131355 0.06603297171427958 -0.17508376153105432 -0.4658103155388963 0.4967270552738632 0.15794854887119958 0.3583301586325899 0.17901858204646814 0.4667745266589195 -0.014614047181769063 -0.383172934981866 -0.3202608421711878 0.3702487387669058 -0.39875409282668695 0.08356838437020919 0.004707595067648729 0.4323103858248474 -0.3836095420661949 0.10520883548514881 -0.49982542705461586 -0.44962050014562915 -0.202594010390156 0.44426240487341995 -0.4086156750358261 -0.08485455824028554 -0.15706398172095648 0.3039191664035831 -0.4942780683946 -0.05943338453689573 -0.3257967630863864 -0.45255810402348473 -0.10026971104453519 -0.3835212421085604 0.2966847488186737 0.25698216623275927 -0.019133426241198848 -0.0302367383666311 -0.10398151235392383 -0.2736099577746198 0.0058848732895434575 0.2875904046374155 0.3800690331067005 -0.354536055632354 0.3296470613929404 0.4353276018461416 -0.4833957289009613 0.14076715615733815 -0.3712875244573922 0.20827591226210385 0.2889777211377925 0.364892049101203 0.3563881869768769 0.04779477864678949 -0.45163624254877266 -0.46406268836032916 -0.46759920105833364 0.1658505519209995 -0.3875601151573633 0.4560713927035025 0.28683274565859007 -0.07703006117129862 -0.40164523101590155 0.4686832154724172 0.42519029240221706 0.16701563424760613 -0.4878669529559264 0.22918907242768727 0.189318556017803 0.09821115216067478 -0.1467576226549704 0.3418017668527932 -0.2025070737278658 -0.14669433817131705 -0.07642014617201698 -0.45680865014348215 0.30018405373146795 0.3543696020067696 0.07920397568137127 -0.0696759522988033 -0.04340948706808201 -0.4515248078278338 0.30333628671390334 -0.35939810842583586 0.13107958390038177 -0.08353959890622686 0.0006989960638836834 0.0076033262058025075 0.4964444463323582 -0.4619251741392626 0.13090040801942393 0.0033256957289288236 0.1962069367591167 -0.07490012777797739 -0.17350370153256633 -0.3068912576459314 -0.2915600971100042 -0.36373407629374765 -0.20341089060582696 -0.13635980714442686 0.45137024226932376 0.3156880028276269 -0.4257159517434749 -0.4504566483426089 0.40225609942887064 0.2848588036281534 -0.2494740174077691 -0.09595190492734362 -0.004354593999842726 -0.4179595546619982 -0.12802849713163122 0.04990651176977212 -0.024197763815822282 -0.24127413610238913 0.19288169969760682 0.26176848835319566 -0.11804249716323467 -0.36113384515376445 -0.12756704217171633 -0.26842500571052463 0.4017382911669206 -0.1981806694097885 0.2516231102386618 -0.44064113506182223 -0.192134630258601 -0.25484631126949575 0.1176209048833532 -0.3034852136985453 0.36180295793662953 0.08719445603147069 -0.19500811192904177 0.12063005741493127 -0.26396154560821417 -0.41554523880307015 -0.011772850175358451 0.4274839714088119 0.22445929744026727 0.28326292888936144 -0.03631866027251951 -0.3212460553845363 0.24695146117157174 -0.1652050494841335 -0.4472212862239945 0.29617658503388844 0.24660063916361596 0.3419477650628351 0.3948376742414895 -0.12425088319770816 -0.2771247459343261 -0.3526854904694019 0.0571440155974865 0.27243188973268007 -0.06949962448776048 -0.2665065493414577 -0.4664586090745487 -0.09312613516563983 -0.305737162416874 0.4317864857292917 -0.34247382766101875 0.3128444265354068 -0.06429214891664903 0.09951558940156124 0.3470615674773122 0.2079839111497357 0.4764503079455472 0.1255233402970164 -0.2841889994529486 0.3537342512729379 -0.11564658457802579 0.4326759041747833 0.21541247371794392 -0.3244356873815336 -0.24012857334509963 0.17004491935854682 -0.30877859100940364 0.173941880906349 -0.37135771106845017 0.46025501303854277 -0.4549975825269609 -0.35704080073905486 -0.42031744454817066 0.057921358846018345 0.15617504506169144 0.4298000667059868 0.46003652194540456 -0.3407042945195391 -0.4672112980637654 -0.10592431142237724 -0.02800466075681074 -0.11676369112348517 -0.309767198895345 -0.2500532677915167 -0.11434890149077859 -0.2142608045832598 0.38807957846505126 -0.2384025688066288 -0.3991128567513489 -0.10034735061386812 0.45857985699558657 0.15429158579067337 0.43918617766750645 0.4589736824117303 0.4716835971451281 -0.27730138287777895 -0.2847976242317415 0.3642534105150613 0.12906811115370054 0.36908781396768053 0.47353341659161263 0.24697107089202786 -0.40786166772508137 -0.2534233184835981 -0.01438638080552046 0.1707473494917754 -0.15270067939839738 0.1650526640782929 0.21884450281161694 0.3700856322847411 0.3723205342944378 -0.2723593442997051 -0.10747322250966551 0.05242798592386566 0.18261058315932932 -0.30928241493745856 -0.31601493831426875 -0.1420531279502204 -0.3280278505627122 -0.2811382020937274 -0.1937149769591312 0.2926545397585507 -0.19852237733766898 -0.3770542177311099 -0.4882650585878232 -0.10295088238717875 -0.45337014363405026 0.2448178949741011 0.02423712702845382 -0.23926778680207506 -0.32288594716960917 0.042292496143445546 0.49782260554664437 0.2669072328076393 0.1271278715233196 0.19788618060548646 0.43357129622585633 -0.2586894435634842 0.2193526798863934 0.4781753461981907 0.48614380919473943 -0.3916095028178742 0.39015100337494557 -0.462545024640749 -0.18324642305639505 -0.37444150430459144 -0.11384625570473661 0.2732188612734514 0.2245796134860012 0.2739048813822954 0.04848070611707089 0.316638243489735 0.08713842118951398 -0.30668392155572155 -0.21630645454829633 0.4537018608829426 -0.2442012711783912 -0.036932725619268414 -0.20555177584058915 0.0370673283890498 0.1376483859576968 0.46712731355195236 -0.1063903064505689 -0.08181754932810714 0.22747944270385234 -0.27025682436392173 0.2129026755130865 0.1865343480988899 -0.3852918728385045 -0.4331675126991552 -0.42884798322949913 0.41098282708940115 0.043529682302076766 0.3796658990577052 -0.39148012722042114 0.45964539417682304 0.4685752123647693 -0.3043013299422892 0.38046866982935834 0.2842876706442884 0.48513920998651616 -0.03651931323586888 -0.021836255418643646 -0.3895662342841927 0.257993105571793 0.4896816828219095 -0.27942506388431443 0.25668720764868813 0.39204631341020313 0.17814164050796444 0.0323747085551187 -0.25572655124922195 -0.1374432984424402 -0.3543129916071118 0.1857886666344548 0.2672981052918526 0.21522557397523345 0.010717059007809726 0.4885101252196308 -0.48719378993386653 0.30241925260891656 -0.18189445890876554 -0.13979987843551822 0.309649572551456 0.2739997032884903 0.3877689722713539 0.49635123056327235 0.30606040792115585 0.333030163718823 -0.42151632937451666 -0.13922695323225853 0.21804634591417404 -0.4229458506783781 -0.0974898354860495 0.05895570995698096 0.22578907206836307 0.033277817927336306 -0.38787659040300226 -0.4858787785334264 0.09665312002757043 0.050481975704054216 0.2098869614683434 0.12243475633431855 -0.3495089644951791 0.34737069921455066 -0.3128437596190765 0.1717357600784476 -0.10274790212478013 -0.44576694230309677 -0.25258440394665804 0.25284048942870174 0.13783044304159475 -0.23512332441788375 0.027240333396553407 0.22804662047786262 0.23610317542910664 -0.2764561993549729 -0.4651352474846763 -0.4070420079091568 -0.26621254075620693 -0.3484741934163198 -0.34346716362872975 -0.3259851701075124 0.32974473867968024 0.348087574194749 0.030722887069424165 0.21767118921954653 -0.09688077482205115 0.13461270145098836 0.2872143482184518 0.14785242785450492 -0.19101344751475158 -0.04849830689462731 -0.08035623201744202 0.2650467516236732 -0.2845187110381975 -0.27792206323448443 0.46285941253494356 -0.1255921302225469 0.4341224615239927 -0.3683244140972919 0.2048400087260427 0.4249827596623357 0.2558818567642893 -0.007332375415860959 0.4371958345990352 0.03719057400176862 0.060812546000803436 -0.15294136650194212 0.3753475039764549 0.07229615440206272 -0.121996440371549 -0.1931107182826587 0.23261672428937308 -0.3037623557421292 0.19328326266514573 0.49741504225932753 -0.004736016400025633 0.3409852121751833 0.36206446706488227 0.0753468995984643 -0.17783438497115 0.38064523253295746 -0.39704940340883643 -0.20768411897475325 -0.21028639107236224 0.49202887954425323 0.22927341534786017 -0.22151126258995657 0.20782217907434886 -0.3500598045109762 0.22382851130849546 -0.15896975917994927 0.15408674137275258 -0.21686776885245584 -0.488095622635041 0.39673559921157164 0.47821349476220654 0.31751906761227633 -0.46305221576727007 0.32296303393736825 0.2844103215302044 0.22650838959738095 0.04853153522528575 -0.09875684286820474 -0.3143823395572799 0.22872519404606706 0.270861717327739 0.03109977908132444 -0.3042540652343315 -0.2671112727976179 0.49626318848274353 0.43079246891880274 -0.2055006745872664 -0.4392050125920107 0.04022117449234097 -0.21016839224509365 0.3656994029906975 -0.4682856514926438 -0.32509464970855817 0.09466764813475914 -0.46350117204896346 -0.4879733384956575 0.019588458606688453 0.16861595655646822 0.3012796291753411 0.2474540539171155 -0.33042673843752934 0.10920319017522151 0.1811416580958113 0.446001509512027 -0.2673808376258121 -0.11666940432849227 0.32748300297928123 0.20988435876286982 -0.006882699601291398 0.08834360229572902 -0.49765515689691764 -0.2783043703873579 0.0958466069458851 -0.12775540535732077 -0.19692380471474003 -0.21608614328907694 -0.44821115480995233 0.032355696102203346 0.22164239766011284 0.2754827141854953 0.057952654507700374 -0.14234292664995296 0.2246322840806687 0.3425398005187662 -0.36393658892200187 0.36196360879016587 0.12612231883017078 0.009038040435828454 0.23932401641917112 -0.2385728486059252 0.33648338881314765 0.18066983117079083 -0.17482123247980486 0.46721430530933494 -0.3101274875264117 -0.3265181948952811 -0.029649490607231543 0.34828070059192473 -0.4671388536503682 0.20936881320630507 -0.09647579984753751 -0.1777363772728099 0.035182839252646314 0.4485785966440242 0.00968077760425945 0.1857095027097988 0.12564225360656478 -0.09128007136506189 0.25239149940186034 -0.04724262426413639 -0.0007136981818723909 0.25723042976481647 -0.16085141779780465 0.4610881576604433 -0.12595115438510485 0.20443244390202975 0.12365007940795603 -0.11264934613529709 0.05935667300960357 0.4230640137176407 0.14916705267178976 0.3031106458771393 0.06665851456662875 0.08869798793908035 -0.02058998149150093 0.3009499823365809 -0.2095844217490862 -0.31653217167972647 -0.4221016989404771 0.03367071392140719 0.029579929525053172 -0.4138085229177809 -0.44339445645927866 0.36465450371726926 0.3699623086211319 -0.030265771971474953 -0.21577605654621546 0.4679445534294432 -0.17002845617873652 -0.23091019319766903 -0.21071089235144935 0.30777268102809674 -0.16146730071108495 0.17086089018126194 0.151704905556322 0.17199983375247807 -0.030726237696975578 0.42146360776226466 0.2527940110356215 0.1818911587124652 0.00847925674487049 -0.2289812819657212 -0.3505927366037389 0.05008863572360123 0.3736851657078618 -0.4763923485769652 0.39487298687555594 0.2721619744164746 -0.08153666095182666 0.25735018081846195 0.07579766542134014 0.3843392775236877 -0.36579429593910007 0.46842068169640116 -0.168582454161203 0.19728366908522255 0.4267196170994889 -0.016180314102671622 -0.08547957298197739 0.04516267392734441 0.010014512656323804 0.22553224042268083 -0.4635543567321516 -0.3360852625565435 0.4161056843432346 -0.3163272339008507 -0.3462053169648396 -0.28967221687655165 -0.3895503663210388 -0.3182830436778469 -0.45930672249875204 0.09219673792376626 0.4759014451214346 0.39589776762669315 -0.006260017545729246 -0.3288063373667872 -0.11752085965854375 -0.4954231998941696 0.38739681538929294 -0.3375600583754542 -0.17428398520860033 0.16835269436030686 -0.3844612734463879 0.34491233381598574 -0.43284307995792237 0.1936164769069726 -0.09172079319870718 0.022748821272090325 0.12052617447952796 0.1833923466889399 0.08769597733334411 -0.1721174960120777 0.26540084824567534 -0.3515128652595224 -0.03582381533828438 -0.143818720591533 0.3711777614049785 0.18391136786921647 0.06790875192051182 0.22427912542798223 0.3654619368233124 -0.31237394492075443 -0.43948876568857176 0.20068631241520452 -0.33913865190157744 -0.1941044945564171 -0.3814536680371632 0.048506025101198835 0.2362054595768014 0.14266025590597253 -0.17837465572251587 0.4453957492888899 0.19905041482827335 -0.057227837241159096 0.039838308355543695 -0.22015296754613667 -0.1958065376415571 -0.046015516762743625 -0.05905249637720933 -0.28194154937277893 0.39365226778077034 -0.21723893525406002 0.49028333905885113 0.12287709284899206 0.10097904467751073 0.15081573474303478 0.47039937445174207 0.1742725607802874 -0.2391553471251543 0.09538295791854168 0.03825649262988107 0.18600342851334883 -0.4172661636241376 0.004657741977110996 -0.33039812771412236 -0.39595981680516623 -0.04903378299682226 0.07285158021211569 -0.03422898014611753 -0.3842065197214948 -0.37510651473868284 0.16016758016301869 0.4985172775754868 -0.49652641862758995 -0.2653953267065561 -0.24398787608568262 -0.29237739503301863 -0.1874056808890937 -0.023356841870109113 -0.04279127432210261 -0.17245852121788097 -0.26881721611826936 0.0128738809658 -0.4480234319013956 0.45541830940309425 -0.004538730053051054 -0.10944836613088849 0.1587534570960707 -0.33100786281635297 -0.20844093474641767 -0.020081385788478512 -0.06092607101184144 0.2742328492798157 -0.42621288605988383 -0.03708025668851478 0.027306037197644795 0.04290375406768565 -0.13599822244806836 -0.49952220283604964 0.3043730433852322 0.08630865403922339 -0.382414836021299 0.05235173627583134 -0.4115769259373244 -0.007438249575263511 0.34899750345922376 -0.1526936749005302 0.15156413689764003 0.23618841637844612 -0.22787726699038968 -0.027758398207781698 0.4984512834949284 -0.40197204151797117 0.23381491250903974 0.2247872930757271 -0.4361588327734409 -0.2943178240859835 0.10545161306147222 -0.4121648883533058 -0.18833189882929946 0.022831745240598722 0.4251341548090414 -0.2989622013942458 0.4079398805533758 -0.04708809321301344 0.2212767356611539 -0.2361214892896507 -0.14732583096426344 -0.014158722195758422 -0.2894309396521686 0.18085197090278637 -0.2077574276708587 -0.02501233063684083 0.3808347321354787 -0.35320409741493275 0.11369425152630819 0.14338702784202362 0.4513935275493337 0.2673985507903742 -0.4184846985157663 0.0036738181690456617 0.18774503525388986 -0.16243783410056978 -0.3158784008137653 0.01268527637105743 0.22664827306105828 -0.2640691818179759 -0.2528429612115911 -0.004076571794225381 0.0451023065536611 0.0078087159941439 -0.09993977841778101 -0.41292111492159 0.4792267675669677 0.05388306844174984 -0.03776804729866956 -0.14137211332273913 0.072357862105638 0.03660909316162886 -0.016992987420559547 0.2472985994135174 0.3145077811630518 -0.4288971653911936 -0.481691399486848 0.39441480938183526 -0.10364346509821909 -0.33924304467406885 -0.4096064650548339 -0.21678127594034635 -0.4262944528574406 -0.2800403598743709 -0.2065551648748981 -0.23970871236782254 0.03310640822047206 0.4272362730880238 -0.18952015642887077 0.36448320903534115 0.1512624916582489 -0.19230905631513384 0.43392786233802216 0.3279600950493279 -0.08656141457857203 -0.4335342454900747 -0.205464583608866 0.49565966678332674 -0.10388753879876234 -0.30702636513204795 0.2760459681250902 -0.06935037351219642 0.2808682445906313 0.09508576314818795 0.14591057924797513 -0.12539560355510293 -0.21391960672200538 0.15511763008977475 -0.34086176081648123 -0.484225922800385 0.05739495630904623 0.43242629632562724 0.13990152154842184 -0.006810744465129193 0.08376558788159538 -0.08981776488879778 -0.14115318102985397 0.129160461353231 -0.4239036908900834 0.3702678471182643 -0.1508651960746974 0.3402713058449689 0.13224299378028104 0.09902639968845828 -0.27908670870590013 0.018953676405589426 0.23808853898478233 -0.09734954083169534 -0.1903378701541698 -0.2502411311739835 -0.22402266855989883 0.3405349728670223 -0.17719243627668213 0.28964532634789886 0.3074297677957719 -0.1892624517031889 -0.3566940714301381 0.07388204864183134 -0.2929516238214953 -0.051254410455390365 -0.4777799525312606 0.34696981523340686 0.3044604830211681 -0.3673603809424504 -0.20819921937576358 -0.360000739008032 -0.054424984681142985 0.1857798053690024 0.4330352371006281 -0.27036265493673395 -0.04802744303165907 0.014940403063816055 -0.29939985990142326 0.18929014171474756 0.3508393159415669 0.01919365748439361 -0.1914310389249001 -0.20482129484554246 -0.3143742288815874 -0.2515802782608574 -0.3496059637520853 -0.24762967517483847 0.40127110842273617 -0.28858531139801646 -0.3493792004057015 -0.35681851394369435 -0.3483955601540758 -0.38248788798224276 0.2975149073891653 0.08402852868555732 0.3906726599598149 -0.265402761691263 -0.30240059351395976 -0.07069218999080928 -0.017865621214556815 0.11718521372783297 0.44501039394129016 0.4569709445781225 0.08867669928359634 -0.29651551315989866 -0.4099126148495166 -0.11631393974836435 -0.2769688647587507 -0.05703220146738952 0.008570885772109404 -0.46280454231408774 0.48631355453682124 0.20607461463990662 0.011809433878194886 0.45716864423271053 0.4824482437441294 -0.43367968194520756 -0.23973868444412105 0.08725791955918138 0.14932725324968965 -0.0014606275560986592 0.3597432311205032 0.34018538556714173 0.1096301886722062 0.09728312207875278 0.29877627682064833 0.3309571581161088 -0.10973369654633791 0.2726418798940352 -0.07766912214252897 -0.20899934090081573 -0.10368171567104767 0.3067614830262847 -0.26574969187263053 -0.1723743765503447 -0.2638191817568186 0.08130370991774094 0.1571581198061981 -0.05899834998551323 -0.4683591430672821 -0.3277522857275136 0.49857917570650867 -0.03610680535158339 -0.3881361796810421 -0.33836783732228737 -0.2978609822712429 -0.11277222926161401 -0.21695617058250927 0.42623335872251 0.2691306026954927 -0.2748427892851173 -0.4793313942189479 -0.3233802627096338 -0.04614258973310115 0.10048014138308925 -0.45920702364297594 -0.21089447461457966 -0.2602267295007814 0.10523868308284368 -0.05870437021402608 -0.16493554526512033 0.11467016972669808 0.4420602202962003 -0.3128868225312964 0.40407479644674127 -0.13559057397997154 -0.020051407162247625 0.19689040425537174 -0.08796372033723754 -0.1527253945182041 -0.17018419503963167 0.4992957015167758 0.206715834623581 0.13982485067677408 -0.004273828608005181 -0.02602052604550731 -0.3004831218672629 0.26942038118366696 0.3831143710355541 0.4139615823316396 -0.37352311528011095 0.004219558178648608 -0.15384819599066502 0.04024200884854601 -0.44614867209090603 -0.3804073271955766 0.25442763814618086 -0.309470571568779 -0.016880234147485074 0.44347606836462117 0.41495450322882665 -0.4064849598580951 0.13250186099620864 -0.18928720828104606 -0.424868653067068 -0.34301305931571335 0.22910140592976147 -0.21844366199573018 -0.2829249570982434 0.12060498028341249 -0.10987293356113303 -0.1942231335185648 -0.4651451478493407 -0.2938731223788442 0.3693385559693113 -0.3384543955395699 0.4017549227052182 -0.42830476794244854 0.4434680137467829 -0.22821347001803627 0.04442345728397945 0.3624728071935147 -0.4015723872353254 0.07046487645583799 0.16660438383894327 -0.41314503766090704 -0.4460058401169338 -0.3404945416827848 0.15602392340157967 -0.28037916034136856 -0.3776670684831306 0.08967645598560026 -0.2841002976211957 0.4945918647720041 0.08716586247034852 0.28268819284814095 -0.2569425697117802 0.10633989851306314 -0.006962695541647634 0.2890375191218991 -0.2969363767258164 0.12624953975387931 -0.1023656040321419 -0.010684310823367182 0.1764318470388726 0.006887819430453579 0.1886278102558533 -0.108057828386937 -0.4609665578917862 0.20786324684779856 0.005364961735633944 0.011955407907405236 0.2955508538064927 -0.16974695609572277 0.0684050368170982 0.47802005719480223 -0.17470550537210283 -0.27295004741509 -0.291428951319467 0.4294757576063869 -0.11933658921389767 0.4177696903979692 -0.10146674746428863 0.49381190350351 -0.36827330795119506 -0.41706395642874394 -0.06704548705522906 0.12972110978994855 0.10001187899575503 0.07302649850104537 -0.012682764593894502 0.4530149751989989 -0.4151435356134713 -0.4668969453448508 0.43385957455109025 -0.27618734272000967 0.07085526443806689 -0.27899747673353426 -0.29137112387571407 0.12288431123874011 -0.2539977039255049 0.02311539343797886 -0.16412076345465365 -0.2459585070273521 -0.15157917347508698 -0.2296046162498433 -0.46961701104065545 0.19079419105661466 0.40785277273081755 0.18348577787838183 0.34431686311579346 0.235348966973281 0.26370961363623546 -0.4756840828394223 -0.06892382879283121 -0.2948005901952119 -0.31902530705749754 -0.3986009753393598 -0.28015836360741864 0.24712950778487175 0.19187303299100122 0.04398298149611679 -0.09915126689631537 0.3094529348721943 -0.28314783722158954 -0.46528298108549393 0.34932521478053047 -0.30141037558689854 0.355175886085372 0.23603698549619734 -0.1380468601790733 -0.1338703589911996 -0.44410131156575117 -0.08078904300796064 -0.1445793568921223 0.17896264202890066 -0.29882413933278373 0.34160482621241806 -0.002164559446359293 0.3665990000180567 0.3635487521922953 0.3196382091739789 -0.448454692838935 0.10258435310035552 0.3265306700202064 0.17481519668657308 -0.08919861742836921 -0.06410285601668009 0.208747915520882 -0.4559189096636165 -0.4611060344119997 -0.02996330721607454 -0.3784222454191346 0.4900806808722318 0.4118668342413021 -0.27510744241337703 0.4449962107948414 -0.2235964121777234 0.3123967080815626 0.4481048563565925 -0.36880279298532503 0.138663114594349 0.4609617548644179 -0.11668698040750636 0.48316128468098585 0.3572434749373302 0.1705320485624956 0.06814424181423573 0.4776727441988128 -0.46496150535758773 0.12776126682011524 0.31629637709820624 0.4917346049088719 0.24977071571825316 0.19432933488060877 -0.3384687355882916 -0.38297522864418276 -0.27923761735953234 0.16234240616583928 0.28650375670414585 0.39122077256724075 -0.36044192118007334 0.08343668577069507 -0.07062278696398283 -0.13491883880135924 0.015241201297144014 0.35733307139367754 0.2642159940270137 0.47513163950605 0.35145246396380503 0.03739368388617337 0.1536114810943341 0.19486114950755506 -0.2661502613121862 0.13348981312921204 -0.2503135433267052 -0.036096259143915344 -0.4516512320648449 -0.3216007513072714 -0.051484792720992156 0.4175920113138196 -0.444582348897946 0.10581679645050812 -0.44993373954904103 -0.41762845539157256 -0.05099486768041017 0.04008098525854875 -0.35185939381216647 -0.30789949761770274 0.4999882087509506 -0.02971758133639124 -0.15366070017246614 0.3234858777586912 -0.3444192964174949 -0.41253878151160195 -0.27544291216069483 0.40144918006076413 -0.09261209046457308 -0.31175113225693096 0.41496112657580464 0.032653658365309535 -0.1180870107855948 -0.11477888522116264 -0.2372863341785687 -0.148396889418981 0.31889314997425344 -0.19204937512785814 -0.2056673675894123 -0.3368733324304589 -0.37388967034155896 -0.04166335275169253 0.2590139890121428 0.3311798888092343 -0.49427845069564136 -0.05724418259759567 -0.09503823863507588 0.15005108613276685 0.09294175429644536 0.4237999221247303 -0.22050598317869408 -0.3658429020434044 0.14842586055023455 -0.2435794467907687 0.33224876711815954 -0.36423203770628 -0.0601190763651025 -0.37597311428801683 0.3342135264591649 0.15010723063466114 -0.33753075046328496 -0.4185354035069905 -0.2465947402563471 0.4650137566817266 0.15320044095216867 -0.4490560762059811 -0.22947695445527327 -0.24437329876560854 -0.07446213764518161 0.09954254109428562 0.21411669876163142 0.14776371124947218 -0.13844011753328656 0.3650651573089827 -0.36368284542856877 0.19999838823125882 0.17764133924800007 0.0791002016815312 0.16415207390494158 0.1748931977928505 -0.20309713107897787 -0.4668398910680389 0.19998589194759475 -0.3520022058851604 -0.1533008950371938 -0.024902288988263743 0.04264096339959189 -0.47761347119471864 -0.4007501089161598 0.3734165090709054 -0.3134238786815464 0.32522864631054194 -0.3159067831340764 -0.3556982052525247 -0.13644093668445978 0.27928633739766096 0.24720338767784833 -0.3891116669065048 0.37344408362552006 -0.44304593805142367 -0.438510541627951 -0.074810021444215 0.2747505717195271 0.4690537470726045 -0.08529338868966008 0.07523360005845825 0.2877554483649062 -0.1008353130077807 -0.30888173562400667 -0.06565684112833159 0.39461401487157155 -0.2729291545214486 -0.4914885467857175 0.013158342911558707 0.28100040644025204 0.17869255946131568 -0.20189022848663984 -0.196550456708404 -0.1456028231097064 0.4285556865395671 -0.33301652296125195 0.45221413150065226 0.03419441928916467 0.04645058866446272 -0.4724187079686307 0.3474528256261603 -0.1337384004545964 -0.09825099717200536 -0.2137489380708335 -0.4775143723016435 0.4995348946601682 0.018830895486436017 0.1868097103856644 -0.4735525662760688 0.087630886775665 -0.21329491858809324 0.22335927593523686 0.31034217081772897 -0.3529008937352339 -0.3085035989094411 0.4448883410218165 -0.08154236224456912 0.21590654114008212 0.3872885073225144 -0.18785442947353104 -0.08715216150761451 0.428824670791635 -0.4265271051363415 -0.25671842886779295 0.315854216915057 -0.16999105190579755 0.006366816999330505 0.4184830375744605 -0.3534065696683103 -0.005846366222970856 -0.3755154424909398 0.25517787945636794 0.28207401825112266 -0.018276792671824138 0.09758977302488248 -0.27973234050260243 0.01664488647408413 0.2651704027255184 -0.005587221986248392 -0.27468347510259616 0.0705604318702655 -0.35329194353083593 0.1871136290202693 -0.4373231385925678 -0.08705274324530132 -0.3243138138842172 -0.27547363380218315 0.21782125930537233 -0.07503521543403147 0.4514700850179785 -0.46020626528793873 0.1812723801438304 -0.182120787526304 -0.36868232845368143 -0.13025393304362742 -0.31209523281165186 -0.3809015757143561 0.36888473016830736 -0.360704311049169 0.25387639159443975 -0.06300077531340653 0.2696775849213364 0.1901494497942805 -0.452614736937036 -0.05246172634971036 -0.4681490714930494 -0.037415113458993066 -0.20927629890414767 -0.4521280440816453 -0.4005449831321868 -0.26095011868725926 0.140472866268318 -0.18383420575878562 -0.23901257478139282 0.004656580361896867 -0.20912589476103083 -0.2803941996050374 0.20035055425088633 -0.0001349467885504163 0.0018404067720562134 0.4878518600891266 -0.36571015745598967 -0.2720581472635182 0.23201629904799814 0.07427416130971465 -0.011824260746928106 -0.008530188060444033 0.4089566749146999 0.27036015969606686 0.362185546234039 0.3351532681099252 -0.05893529679321874 -0.029513071665569712 -0.3452677632850041 -0.4047638901746462 0.1837402154371932 -0.31387498144593073 -0.008454260641669098 -0.3918709769204929 0.011114161905287356 0.30638911497329324 0.0035695940056424957 0.44280201005311703 -0.13727276999698312 -0.44855369645523735 -0.032340991476570435 0.46880114687316043 0.3319508932292621 -0.16283860988018706 -0.4702744558836571 -0.28641434819703704 0.17179739025961682 -0.054337266794644457 -0.16677553793597044 0.09298438801901154 -0.3809375164955715 -0.4975397794997116 0.022844120510012833 -0.08999493070566456 -0.23303219137436226 0.10900886724331171 -0.10101386784135613 0.14874360581999013 -0.24646314612777032 -0.36260424872680197 0.4772546203668159 0.347227311030208 0.04324788897449383 -0.23931015469702288 -0.2855031890886758 -0.08646463758121348 0.3905372152421207 -0.24827194273886433 0.039027011894824604 0.301237845710838 -0.23879163050292262 -0.41281928436108106 0.20363089922729016 0.4291118116715573 0.2851229014957961 -0.2899343114064007 -0.35198222595098405 0.012566408682673669 -0.12601361602261096 0.030321856836700967 -0.3283073529658961 -0.44424480879135764 -0.15702518696580936 0.05592317041954975 -0.14370179899269198 -0.1266961562812391 0.11382266708424227 -0.1534597877674163 -0.10471473919155128 -0.2116463412709464 0.21302095041026137 -0.1699319085854869 -0.33064669568496485 -0.06603477530257318 0.4350850850026947 -0.21102138842171547 0.46994474880025017 0.47219600596821754 -0.37989431584996025 -0.12127251732945232 0.08148508381387021 0.28809902140287147 0.43706797561267363 0.35111649319006133 0.36938471948654594 -0.37906807754559624 0.28369370757747436 -0.38296604967969894 0.1699511199924174 -0.17845970772377562 0.3871760608762689 -0.17885873116564055 -0.49407952820009304 0.2884756568386899 0.4019412333371961 -0.11246994536684873 -0.35279457764802047 -0.43138829115249844 -0.34004913526830893 0.11580944255147796 -0.11856241987230332 0.43814862380464226 0.19020914997886318 -0.37957202729452844 -0.09162034942932618 0.1884807900725577 0.3978303073970073 -0.3029114502029372 0.499568016608832 0.22078434283394843 -0.02325152550283338 -0.2454023823026401 0.2407961846581046 -0.18571192287232074 0.08525616402381853 -0.16473317788731234 0.10789154795129008 -0.00806698861902444 -0.42791877676367507 0.4519310908655545 -0.036063533352967525 -0.28018341168893734 -0.4263783946669174 0.45092894000105055 -0.33591396432543386 0.03008826578636492 0.08153354825271131 0.4819556521729086 0.019578879445931174 -0.29200589866198523 0.03957487131920667 0.10313217257644114 0.21317731855274102 -0.11172708348237892 -0.4584625582298064 -0.29370808388121306 -0.26284716865336955 0.16673389152664675 -0.2414477886829015 -0.4901185493081973 0.14873328695238053 0.3943793102769755 -0.4223702582972415 -0.2328027825506067 0.29824454362748554 -0.06607284544122771 0.014850181146202734 0.20799991730605627 -0.03015766112285212 0.3516091644144501 -0.35257450101020416 -0.42455717496644185 0.36122045952110926 -0.44247952864175955 -0.3126057982069709 0.4056200795971028 0.15212018171106567 -0.17172010517524505 0.04376013038445248 0.11566728713999597 0.4239963911076817 0.20379747176504182 0.3442626389224078 0.33573641897430595 -0.3075868593541966 0.13533558859860728 0.19350117749593787 0.3472728747014521 0.1346975707803465 -0.11323953762953476 0.24976859947669539 -0.04845280195978052 -0.16928859046380595 -0.4444443613847393 0.32693196328555174 0.13988154737048153 0.3100317175820354 -0.15969419648939087 -0.1781191809377629 0.24509584051264743 0.22752773582380503 0.4555916861915633 0.15367557757112504 -0.39976865227556524 0.465719671402295 -0.029151756538511875 0.2705190033006407 0.004268834008255951 0.10968620772064674 0.18414226493978814 -0.11818743701257184 -0.05363069684115418 -0.03638159571730326 0.31108292195589593 -0.4909624494601882 -0.43822532532671776 0.30321064269497855 0.4879911131027802 -0.4442859078655197 -0.31844608987519374 -0.4336064736983025 -0.23488217043870552 0.36575234505104537 -0.03443443138691071 -0.31110492700821846 0.48441631257936624 -0.44293991069140204 -0.28205848858740845 -0.20077320054603265 0.02768257378542749 -0.3962710762349778 0.3894341107960233 -0.11614719720931632 0.06642134431423297 0.32023112968450473 0.24823220311247296 -0.06497225389172223 -0.4418512850574351 -0.3401514665063915 -0.16942725119607327 -0.46576210576195665 0.27005042212617647 -0.29627007364544466 0.4684911582521716 0.08888978501820854 -0.05744280907957788 -0.08833937486962906 -0.07078727097938098 0.4057416355861473 0.16069940795439208 -0.08414678083127258 -0.4440820203619159 0.3930037081690464 -0.024798658084221104 0.4637843725512314 0.17986435540625922 0.24464975244912524 -0.25279365058902004 -0.06687286274286175 -0.23283632415868083 0.14090596130273914 -0.08651844515062945 0.45557608558112583 -0.3769345166180079 -0.08208300199540075 -0.29099882654550324 0.054498170960839976 0.37975009647394 -0.4157659809458034 -0.1269679136794123 0.27364107014365635 0.13847349453171065 0.15607359093845097 0.11264589990123497 -0.4020922419066051 -0.12398199943704225 -0.11502126156476633 0.2477110168975194 -0.3641227470019246 -0.061916649733781415 -0.48796459495228994 -0.45146604949208147 -0.001137686248303016 0.18397119523411964 0.0077488464217191355 0.4649721710511695 0.34699376761047995 -0.3476789591446703 -0.0945629189852577 -0.42030878592422904 -0.26446186085697776 0.36933408195102524 -0.03323496728065389 -0.42123345162621595 -0.4572835334133474 0.14258767788611193 0.07414437921843464 -0.3124586707170045 0.4012676874539475 -0.3710590754086107 -0.30178617328031243 0.16743140215621743 0.16664912546538146 -0.39177085964004343 0.047155973454976796 0.42970290179291903 0.2837482815645871 0.20103937530361526 -0.3176100016303752 0.4153833011658733 -0.36592665591086704 -0.36329485263481287 0.026094793668701488 -0.39177066649916836 0.46784244227484895 -0.011022779180348774 0.06551600364561039 -0.4404298183927745 -0.1705531407834644 -0.37373306166916387 -0.1494696476707249 -0.39071799817434527 -0.4190111809220147 0.16831380030732823 -0.20765359391382698 0.09918802257949488 0.10438818569656783 -0.3278002902847367 0.21300803114379507 -0.02148357764438591 -0.19261286483213447 0.10327824783804729 0.009877347719197238 0.07217166379639317 0.03679174023972853 0.04663529016362655 0.25633785714416657 -0.37985080755709777 0.44262659467934784 0.34677988005156957 -0.1711882030334172 -0.49904158546711774 0.2677784896636971 0.3901782177073506 -0.48031878381975346 -0.07533357926454043 -0.4588735799065191 0.4217601320011731 0.18204901054714717 0.3530692038411929 -0.14037204034811224 0.4969904808215153 -0.4001856934558151 -0.4444244864220619 -0.47664701445464686 -0.048230208014574005 -0.122772697050481 0.12631180411287246 -0.218550451087419 0.08859498117806719 -0.06144094309840442 0.11242409208032123 0.43599876894025946 -0.37978973952811745 0.4482668237629691 -0.34167947690644396 0.15045587449702114 -0.19730284243189689 0.17169067610083355 0.37321410553119005 0.14783985460676474 -0.30933772470194076 -0.012050193731775294 0.1362308635056888 0.11285893351075227 0.12238890833886651 -0.014899844851044453 -0.26719052299563173 0.47626079763254225 0.24934189762287018 0.01945491844148739 -0.30980384854953247 0.31294060593147255 0.2114900478014895 -0.012518091245731444 -0.2833620114685512 0.1408188564554378 -0.03680898685943512 -0.48741119092232565 0.24845608489925097 0.22085121008942143 -0.35666494581072905 0.25073391317545035 -0.2826122631839977 -0.3594408623735228 -0.09801722950474223 -0.20060662965816145 0.2285033904239221 -0.17089515017593115 -0.10806046871952446 0.2881822915824165 -0.07232981204135336 -0.1114912419152565 0.08855346919385432 0.3367093245671917 0.33133699824607676 0.3758422955369556 0.4910004748204967 0.3777097435602521 -0.1449059078854994 0.4910298108681621 0.012809343800906259 -0.020277028577480483 -0.4626093940105187 0.4080366559647747 0.4422032350899253 0.2863436357441923 -0.07596960497423044 0.08886726753257013 0.24043493718221165 -0.13086090519000904 0.47492553745358324 -0.14624519040890815 0.2219916076389873 0.29571815478959573 0.11986074387533252 -0.3310867255044103 -0.349673923204453 -0.011826915030872742 -0.46078062941457454 -0.4127039550785798 0.10117425472852515 -0.05204766002221095 0.36744812835024143 -0.2743713361080995 0.2033762415923127 0.22241507953830397 0.43999756020199676 0.265066590303368 -0.4836051620826137 -0.4914842939335863 0.06442750181957002 -0.47191595366655403 -0.12159034917060607 0.15550166041543956 -0.2639428094056594 0.11600542835220173 -0.11143952032955917 -0.478529318655028 -0.4610626369546501 -0.18210267715057116 -0.4271004397603423 -0.03758199505326776 0.03629782608130794 -0.22172031927245084 -0.18641264255915113 -0.4515774385962046 -0.015739616550868862 0.1419147306209564 -0.11722922299385208 -0.3182201860313485 -0.2520912622197865 -0.3005549397512587 0.2094258772897375 -0.2811448892412092 -0.2672713319743206 -0.49340045533862764 0.1448355387084429 -0.23178826026101162 0.4148972482847644 0.28612108087244315 -0.2406643569955681 -0.15313573160876714 0.23774406746251575 0.28601793656545127 -0.27245134671598126 -0.2612037774745263 0.17371838978293808 0.12317023978962027 -0.4503250175837764 0.1286201876101648 0.18032920692406396 0.36077138601524117 -0.09774304837211645 -0.024097542445470466 0.35347063912095444 -0.005089252927805044 -0.45839967887993827 -0.35255381303484046 0.18230734509265445 -0.3796389449612939 0.038417547910907346 -0.4757299222015541 0.22185129699105832 0.2069913499850059 0.07500336445081834 0.24269442341122283 -0.47417953373695987 -0.16618093386478072 0.09827918752563436 -0.33790520711847893 -0.37023283627858883 0.2932927904462812 -0.40731458111759933 -0.19248321598232243 -0.45574824753647647 -0.48424421575761667 0.3132068761323846 -0.4153406350530644 0.16896378462883688 0.11078037595992996 -0.4774877278220969 -0.05244454364169571 0.21258531589572505 0.1651293120940246 -0.17791931494412028 0.11428923138652214 -0.4318091947392456 -0.27845647259071693 0.010252675264826427 0.31795750684414237 -0.1612867378710321 -0.42272551685208937 -0.357249671478442 0.43912521899618073 0.2613607046279204 0.339792207759548 0.37919695795288744 0.3887487396978919 0.0704952391253364 -0.3504224368653789 0.30702787572539125 -0.2504340588883681 -0.412225106298198 -0.15387866506416004 -0.4369602883118313 -0.22133575194518817 -0.4354987781383126 0.07702810826768636 0.30836075331497015 0.16951230872545786 -0.241865110122918 -0.3093896486577201 -0.16899730830419002 -0.2528694154531852 -0.05374822309164684 -0.28020793880875283 -0.19256262137272706 -0.39674335310532893 0.4466247426380874 -0.47843890210901374 -0.1708750626282255 0.14668733774099318 0.33913641922658544 0.0009756729330198111 -0.17762127244552695 0.43577934479531455 0.32242085362223216 -0.4455430135484272 -0.14465747480360625 -0.3341153943000197 0.14489001819820113 -0.08846649622725711 0.2795094300906774 0.06575344491801216 0.12452456818584412 0.15610185465960547 -0.18156122406196606 0.4958013205660484 0.40408686142028216 -0.313061217404734 0.11677367384772264 0.17985038446135426 0.46507248266824297 0.09483313351708922 -0.1828220371528253 0.49054684139986904 0.13578046679831512 -0.3438312762572191 0.18000082869459066 0.42469167987217304 -0.017820508107202482 -0.4636106087221531 0.10472166778226166 0.10278148727850545 0.4430204216672957 0.23654789325851489 -0.41128759749042154 0.10120040368879046 -0.3292559700345006 -0.1390299069007761 0.18888590671039518 -0.08980165312738997 0.005139085376676955 -0.053143492393943004 -0.3776074583581396 0.38929097813229196 -0.007374967309299207 -0.36120755821234973 -0.05218536408883101 -0.37412474737306645 -0.1374759823284285 -0.048866320602758195 -0.4896928437565474 -0.229613514971734 -0.05510322539626755 0.04654098683261487 0.48809433517429457 0.4327886594123518 0.22489991609270588 0.1304589940474088 -0.16552726863801137 0.382657006650191 -0.217747110327963 0.12269751989007638 0.07350824023136104 0.22383492943595273 0.03005877951652658 0.24110655579193518 0.2669098103854908 0.3716679533492133 0.34534527283563377 0.2905974482982847 0.08623108689085279 0.31924860241941366 -0.28252368707506414 -0.01690790118830099 0.30969837530618416 -0.01742433340381777 -0.2545301659306115 -0.39080334164565034 0.4413188610248653 0.199562100171351 0.2616479782934923 -0.4655830435194206 0.0030911590929513233 -0.12953331335831364 -0.16489543727216582 0.020382062256453448 0.1244703657224151 0.48700397348019187 0.01689254955475661 -0.16475805174290659 -0.12044702387403561 0.010937662140550919 -0.0017443222606072784 0.32307290704903324 0.49841777722581704 -0.15451603285225146 0.21249714902617323 -0.41653143975422846 0.390053487849087 0.11574471876980397 0.1002119490661375 -0.1967775766245914 -0.3432347219876951 -0.2176207242212368 0.46763935947349744 0.055843325411903955 -0.2778594378859459 0.23109499860656324 -0.023290586421095938 -0.18027261833288855 -0.2571532100396987 0.43672864777762677 0.20397329536958742 0.07613559319535679 -0.19346918098183985 0.1973750968333754 -0.21735896394580434 -0.35428133648008864 -0.36423840392418716 0.23892417875259808 -0.03558933638540651 -0.1847687011250504 -0.23490096849413356 -0.1917528950840951 0.4076427484214471 0.29529920378447005 0.20642868337531572 -0.36327454936114034 0.1734779098541972 -0.31819363387948785 -0.2580122566290577 -0.47006064968093275 0.14972784632309366 0.2595566947759774 0.4076563885795822 -0.10658023635231151 -0.20148371768339468 0.2122825985503286 -0.1104798013185303 -0.1834239272697631 -0.2786064358587914 -0.44331567056875965 -0.24527184171881544 -0.39889364388367066 -0.010953034274716389 0.22323736194858124 0.03047792411920014 -0.33947636020531125 -0.10839535623077545 0.39090125080143767 0.17772690626268395 0.02548797823083382 -0.1140062910883819 -0.2793803958933101 0.1446085398463718 -0.4504646523672967 -0.2682158728318491 -0.4200750978136336 -0.0528988433567249 0.48093231724453134 -0.4165302392595207 0.09522624775143629 -0.06651492781644619 0.4570906040460462 0.48325248144066335 0.15393836400881578 -0.3449962235700639 -0.1668752970243449 0.32401480635664626 -0.23729897660690114 0.2616456013009939 -0.3969024154969052 0.10006255158984534 -0.46713079045398764 0.46358957961350944 0.09112987221997593 -0.24346763672417304 -0.04883793504145684 0.1287251125049267 -0.4217294863063201 0.47239740223079907 0.3346226990198373 0.1809480367595746 0.4621972265385079 -0.27636323910287786 0.278110082764949 0.33027383112361197 -0.4808471777914999 0.43148201876990644 0.2724567507482024 0.34049887652071376 -0.35086393400074856 -0.45875222775237 -0.2399169171841884 -0.32517796366766627 -0.22980686104080028 -0.201059923030931 -0.10404892931077381 0.07323658527938048 0.1813217204007057 -0.49895139984542725 0.020828468337495853 -0.37730990265019515 -0.1091983874351603 -0.3990722366974937 -0.08643582771931313 -0.45386695021339996 0.12506619361993532 -0.0650555015401516 0.4975777071392353 -0.1885763234415666 -0.23850200080539374 0.17843854311735197 -0.4199329416623039 0.0613257968174461 -0.32406966656871317 0.014167019254620938 -0.3079594202259066 0.12474582380378707 -0.0836242371235848 0.02879443729765585 -0.1800605337342419 0.046720024285084816 0.4232714464829227 -0.09005312694722512 0.10414961922953703 -0.09077843010740816 0.19589224430382934 0.4956429004964813 -0.30742864701700334 -0.2201875262978592 -0.1783738259640656 -0.47540103213848506 -0.15247801899012225 -0.40598584835481366 0.4635726872406116 -0.1894949974685448 0.02341705687740514 -0.03465370667620804 -0.4661498841985434 0.19584582289456254 0.3762016917057882 0.3570201419966814 0.2901958074924199 -0.07644059331817021 -0.06711962877021838 0.31933876450895304 -0.3794353531857524 -0.3304000869899394 0.14640687412361286 0.3042482699614981 0.24617495606201867 0.2148005998186331 0.37798509712503725 -0.2940323371845841 0.4543865115749721 0.25758709336392205 0.24386428657657844 -0.3775307972815498 0.4284324324813754 0.23958207185576452 -0.07429907313302431 -0.4397042162226277 -0.4429234936273069 -0.4037749012378187 -0.4984552282302499 0.3467548871767613 0.4496574701232695 0.3410065567884376 0.42389314971450287 -0.1483957429869215 -0.40969024313734614 -0.4746631197867206 -0.23766271771715963 -0.12393869811663327 -0.30659165883013195 -0.08731387086562825 0.01710731095910656 -0.11877351943634995 0.24805632185157944 -0.14944152287628842 -0.27274062419346035 0.4349221304800136 0.29827164819703966 -0.06645385213449684 0.016726020588024193 -0.06019721463542427 0.04665574248876325 0.028638525312317697 -0.004619536143549041 0.31530961916583045 0.39487237761926364 0.495594582237773 -0.14418662689792228 -0.05126155225910334 0.21698270516777796 0.44577522607106224 -0.4887084410562177 -0.1718980759667894 -0.0011196860495449323 -0.026709323517540295 -0.010980371970613079 0.4610806651399426 -0.26732727360682074 0.32631768022656515 0.1368114669885323 0.33023009942122417 0.214706098813789 0.1319636513692395 0.43999178575245024 0.4691693548526765 -0.45368597105324504 0.003420372706302577 0.21760701066583454 0.408910469783228 -0.16045441050477116 0.2761105902025638 0.18607596835994722 -0.1114841670520974 0.465377137791114 0.2692055286012992 -0.1315217644419301 -0.4082814273728592 -0.04270692004105803 -0.37050852522941 -0.18499318140909615 -0.0979222399343822 0.047714948707194504 -0.18828751202545857 0.21894187123542996 0.3108169379424266 0.17710545924546528 -0.4852603648211422 0.0501761621246446 -0.27311227761062706 0.20757457746655839 0.4323601847201327 0.08222349643148885 0.21185292878607342 0.0715524501144007 -0.306232920425312 0.40785655187744174 0.27920020222926856 -0.03889186922019461 0.13444480380235857 0.298951642285165 -0.11613118866782168 -0.302887677140823 -0.11070195442196173 -0.1619829279508761 -0.13853239569811082 -0.19165027127487266 0.2988574635589031 0.04050680688432662 0.07053323574465875 0.255567193388231 -0.2800805138496557 0.32790633685541437 0.23011811368138835 0.3512603478615114 0.0583628663455934 -0.26829326872210324 -0.09997474683911367 0.1602508495167203 -0.45389398378536505 0.4813175098952792 0.09403640533074598 0.0631887438865959 -0.4556502697462812 0.18149151708030153 -0.3200283693957161 -0.34740317361994544 -0.4988042105518786 -0.4246714203278883 0.12760137360329704 -0.11150903464838224 -0.3019663162149676 -0.09374796021486187 -0.02514888248334346 0.02218963078079339 -0.21368172279795872 -0.2612052550520827 0.4727957998376602 -0.2686301201521313 0.3771651043015728 0.15904509061146754 0.3385822761516031 -0.24235637984765235 -0.3421149149175231 0.05715269881826179 0.2517036311752885 -0.015256844701363903 0.48860545806796973 0.2502904042311276 -0.34420484045598554 -0.1947287799625057 0.06610101498415 -0.11014844538614843 0.08894000673600388 0.3082957748281724 -0.24859363519045807 0.4730424147646666 -0.0814407593341635 -0.4444241618771271 -0.041034687027201144 -0.4412875991613525 0.29338834766097577 -0.03135416730741414 -0.21516791687481285 0.47602813103893316 0.39541257319592293 0.15972154802925254 0.18317648824699884 0.46286676193112175 0.26858410766084684 0.2251683091822787 -0.21561026504511438 -0.17536356613237214 -0.30781242043743573 0.21328250014471384 -0.20782190088649577 0.46063105678148897 0.30399442929986975 0.2053603377764911 0.29498636407214074 -0.27397040772057435 -0.2977932443985343 0.1971111382924533 0.08538166046337392 -0.3614878211558564 0.334898071109598 0.32478259140312404 0.43215678473576324 -0.18567745299683525 0.4656369963436965 -0.27906202998478824 -0.1786436578208067 -0.30557485978347265 0.29879511478221066 0.14151540937890472 0.2119228733151698 0.4937381717814284 -0.1943581150116841 0.05280961856481736 -0.16138316112564122 -0.33187384129365494 -0.3134502496745424 -0.37658033390175794 0.2993490963674945 -0.3682085076841207 0.027407701316700006 -0.4829254212219283 0.24037049085255158 0.36669241375581363 -0.23261443827981776 -0.057976654213443 0.3889316601928916 -0.15067461725857612 0.45007230777862006 0.029683602268607112 0.4666326696420311 -0.4514292651622013 -0.045771074641897225 -0.06786359319271051 0.1229610189997632 -0.2871672895275885 -0.440281289781675 -0.3425937052158635 0.15402352479418613 -0.13688880684935323 0.07467298370718001 0.41203207442023615 -0.3541110461821819 -0.2966826824572114 -0.0827492867873334 -0.2532868143385406 -0.4435957744355359 0.24503547371133994 0.14954285709089743 0.31442526370623214 -0.3416814871940941 0.39152011494171035 -0.25994433227587577 0.3284515790431751 -0.49879392571768966 0.16621055463268875 -0.034372321141018736 -0.39819721443764633 0.10085350950700855 -0.3205244546109205 -0.019078137862961753 -0.3684119362909457 0.20025851424817764 0.22208609989970773 0.30534854146214097 0.2514979945762238 0.02654551337587352 0.2431088602095941 -0.13924165228360808 0.1666916447007134 -0.2245288774806672 0.29148231851846873 -0.4923286438761654 0.07614018943865353 -0.43973274986290345 0.3199650194801087 -0.15965680209911548 0.14242051206224826 0.4500199922898007 -0.4833502281051991 -0.11522455576393154 0.4999551113332096 0.08220681887826697 0.04833764905688154 -0.10326557460570862 -0.46005810230696287 0.334515432908261 -0.3110047009108211 -0.4820985303254042 0.0063730819492596735 0.03404030145826753 -0.4705128392449812 0.1729313018555504 -0.2181877652150328 -0.19644141353349975 -0.34912167769536073 0.38676767030320847 -0.2464633299488933 0.37026797890613916 0.1889519377058868 0.4466869647839452 0.0004830370565067632 0.3911039367717233 -0.016434239969891684 -0.4748667865457502 0.36827577733365546 0.4174071678414224 0.4844972626296713 0.044772776406722836 -0.17886095850469663 0.03143816071255323 -0.30137585156455915 -0.46015277285868306 -0.05674032145320018 -0.41215780589823725 0.06888301501147476 -0.4819733424230891 -0.4456335473623244 0.16254796194962484 -0.1877467453958731 -0.4242377953448967 0.4107923294590057 -0.21923565317656635 -0.14443016673628606 -0.23501964993157232 0.3095749177805792 -0.10867458188764179 -0.05302770397090639 0.43525852660366826 -0.17349815828676285 -0.45481064840258023 0.010837609265183623 -0.004515816716109011 0.28361736248962766 0.35303266667262745 -0.14244310316620534 -0.46449846405034123 -0.22518213796740205 0.45639127573422367 -0.12309042570239126 -0.35075932433907464 -0.4156866255564178 -0.06680451351501648 0.38335806850283904 -0.3246691346275681 -0.46259669866912834 0.32186600808779753 0.40473345501304436 -0.45870550424085454 0.1407912737760234 -0.09143268871032639 0.31836545451000464 0.3767607369852719 -0.15949070382117925 -0.2860228248116501 0.28527444626907206 0.28183993779367256 -0.4280276208603552 -0.39256725148821214 0.015331871180265355 -0.26197552970555904 -0.3860552429944044 0.4857192590145136 0.3546726046753723 -0.11535427519965735 -0.2981051679859118 0.23773707903339625 -0.37124963048761417 0.49603162735505846 -0.37561459338377146 0.08135043990035817 -0.057455334974404804 -0.495553977382743 0.018903775747061702 0.2176020729615441 0.16995575508519734 -0.4678583077223204 0.31978274454068034 0.17729712576041912 -0.04356548644322311 -0.4723345905947154 0.301058563676631 0.3443775167931701 -0.29717590578306996 0.13003538552148342 0.03951866373696655 0.26828840658410336 0.0757326716543183 0.41439845854550283 -0.07952190327698816 -0.06394298105594776 0.2690693636179119 0.08708894096349729 -0.27065782989844667 0.4842958697399101 -0.22607142048105655 -0.4711719224902581 -0.33880350863206454 0.21501463049227576 -0.23058292272500935 -0.01854082191539319 0.0821574217139126 -0.2705836831088927 -0.40006712611395767 -0.19265118790943936 -0.4845662520449532 0.10416615824778919 0.3772440902042049 -0.3533202133660519 0.16340864637880714 0.14713634021928268 0.46067072353393923 -0.1984223029448795 -0.03857111087031895 0.08004540483467071 -0.027701754575575444 0.4581524428970306 0.2804334236524407 0.0823529053580131 -0.37588078048925055 0.2230694346695392 0.025542295279070037 -0.3210199493972663 -0.3681203795714587 0.3289343016542684 0.37758883260248843 0.2415007486025338 -0.4801418012931242 0.012308779435943773 