-0.47555733204461537 -0.355910135031389 0.04823525874287182 0.3390495684329622 0.3662538601554205 0.2286516574973413 0.3455677963399677 0.29727272765339674 -0.43676855199659026 0.3096709359565897 -0.20069379682973465 0.21051970008233412 -0.007169117294222814 -0.09707630544492574 0.12834824446101553 0.49940980711612887 -0.30169497809991175 0.42549630547542805 0.4859344868869413 0.14600488612185525 0.03956706387534381 -0.3331734174992511 0.38691172493399983 0.2348978591400025 -0.14318425023803527 -0.13753817024416526 -0.48074376404893426 0.3876702181706123 -0.2306558533016596 0.11258540783451354 0.4441284246159537 -0.0017660744307310683 0.18277277018245447 0.3941780763883038 -0.3596094392336641 0.23195682679352958 0.3706770576951433 0.48685537411738583 0.47211648648051957 0.36443586506130776 0.47351128042185864 0.256962435245208 -0.4776034592692151 0.4075214970912039 -0.11567964026730833 -0.4660604879205286 -0.3545366585836223 0.02120843503276773 0.15217959989272847 -0.08823784680365304 -0.27559079888160004 0.370680668065571 0.2175237838803753 0.3707451221964456 0.4633407020966943 0.24259043746341458 0.47327131079362417 0.1324810736382862 -0.35325310881877575 -0.16942794996938265 -0.22615324172612944 -0.2781423502630235 0.10732586099578575 -0.3515933925239819 -0.33846252825295 0.08110434188066211 0.18758717131152008 -0.1157470098443492 0.16948431516517487 -0.20575547181269246 -0.17460701584073715 0.3361582034577217 0.3690441279953727 0.23606052693172114 0.1562038194862437 -0.0031128778593965474 -0.2231343091205746 -0.3179461351475919 0.20089130752433057 0.41275520099085966 0.2675340902559902 -0.4843877765628342 0.45924709069076797 -0.4477947572087376 0.3479844281004135 0.23910887365513667 0.40274780343911154 0.3322256969324371 0.004576327850172556 0.373361123719569 -0.2701076663159192 -0.24584598138463118 -0.2577089331574728 -0.2908992197172164 0.38022080298399036 -0.22808351658054365 -0.32822622010389957 -0.1659072499816811 -0.5213149440979576 -0.5295750531425952 0.2783528716460053 -0.5740689871087497 -0.48208811598664403 0.24204707223747146 -0.23059692646873434 -0.018375064763070718 -0.4589110704806917 -0.37962545850094276 0.3551541520184987 -0.29448248873668675 -0.4366222754934046 0.38119140841547994 -0.4542564101823894 0.4775102847507295 0.12748340752925374 -0.3715538478824639 0.20326945660324094 0.15116197278343843 0.09203956199157899 -0.07410430415798473 0.3545762215984932 0.20673070751091338 -0.5477525808154428 0.23914999483792948 -0.4621965892775113 0.025967798944020085 -0.056596871640323385 -0.6386743499525172 -0.5310103075492566 -0.35751052411361733 0.02682944206782213 -0.47055693221522765 -0.4744907866090017 -0.5832494578553994 0.11218450596716573 -0.07220114869787418 0.0036153538735816983 0.019247267762801747 -0.040013378092950413 0.21369538082192208 0.2529364253994738 0.13312805593253785 -0.1970415015183232 0.11367793292554725 0.06700703745647255 -0.3137990705945142 -0.09139216931997114 -0.14266140788707654 -0.18956846096066107 -0.23383805227270343 -0.11745347460772454 0.20456985526450747 -0.463195461495091 -0.4993696709898937 -0.21447954573667263 -0.6412771720852163 -0.8493461795558268 -0.8442022437267791 -0.386285608754372 -0.06885627559377815 0.07293126534803507 -0.1268954469544896 -0.0038733134333926154 0.21259636853302277 -0.3219083889421484 -0.19081087486568674 0.29414753194483534 -0.47087623840160703 -0.09888976298862573 -0.4586591348379258 0.06528849599995372 0.45100507701859716 -0.11612454570629847 0.14550327746173317 0.4192973053676879 0.047235633182712795 0.6488404920710295 0.073169936553553 0.21576120500227666 -0.1898377110540612 0.42027700372097954 -0.7995163936898689 -0.6327033332182026 -0.08808581566264992 -0.2275690011935064 0.12798432521623804 0.07551593714352232 -0.4979207261603347 0.019404263617534147 -0.47787427509955643 -0.3568047871916072 -0.15535456723484659 -0.17680761882265478 -0.2276242012622845 0.14986868707004342 0.19690950307628147 -0.005820952334095491 -0.2916991645964709 -0.03139096112067915 0.04344535871626163 0.14961932251153032 0.31236145735736776 0.4359721371797743 0.032445152124483026 0.4575514979077972 0.47302062609329926 -0.2037416243529786 -0.40307696821941214 0.07002347850591308 -0.010848654503709497 -0.18267673937655285 -0.02047641906821816 -0.17000851123453592 -0.004818384109734588 0.04012191844507335 -0.1852305561860244 -0.11275691414752645 -0.28917132384473615 0.1139448995200596 0.1487666939082616 -0.4356465433965649 -0.5377792120988366 0.23986419760178684 -0.2007903247791515 -0.16044987047754972 -0.29227997702776015 0.14061614049650442 -0.1569414988314456 -0.073550781009029 0.049046156290395854 0.6492741817891553 0.053636552551963236 0.6165792545923003 0.46292220517873944 0.32387686770700014 0.5832566785349049 0.29990833863403454 -0.16618636557536906 -0.21003389225735206 -0.15282699241176426 -0.4910021678868592 0.17956527809265327 -0.4871307799089121 -0.1779044034088915 0.23964411452356146 0.07943678747714333 0.04861784593389631 0.16080816507568435 -0.28905304901635137 0.2736412500003059 -0.28173468119168205 -0.17534830314222616 0.08698853884621661 -0.22852903280210562 -0.1289785257042168 0.17239432288045758 -0.07252728997553733 0.2569741792808234 0.06065008321214593 0.41513982421202156 -0.024734429782570688 -0.032699197710854964 0.029531291281608345 0.2690876731978274 0.2860368577338669 -0.07733935919805872 0.4857157091013829 -0.2554908914414216 -0.30186604215027923 -0.1714211475167812 -0.24884501146282928 -0.2583386353671633 -0.25820936313713266 0.2888329438312813 0.0342470602954836 0.3093785803084264 0.06113769575528019 -0.27113499790203693 -0.26534197955297617 -0.30242536442481205 -0.0032206302427414558 -0.10744137934510815 -0.3394825670701221 0.07701182056785158 0.16065004005060302 0.7425315969706237 -0.050815533866127686 0.21674471170950194 0.3025772514679742 0.3968956223876406 0.048180675972213025 0.253612642736728 -0.1642553473015388 0.9198527305466354 0.15520028805982805 -0.06002727115288967 -0.33999431233785293 -0.2494644472266329 0.17292515787204468 0.07952868219340525 -0.005729918788210229 0.5923121918171901 -0.05619773813939298 0.022406411246830307 0.1806832689765086 0.12979521856883253 0.4272571295996884 0.22579360869642676 0.486372895445174 0.03300041574656919 0.10033839218276758 0.1285791177302554 0.5636855403403974 0.5554960004250495 -0.20074812697464853 0.19376434354613004 0.05663168736119126 0.42748910344175195 0.2948042411673916 -0.10139145172343854 0.39008119537150654 -0.08574151122972408 -0.542991626144182 0.13352652606099613 -0.8169375762110813 0.14387518004348593 0.09290303134042718 -0.22662483321908736 0.3029412449379322 -0.1752882553988274 0.3148012439948433 -0.09759331595422606 -0.12702874959436763 -0.013912449046525766 -0.002479976083495683 -0.21567859028254524 0.3198360467379303 -0.04371119934001545 0.005081021765328112 0.5350737957138954 0.46770146891757863 0.22476662435931533 -0.5531529498184189 0.40366958413402454 0.12551369158669926 -0.30449753977239924 0.25385650666419607 0.2992023135905665 -0.3428250281670591 -1.3469011410445164 -0.5318757805118547 -0.4117200914194389 0.5230073979272813 0.1083593812786031 0.1311285662153113 -0.23128201030247295 0.5637710256148368 -0.2230152150490451 -0.22535487370683782 -0.07865528161898935 0.11172316127466433 -0.5141555130042915 -0.2903582286341989 0.3580803361163225 0.38433684301697857 -0.24606612541148493 0.4825822926646657 -0.18208360665614348 -0.22202225545722318 0.13749092187393153 0.046170729937605216 -0.1878190849823245 -0.3866258550000521 0.26594332580888547 0.029874629157342406 0.3384601135224338 -0.2476526215467091 -1.0576352000623157 -0.5681337109291851 0.23737294044772295 -0.12351012676957936 -0.33338978390112345 0.026179823686295706 -0.2712437905925383 -0.08036249434881731 -0.016939713534944223 0.5120908632121607 0.07571036474617114 0.3525692869024534 0.4616618532053952 0.27454971814218326 -0.3513752216251269 -0.23138615755201594 0.016022690065571516 0.35155784060306755 0.178983176297494 -0.16178004217500794 -0.141978147261042 0.09605033472667035 -0.4821046668712948 0.19799121833616723 0.28511812568687067 0.19898037025217094 0.04890814350451466 -0.5619645083025866 -0.9798104616510613 -0.30804137343402344 0.5071792166224349 0.3346661082723652 0.06071467161584556 0.48975853167814687 0.4288358845135556 0.5139648546876673 0.014741958276988217 0.4235811423327489 -0.11458769614340396 -0.1424663009620927 -0.23918283661253584 0.47472625454170786 -0.03142176942938432 -0.29596174101986883 -0.16955006126056021 -0.19520110761968706 0.006039839369957163 -0.09134147093422255 -0.5859260816608248 -0.4642205942192288 0.11107679535187277 -0.28986609226855586 -0.22629167178784765 0.5066779850742106 -0.468164609612513 -0.8013446305414195 -0.6417077787540786 0.002199632700726006 0.19957550281952863 -0.3197898750770519 0.046117149926327254 0.5095971679242739 0.7234941985465825 0.8918435659829845 0.3057280951772429 0.7267022885974415 0.5702565011675002 0.40716752631026726 -0.1102883560822439 -0.13240206129535717 -0.11502869852158769 0.2931056755539492 -0.2921715772917711 -0.47063972826049527 -0.030600492684588778 -0.46622880492535124 0.027142407891637917 -0.15754417764517528 0.6843528152360155 0.5445480234165682 -0.019316732481079922 0.3167513254178082 -1.0470922052185534 -0.9331138050503357 -0.49179785992084946 0.4659084286817056 0.6345372149655291 -0.022200866463553195 0.5655473937923494 0.373053744303778 0.11751505806055197 0.04451563491152142 0.10838812767819299 -0.20581496470902133 -0.21847555709798455 0.04999878376898448 0.1547595279701186 0.4821665790990503 -0.10744780230115172 0.0003238223344845803 0.3519630642297828 0.3296596350620956 -0.3045497323459944 -0.1299818844098399 -0.4741306441662755 -0.17692446133793024 -0.1153068110120631 0.2399369867182 -0.09848329012009907 -0.22742886997532522 -0.8313469925468073 -0.6018354692152623 -0.4859041654416546 0.6345539452506159 0.2431141698261781 0.5514895468979039 0.2819337893740642 0.5745416092568169 0.5800876345131689 0.2152699308904683 0.46461580600052366 0.3571991082011793 0.0021627927762481003 0.40515077276212386 -0.3368009745420149 0.26650130392898214 -0.25975019136777033 0.1412982177396418 -0.4277485875837114 -0.04319041665136016 -0.023065015988858704 -0.32365585898630145 -0.08185437594370903 -0.4906029376030586 0.010143843875357038 -0.37277048032360716 -0.487541729271374 -1.2686763912874506 -0.6750253289868144 -0.21333226375296893 -0.25457040379394735 0.5772072451708243 0.19367837292551002 -0.04730643319894339 0.2582264713954856 0.43186045333292583 0.340458003944938 -0.22552034294885762 0.4440809775421431 -0.27009008502870013 0.16563832977509874 0.441893844986833 0.3936267085120907 -0.23106356535364772 0.19070181524919338 0.212746417911562 0.1856108031911235 -0.39124406198029843 0.14515665584495233 0.1492780801082106 0.1904949636239288 -0.30370265620776654 -0.3979494575446487 -0.5900318738083792 -0.38328719554288315 -0.34852310025229144 -0.7678946127683423 -0.23545758302673261 -0.04995389467184276 -0.12620447992168748 0.4535420841849523 0.3326857044026083 0.14726453632197495 -0.888582222670609 0.2641346449767675 -0.4298642198067496 -0.5207247813820195 0.14005256169629587 0.18264387166893467 0.26151762404078843 -0.3625166308229957 -0.21709760188923255 -0.1433844465730743 0.3216879065708995 -0.0792354186799123 0.022242046347242153 0.14644103110721077 -0.033323670791371204 0.10120640377021851 -0.3161551667703892 -0.19327898174678818 -0.2567734016495706 -0.8699040619681264 -0.8062231904034459 -0.11775197695618865 -0.39584020696072114 -0.017827912987783006 0.24609222594253158 0.3176046185277761 -0.12166139543252372 -0.3622198545191327 -0.7603872404893754 -0.3428901972522238 -0.145067887263948 -0.741655406767356 -0.23834669542631792 -0.5548090446582259 0.4784530667398378 0.008327905330382317 -0.32311046585103526 0.15737773788083445 -0.0921944035754123 0.1491901518223689 0.17070956712768579 -0.13046066768336795 -0.13569190497615852 -0.47821879604188383 -0.30960944521783196 -0.798543476274099 -0.8447644983717044 -0.1480959801305468 0.22420787703372833 -0.4998549359153767 -0.15413682848873453 0.04796314575684497 -0.31160323854663347 -0.027108140800606795 -0.2135095921340263 0.016618169309147404 -0.15019889124964989 -0.2380452687476008 -0.7311758585897166 -0.92023498754263 0.02925156724521727 -0.7039519364930231 0.13315002228532394 0.43946541036586045 -0.24767715417481279 0.07367133128498227 -0.1614655242694807 0.20674074107617593 -0.008034412388247945 -0.4893004346025154 0.09679133690940712 -0.13055986811289325 -0.0010406618938672675 -0.41757839026509125 0.08881061930000715 -0.33430239776799137 0.12950968914705274 0.002771234309835897 0.034966992920209716 -0.37821079762860643 -0.13964529677581586 0.09836095652462701 0.09886697712712715 0.04087279511269694 -0.5564039092077542 -0.07356408611328123 0.05406873953329883 -0.8220057793668807 -0.2678466815496934 0.027513857052866457 0.2414277760488865 0.3585552794376244 0.19108460051870002 -0.28020641905644605 -0.21723761101752337 -0.03163419960614289 -0.18816796636715005 -0.4693999533192056 -0.1275473316272537 0.28532074420699494 -0.027562922886968433 -0.412476983185362 -0.4138918100061158 -0.040442879552090825 -0.3416855702455229 -0.12305489933404308 -0.7309656436410619 -0.22617581932850744 0.41361681617110546 -0.21751413486977653 -0.34034248839120496 -0.09205974143536058 -0.14733488907480646 -0.36386524983242596 -0.5759187160523902 0.22631657741408762 0.0745835847818449 0.07161229797754366 0.4411083012263929 -0.08195989192566536 0.4581472203805093 0.24644752026770722 -0.3402304971683612 0.06173680803475168 -0.48128989281936757 0.09710318725494328 0.2652678850243034 0.09654162101217018 0.15753865394637387 -0.25190221530618057 0.5276714015271018 0.2081515252185291 -0.15683858560590636 0.25245868049651793 -0.16847352519493686 -0.16907634112604372 -0.26088059170669287 -0.2355143733421771 -0.015346509832910547 -0.07285944221079853 -0.34472508890003034 0.2103327634998996 -0.5730087771616655 -0.1365764955691983 -0.5290739602253359 -0.5880816073919538 -0.3210159158108941 -0.16140437744048824 -0.17494802590405706 -0.4113870581396776 -0.42761090779246935 -0.08139942682157786 -0.2160183466232346 0.24416941654605184 -0.2958390681436146 0.35810359539174813 -0.26325596823603725 -0.3424542588751767 -0.3098740631610388 0.16563161260941373 -0.22701192646013996 0.1224052458037042 0.32280660333527833 -0.573600978360639 -0.009116681211194456 0.488203926685263 0.35581575665282394 0.1208348667563198 0.06881393340429522 -0.18339706309126447 -0.08972627155846569 0.24500937416980864 0.01892457347063454 -0.4872407792019179 -0.08282044365397169 0.10805957593111556 -0.09957311314753015 0.43459262793841136 0.14916566370337125 0.1841432024250349 -0.0594423089594851 0.2396503208297301 -0.09604812048301381 -0.23294097706369735 -0.25729738368632515 -0.13461245150628998 0.38999969398389583 0.019035342694802535 -0.09672811774342698 -0.35933189817533323 0.06928034991048695 -0.4439937862939816 0.34821018450368935 -0.29213343222069177 -0.2315568474933586 0.48872700138154335 0.07546378632602299 0.6117818902318554 -0.37800798391849244 0.2894261642750499 0.07945626734472222 0.19152202864280735 0.20277894825251783 0.10355691044995945 0.13806201119653916 0.3896978550957849 0.16637036181620568 0.30241877823369434 0.2192794733479 -0.4007419876511449 0.4466712590487827 0.2293705995021752 -0.496552270080693 0.17812396652549473 0.31124870652798353 -0.19251844275389546 0.4498144057134533 -0.43355378159564706 0.24225173987168702 -0.3843132630816709 -0.3093979627788372 -0.00042873796798612626 0.042469267155330274 -0.028464767798312536 0.43110105992123054 -0.052152018633814884 0.3555697919534645 -0.15205718046628544 -0.005633927498599102 0.11457978132802568 0.30699768942669137 0.19780871011215306 0.17768958394445322 0.12327312371299359 -0.6528533047215404 -0.3418275146192218 -0.2507919137502873 0.28697554860055763 -0.24199457899585386 -0.03617697939239872 -0.024176279865010475 0.0981503854119824 -0.16205927900161132 0.05428465365128954 -0.25858515481925226 0.11328754680418851 -0.2861216356486439 0.4050086215173612 0.2384619137438852 0.04690342387556454 -0.36093754132724676 0.27568627495588593 0.17311189339431354 -0.08459581786199843 -0.2795114656167409 0.20196826049318606 0.4293655093854859 -0.27724433691376416 -0.25297410148040333 -0.20484216045034176 -0.36764713815273187 0.20957526737800114 0.16885611116635657 0.4743082904491076 0.32635855561168703 0.2985918884820792 0.24666050518232518 -0.3407620555038694 -0.1675485022488261 -0.4272390210821199 0.3560596587947887 0.33815070150787274 0.034607175542264404 -0.45327167206856134 -0.24817299790594147 0.23422876672391774 -0.5183277229689078 0.3754471777588587 -0.19791684896705977 -0.43198581125862645 -0.1622814192250359 -0.07363066306130259 -0.28814708840472797 0.3024828200177661 -0.09881201588065883 0.38816713584940815 -0.16647443983251756 -0.39267678923763794 0.2754650185371613 0.0018316893010867918 0.038525818647039856 -0.17701186878597386 -0.4556467008959403 -0.41183077526277406 -0.44281545225289254 -0.4497171493790226 -0.2659351849148636 0.09878246749320316 -0.49783781892268486 -0.5149708296563601 -0.24325099168970968 0.4020369595937111 0.08099954399671574 -0.43045558470018846 -0.09423461703436106 -0.2194136350916674 0.2294662611424567 -0.14674965944526014 0.4349441451467098 -0.3121261006443543 -0.41064828240282547 -0.01645401317532193 0.4857432946660204 -0.35245563606986613 0.44390542710143105 -0.4190881392110345 -0.44997571451532753 4.282557571022583e-05 -0.17651407881527503 0.45221538128680105 -0.47644029702291246 -0.4236458792160453 -0.13141957805516508 -0.36764484518928214 0.3372214294547548 0.06154875126862115 0.23343328225619456 0.06941047614486677 -0.5008750898171278 -0.04467450112045563 0.14993591925412342 0.3210612541192386 0.17491355023018698 -0.4496642199302227 -0.3304566742658608 -0.002028801090644835 -0.17150330101966862 0.3437835760447287 0.10298889994147514 0.3199975134981593 0.3105606544924907 0.1292411582978344 0.4288644158925507 0.15150905572615314 0.25539457732824544 -0.42365721777356136 0.11764171933819922 0.15026419473178643 0.1742556239892283 0.4097866090870685 -0.2859894891199497 -0.28383763973333564 -0.28872400337822945 0.316155599386502 -0.22481514114381837 0.09231932951169208 0.20594026754020134 -0.007739064079640898 -0.029829789482774663 -0.047271180586507054 0.3218537418933371 0.14991087209253973 -0.035757005966582725 -0.10885607705633667 -0.34759738336859536 0.43316656321670916 0.3306144042238811 0.47493635519969873 0.4401482878791749 -0.036044366261702425 -0.49953652061940484 0.3477300723408757 -0.44236048959824564 0.48217923601601753 -0.39120091051686584 0.22679213440482882 -0.08016965912078589 0.4953856576586075 0.0280189765258601 -0.20295521880753534 0.23137801531617566 -0.23996512053564584 0.030408963154072148 -0.11298676306361133 0.49512453315378396 0.35590917590716326 0.4839249312368523 0.44861447685150574 -0.46240540687300014 -0.06063829855669088 -0.41581881808454385 0.11619694625892817 -0.05739810584174572 -0.09342736182639731 -0.001048112763877635 0.24399457130013635 0.34741101796474183 0.40585283819777873 0.4790582814174013 0.41428902795634326 -0.13329542835040495 0.29643860670616556 0.022838531264526164 -0.36615718451327817 -0.34810558166700634 0.27085089987022415 0.060572345179549965 0.3143161057848992 -0.3902088319327999 -0.027622162905691618 0.3409703332272875 -0.35012387098798137 0.5125699059575476 -0.24551737757315864 0.1665698684206946 -0.42836283050086005 -0.09549820139690304 -0.554682181983925 -0.11219526786258896 0.1442617066696403 0.39558233390415853 0.4861855584558306 0.8184964423879306 0.3225900460486778 0.35649102845922426 0.5642547853880215 0.3284364358525995 0.23485193029370047 -0.07589827860006149 -0.391651734393734 0.04225244548808293 -0.09750098594880335 -0.08359297319772152 -0.43398743993128014 -0.008594424937129018 -0.3046013176860056 0.07252571923978474 -0.21317413523850404 0.30607409761029913 -0.0618678203713269 -0.01766765589104028 0.10911101707756471 -0.015675849976198593 0.01607952390552197 0.43874763448972937 0.18131137971107975 0.8018256688006621 0.43067009366888676 0.37614443861076186 1.0695431049870259 0.9853757815429317 0.8993643231124022 0.25918167759384775 -0.024053080827248687 0.3091240456470525 -0.5401221918505941 0.0212036872742225 0.47433834228857386 -0.3515760862691546 0.19990069406002953 0.26332811080100005 0.13289257016629485 -0.11849136556370853 0.047982360626636814 0.16487025262510116 0.045705620218564634 -0.15169184757979814 -0.2629109927094203 -0.3655424236283029 0.2731184956125232 0.2863787324354553 0.0022127362787362566 0.40042723205701763 0.5565525776014932 0.6672259903512636 0.8146913337512586 0.3127489675192241 0.4840683892837361 -0.025586673259594902 -0.2270850103229534 0.5018650153174574 0.37880204143443025 0.22253389394557033 -0.4094796647044141 0.07667195259790827 0.02339936255205513 0.3717829082148477 -0.30626601670828185 0.340490557625105 0.48010893150458744 0.4898180727561448 0.3966514706961194 0.3071423035712958 -0.05851208189759804 -0.5516129800821833 -0.5029615046461982 -0.239184296969028 0.003159648097559638 0.27496748881806327 0.010752209342032224 0.13178974704718438 -0.40809454777379534 -0.5736638789794514 -0.141344494246238 -0.28247733179964235 -0.4875486894894082 -0.14534413456217712 0.3480027809348896 -0.43051223975224295 0.11956160394989578 -0.04053664644418118 0.018484467538771525 0.07154345136925559 0.21405090291723014 0.2623707963072787 0.2622193848141855 -0.1540914405228969 -0.018193049534750066 0.007125033155121072 -0.0356514255438069 0.3311418960370205 -0.2631462390217978 0.2129460280612704 -0.19184316530322626 0.09216491193727908 -0.44903128601709497 -0.11226419137528129 0.20410180245168222 0.06710208684925574 -0.23717209379950277 -0.5638848414549158 -0.8691486492722694 -0.8025001997272962 -0.7435812618056009 -0.21994570307401182 -0.15095935001915198 -0.48725817711038355 -0.11050457225624477 -0.49600300448415835 0.020024625771261743 -0.20253121257216442 0.06512777783084538 -0.2866802552984869 0.08059968891887888 -0.029925721858717867 -0.4889208373049265 -0.27937796044430846 -0.6079469964099247 0.1644581668911069 0.5594866194324222 -0.2015175438805457 0.32731273105161685 0.34903911482834665 -0.16392098871376315 0.33472938928204077 0.41220602137149676 -0.5097613837862565 -0.26039324668631764 -0.2553769868167549 -0.4310804991681647 -0.36962738823450736 -0.4120242553952304 -0.7264761124459933 -0.254908489751309 0.13048728370792864 -0.3070079313595151 -0.4052812289284325 0.033275689888851774 0.20494512618230998 -0.5198146732514135 0.15915713536790843 -0.45993527727709665 0.15970061421549608 0.37555487684349925 -0.10473939127909379 0.21146849701664341 -0.23880721036407615 0.3081223920811982 -0.25485078225196245 0.035689456462271514 -0.24823518496477953 0.27940402556281235 0.5341939362518112 0.07675976756120396 -0.039645869818425127 -0.5399323960796287 -0.04646231524177284 -0.007225786415557734 -0.23632171417872747 -0.4326133913218535 -0.6767332954400465 -0.3154790677480389 -0.38375346871216764 -0.3994832223555273 -0.15524123545860188 0.21348437104873352 0.36949555404362516 -0.1833255297636721 0.22326538725940315 0.24930684101144032 -0.10681794927831638 -0.36810218558215974 -0.42898610206055 -0.27769359691075834 0.4426120130017355 0.046771655664746455 0.06768712928499672 0.305385129768616 -0.1706582892012389 -0.11797340441682065 -0.07924310039856013 0.5847197920393522 0.4629100224140607 -0.03508421577976586 0.3035413390849995 0.07543788783584052 0.46233592059477857 0.3261639444759654 -0.42465751311579747 -0.42025320064769206 -0.030200086935969588 -0.4847122847627288 -0.2950893103612246 0.33816088026755364 -0.2405941976707148 0.3328882722150204 -0.11964182104906013 -0.17207409746208033 0.09285859964137362 -0.11845153914274774 0.21516962742630202 -0.038892700082464184 -0.37781709084152915 -0.47512908837833023 0.20490089000976586 0.2773127582853676 -0.24234338803103747 0.5353506181987756 0.37906777753222193 0.5118452579478814 0.16671749851254913 -0.0032674354798541455 0.1422408905432894 0.1338253529563501 0.540232646528087 0.44328153889282795 -0.034713855968780884 -0.29130227638358136 -0.48104930441313326 -0.352061328641106 -0.477483299354049 -0.07789040401161426 -0.1735974557112962 0.029937083591544043 -0.49303346706763224 0.21954861066401196 0.19343274402243463 -0.00929414103162389 0.3865673533541103 -0.3154232173883012 0.4154377369001366 -0.19186853146700075 -0.1882745633929204 0.31591933811501244 -0.13495646542514092 0.19904803865373136 0.07062929229398843 0.21583975791476653 0.5930525296037631 0.5404019517685413 0.42689276971071854 0.821980731190242 0.7223242747163908 0.5540943089660044 -0.06081358833162945 -0.1114224630314137 -0.15085954713442284 -0.2187141717242178 0.20755475779412624 -0.4046024960752017 0.4281105793625431 0.051771433777235934 0.1470245338517258 -0.10584577691886726 0.061188250757144916 -0.3327029931598237 -0.12887155257159413 -0.40161582175868565 -0.1316728486706894 -0.39542553875786185 0.5793220379992949 0.6776177694803223 -0.007478618456278675 0.24435848237943547 0.5660447454451232 0.0696376134418691 0.01903304580038769 -0.039094683686726195 0.19572735252008372 0.2838252694675347 0.34478689017250547 -0.4294126571428083 -0.05619699568691867 -0.4571014071913712 -0.24089376351150227 0.3762992633110915 -0.5074276772852302 -0.3896423001637586 0.03843674784427431 0.481930508310059 -0.16572360675623463 -0.47001611231386264 -0.4202103002979258 -0.2715624947575799 0.38647552595836276 0.29591581845543385 -0.2551477919176548 0.06373683750516312 -0.1919589829426137 -0.2490988440158512 0.15682849152039663 0.3400389109225311 0.11554837498287228 0.6252107472361621 0.1605757989979212 -0.2527862423229828 0.19753142218211747 0.048738717376246014 0.3248961789107057 -0.033600979893115626 0.5172713671631213 -0.21354584503109852 0.38543932179818957 0.142797873445005 -0.21481411472142792 -0.03847029362472916 0.15399447386001014 0.2412764685926565 0.3940858864941596 0.07445273264321656 0.00421443621909581 -0.03973328794021061 -0.33117375632005974 0.44997880417256525 -0.595053179284588 0.3482208081904201 -0.36569588641588235 0.026280141818041104 0.08855340190297105 0.019827913011023542 -0.08122726033602254 0.08670208287918185 -0.6022799641608613 -0.12444936704073228 -0.5507395465247743 -0.010234632188538347 0.14923391621761536 0.03545242178477036 -0.12369917208544402 0.15605826683942522 0.28899988384640135 0.1978077593484005 -0.4860418566354895 0.13780160226926053 0.010064790276574379 0.16557837237170486 0.10747879379632243 0.35933563079134184 0.26371061321787104 -0.4706820961881146 0.12216174832302551 0.23429117958881981 0.36385345976114825 0.2921312737414093 -0.24939735324829318 0.4479792895099939 -0.4836737605557619 0.17388719060215543 -0.6259521412022939 -0.12020410326464392 -0.3857942212076866 0.0037873308010832074 0.27472370773652555 0.2598943799493343 -0.15714225516588795 0.31515285050536646 -0.30776789216728784 0.5026367615040418 -0.09842626713178503 -0.2912980792030175 -0.3035756218326908 -0.2820694644763494 0.2914739585354999 -0.14352035552429027 -0.45228694009024495 -0.2763034554035465 0.1948410781587764 -0.49953741115394024 -0.018712290453959318 0.3233718883262664 0.3437113833629413 -0.483962214699727 -0.08826428166829302 -0.20299618892695392 -0.29849753276837826 0.24066799145666323 -0.15838945667815435 -0.15499757941323516 -0.3076661142745418 -0.3039871583574299 0.5945259743914711 -0.42831088452172406 0.055318560685959424 -0.31739412305535686 0.40086286113304076 0.07416054537198807 -0.18842842621754016 -0.3766759167681775 -0.40278125517116037 -0.2927810627936415 0.30650177953627245 -0.014957695041676794 0.19571085678730146 -0.404735728858215 0.4733659062229793 -0.3053056161614435 0.38537409320485033 0.383201784484161 -0.02850990702349454 -0.29178371800907366 0.5213092099212622 0.3435126544495915 0.41063113737884344 -0.08134888525096082 -0.307263276869117 0.23581582696017564 0.19695590459533108 -0.2847311797301039 -0.5396960233235987 0.23360746151612 0.4004218740910561 -0.13752798555056175 -0.09133359140379275 -0.14893298561059054 0.05310504067886713 -0.11058518046455061 0.36907327184048627 0.2946048143357736 -0.4573875945592848 -0.08607999075560376 0.1902615912056868 0.08878999240309296 -0.41632032763247845 -0.17425885797298965 -0.32259260131191697 -0.026761203842192355 -0.26440203883342545 0.16236149557779112 0.3945362845696097 -0.07718843813087839 -0.3931945191653774 0.31680744723985066 0.5504541143142818 -0.18196254093674896 0.084871762552164 0.261385886635088 0.13078465967824118 -0.2931037183754676 0.23312311491390736 0.08963785813066416 0.6392049196399253 0.002790867919722973 0.008183508726022816 -0.1521091464758365 0.38882904978773786 -0.23457351404297846 -0.33076341080770977 -0.362547412251983 -0.18645577912205274 0.48961624146882654 0.23756991376107905 0.159054618984244 0.3732391381456751 0.014140309800972514 0.34195192124222745 0.4198652304675651 -0.2178757647459896 0.05245906890449028 -0.16338230790477598 0.08561030334238638 0.42943915591841614 -0.24939713103826092 0.09430525274158152 -0.016697690166453276 0.3052713784816083 -0.269164364132272 0.20697006014710315 -0.03702142651199739 0.2944843356288886 0.12480342542613597 0.2800684094418112 0.5329574782737363 0.42863452512557265 0.28659691050797603 0.30872781896510754 -0.4021392340355839 -0.18513849105244384 -0.36810424226502114 0.10333506773158474 -0.3578038416234897 0.09982172730484658 0.2880775240294964 -0.2886994326777482 0.2025633952463857 -0.02009068810329731 0.27094492734435216 0.26823112587748943 -0.5519172884520895 -0.46034317659752383 0.13783876254253044 0.05923552756803182 -0.34498410105743066 0.41019306311702475 -0.00108657927531654 0.0959489116509339 -0.3635377589030582 0.30230217793359615 -0.16687728870406343 0.5532408329100017 -0.2264213636326874 0.5416155115345175 -0.23369604852932135 0.0661520376254507 -0.05760455694475287 0.1020792405831854 -0.1008238007337986 0.40452382466385817 -0.06730012319854425 -0.49620049248198134 -0.39186515974947667 -0.06338037077578335 -0.28232491895168266 -0.042277928890760506 0.14405181063651262 0.17564564408591524 -0.3310172816004566 0.055693462465876 -0.35331107702603887 -0.2763278507003606 -0.3859189067695346 -0.3340495904708884 -0.35605566270658906 0.49931610078400446 0.27428811716394025 -0.01386259567628028 0.08515729106026429 -0.42265737452180535 0.345577812768974 -0.3192857414448163 0.4094110385664081 0.2618437274369842 -0.1039881645089874 0.0673161627182901 0.07276708318808323 0.4026226071041029 0.058085352031639115 -0.351323817305256 0.20568798928364102 0.21470859636410228 0.3096038469816485 0.011632683429744663 -0.3027618860300169 -0.4594125146421052 0.082737032503148 0.36431098736156825 0.24259178846379745 0.23669674897659965 0.4053021281726357 -0.09144536688547626 -0.40282391507178184 0.1595987423364484 0.18616734966659193 -0.19121279733050736 0.1337864640557608 0.4780470951302259 -0.4074088904804744 -0.182890312846721 -0.055226907851900764 0.37361229766279386 0.12495433214878304 -0.23301896958644208 -0.3089084534730524 0.07160937334276207 0.3378140818507518 -0.1850217703979692 0.2519922030322443 -0.22698534221176386 0.19112126727388123 -0.29170652433417027 0.05792904783189042 -0.35099826929490796 -0.0843419461660381 -0.3412661039125902 -0.4209606145426012 -0.3754789992877705 -0.4342860042913726 -0.14759708933811533 -0.38880460406417944 -0.009591740228773935 0.4984311400368408 0.34884721095996657 0.37735364249299297 -0.35169654597786043 -0.3432494249364866 0.2033862345745043 -0.31749444441176145 -0.2394477042745633 -0.07230524175812592 -0.21848845875058387 0.3147053836580744 0.051124178290547606 0.26987482378499406 -0.4612588891157672 0.08791568301804298 0.4094614825369657 -0.4815082645837141 -0.1660153936212284 0.23773466350086847 -0.4169354418390291 -0.34206103469892646 -0.012629408992932412 0.31956494929635404 -0.17310455443479253 0.4802462153904521 0.4303482402591496 0.44394614122163606 0.09275270205589248 -0.26221863941430823 -0.12298481719938537 0.4045513651162359 -0.4893093997414918 0.38462107380322663 0.08388705294350218 0.02953493314681066 0.26915451592815065 0.4273793582541743 0.3856309426892748 -0.02010330394995552 0.17093447317661692 -0.41655450950349737 0.24003714033042267 -0.4438988864248138 0.29278253105206353 -0.31307436436509856 0.10210812114478157 0.41470312352929134 -0.4336060354190913 0.3212695896476922 -0.21758945125437554 -0.4111154409345918 0.08100985788234848 0.254871151935873 -0.22093728018346556 0.40267467269196056 -0.28509054706785725 -0.1997254661530071 -0.054520197435961155 0.30363966148277494 -0.3726381407149442 -0.2627631830374221 0.48868945319336565 -0.313174508950948 0.42421785126172973 0.34620547315788275 -0.1409268845204641 0.42876894709795066 -0.41190181788082403 -0.4740001904728498 0.34822114015502303 0.22251645080937574 -0.13099986513784947 0.41888448243501947 -0.1592141970061217 0.45234351373997406 0.4846065196578727 -0.0789946774762359 0.018312894312218105 -0.40828861265703503 -0.25913615601481665 0.46273279196030986 0.14741134382183285 -0.12215397302011831 -0.4943687705495252 0.026671620552570992 -0.19708241564896412 -0.022356565880451762 -0.4079284689103036 0.07291534213316209 0.27204948558643244 -0.45671698374426584 0.03194526875301759 0.03726740577368031 0.3870112124870365 0.4156724698508548 0.28993018652787705 -0.17920008729456582 0.21908693432924597 0.19856056860210902 -0.045322689095080304 0.3613692957496285 0.48786189989033274 0.26550122865729964 0.17171210628905556 0.308499887356936 0.010529562770410195 0.08044152347551863 -0.29866456061296603 -0.1602902152231346 0.4454134015535511 -0.18630839178604602 0.31884983939774897 0.4900557208209397 -0.13329138711641084 0.23093614273770693 0.44418143316657743 0.13603058925253927 -0.4501951857792303 0.331249945199865 0.3099365713207565 0.2735285495217682 0.010567855084769965 0.2785893494390723 -0.08056494969530603 0.05545692000585861 0.105842544302413 -0.038634401350170114 -0.4513544252435919 -0.2973332705533678 -0.09062210298590066 -0.1803624260302914 -0.2663788551134459 0.22923617922922096 -0.5551111211994516 -0.5433106721334986 -0.2232254634892093 -0.5050515207687291 -0.46731963382204417 -0.4266169300183016 0.05252633533931701 -0.09771259084010521 0.054628293137584376 -0.051713774977155215 0.2110097020028831 -0.3212898012708999 -0.5407315026361971 0.020576529782009797 -0.07502990307246835 0.09901929426776683 0.13760834659942134 0.21720342644400423 -0.4254122482491446 -0.3212062255799113 0.3035303451718812 0.024839164017947727 -0.3210123374186779 0.14137957008372562 -0.500863306207221 -0.22544056872402093 -0.11308485338857237 -0.19106237027341774 0.21833861012714484 -0.0190553069436303 0.06600582807778349 -0.4698230485834255 -0.10391895445066039 0.12050565744943514 0.017250721307374508 0.45046310455298444 0.2651885427579812 0.41494152129018375 -0.13701730026503195 -0.3298198320969725 -0.3302560364756714 -0.07538055386457357 -0.07513430582987485 0.21694869668067923 0.3397287238126274 0.42571704961244583 -0.031180276652011618 0.15340729209451062 -0.39032945646999195 0.0943676892339102 -0.1710653594463035 -0.0959080800273068 0.17317163142507253 -0.13069522970444178 -0.571271767759737 0.12662631785475043 -0.23874697290594515 -0.1535531088717356 0.12837975484667347 0.05507676273995918 0.4760255976624905 0.12098406523292206 0.1654234353848003 0.04482420404790328 -0.39385026681048324 0.10136114554805636 0.12510444044441354 0.23581529292423084 -0.01262601238045246 0.4621454199105591 0.30978566964422916 -0.01903688124616404 0.21765216175218555 -0.09456783587069642 -0.3604272833485669 0.24891982692391262 0.46248341568183443 0.02036796069129437 0.41699265616233067 0.02756983312894044 0.5970850447456244 -0.30503207756055595 -0.08718331384476707 0.1551827462784127 0.2559314224892306 0.19245086496751693 -0.4966623206660007 0.2698781234556157 0.0441444881481745 0.5375129734329754 0.31209566394058197 0.2702827305182872 0.22582953867680922 0.08834559605925718 -0.21366142761257442 -0.562200746257205 -0.10737823580044498 -0.06525688107287174 -0.34996815567975115 0.3108082812288444 -0.11197042926851401 -0.15054799117200435 -0.12876158057573656 0.33188448992722697 0.25574464089540944 0.3606309015948457 0.09431748959300774 -0.2259660281077259 0.48204093658835956 0.34061819496670076 -0.1154954098434052 -0.4646745440171606 0.08350865214374678 -0.09425985509468102 0.13533428272974074 -0.39751489483016966 0.1481363469955587 -0.10931809054042442 0.30585401838646686 0.15524423963977457 0.20310445641415645 -0.07890090411468847 0.2138289264597241 0.0975690220862877 -0.07533234468974243 -0.08668663992230233 0.12056367114641818 0.3134545639190302 0.07879702578459208 -0.3479678285765637 0.28100059612091277 0.39361914901062606 -0.37431706343377036 0.4226296492339487 0.20775979824124438 0.4413461253092955 0.28336569141032236 0.2372181749638057 -0.011513871339994463 0.5592626878078333 0.39777456759322494 -0.35009624062739153 -0.0570074615867027 -0.35856919061684833 -0.017171810411201117 -0.4211689334082022 -0.18160319060509447 0.2813721527365902 0.07834578860721202 -0.2958139940089376 0.4241218203678664 0.08566894310357594 0.008760497999945284 0.3147904450751586 0.4453885107702732 0.12372902685146857 0.33854371170046516 0.416668763619564 -0.3620842303895633 0.3414418786476832 0.4471785308229556 -0.24509666660351745 -0.10351118201753909 0.39019846418316007 0.13847701880958516 0.765638885909875 0.37160239915262555 0.17195975539698294 0.691895711932257 0.3692795841805191 0.3072632440472236 -0.38425403383094386 0.057665576929957996 -0.2765256630374673 0.1567807461200412 0.49958418994469894 0.7753681141147044 0.40759454436613707 0.0377363952733348 0.3702811608073682 0.2621579143562173 -0.18875691866176986 0.8233053611460098 0.1849922583061223 -0.3609298509200347 0.3164765638046864 0.3070325377461787 -0.025283873343257508 0.3867666481679125 0.2873249283892828 0.5554550203431559 0.4939831583854954 0.6844549664980848 -0.07203711406731687 0.2830452646918218 -0.09951690770986249 -0.4430734306792941 0.21108167135174793 -0.6415548368984758 0.11077119276026534 0.24606543681076135 -0.9711744714785012 -0.37328729706107233 0.21155404706322625 0.8758938461886777 0.25196018190062947 -0.23603940339241494 -0.19812486902403267 0.3670013066485696 0.7657332390981195 -0.022829104198485915 -0.1718081079712375 -0.38802427490116026 -0.23992717067070685 0.341704812468767 -0.15874779855921714 -0.26148463293380747 0.13034982990389601 0.5239003730819543 0.6497550192459033 -0.027785903415936584 0.3297106829563556 -0.189521168356531 0.34437402409999995 -0.17558006747338292 -0.14083826280570208 -0.14866883167493192 0.41667573609358405 0.29394695527825615 -0.7207994905728187 -0.4532354768065274 -0.1914646111095189 0.6650534711160616 -0.1869524959686494 0.6038307831845452 -0.10766859393938343 0.4175990883388098 0.03636963923175251 -0.1692974612532968 0.4547006469384787 0.16927074937282197 0.4118980456761747 -0.3847492304675824 -0.30928182140429045 0.2711048634627342 -0.23980471158316158 0.05447781046165075 0.5815070321153677 -0.09993626572007021 -0.351396872110309 -0.31061223101331004 0.3812687449479676 -0.48935862982569167 -0.2795956053375228 0.3174825355348712 -0.3265011043866001 -0.009652776028854136 -0.8595665757715332 0.13972542883954714 -0.16092554632507566 -0.2054351967125109 -0.4040976774853555 -0.1233892246629199 0.06058037518809272 -0.2319694249171372 0.629793353082524 0.2667319913901076 0.4904835670382964 0.5815554430784429 -0.2897260114839108 -0.16974368067990403 -0.09537228100740566 -0.0737846143383419 -0.17521587579872971 -0.16952957144606165 0.5323231204001585 0.05186534258629389 0.395444643522048 -0.15595409900482246 0.05655971687791244 -0.014059100152810235 0.4226427470870651 -0.16356444229319156 0.0038114535879813843 -0.4303842117865776 -0.6726459070194609 -0.48380286711991405 -0.4419366511846969 0.34341061871280343 -0.05607402679715323 -0.33664526112130355 0.30683919741003135 0.35272600246218094 -0.05320221032151791 0.5451357517937083 -0.20179343532522148 -0.15616929330022827 0.09905203457926243 -0.12870087522848767 0.2932401278559136 0.40496460196009326 -0.1969203546478922 -0.05366632541069781 -0.03834822302523256 0.1506001704949447 0.2910917777053332 0.354241497085727 -0.44048761129100034 -0.07590357069653962 -0.015923948232455437 0.4998454945939392 0.18437959112709337 0.026056295761398708 -0.4222382073704953 -0.5955363057982617 -0.39235194350636315 0.49453570954153436 0.3715335681648418 -0.1161112027598514 0.46713474603854127 0.36813266688673935 -0.17936481049623632 -0.08807649538421597 0.5110328610179258 -0.42718877568191876 0.2982552639103648 0.18038915967610047 0.45919770880711425 -0.022114478535231828 0.4799848970627604 0.04729260857703152 0.6401885766434792 -0.036390622509550385 0.3456830626926985 -0.19988043446542914 -0.42594841403385986 -0.00973169890894046 -0.24345125995644318 0.05917801143816767 -0.35904001241122974 -0.6374371091180986 -0.8117510243357038 -0.6272696800643638 0.5140361911375053 -0.31989034139569766 0.5734641789091156 -0.10080685508920291 0.18161352027611555 0.7324207686574556 0.10404159442020638 0.7319787237076707 0.6087102024908083 0.3025432200598729 0.3839518802622275 0.009293860883104021 0.18562028532000693 -0.29206323583369764 0.4031259233508899 0.4520849467716277 0.18172177084832689 0.698931056177886 0.693046215099339 0.4534215082087074 -0.18457098788326062 0.2900874016978099 -0.2780442079322847 0.292305671660204 -0.23865431941196805 -0.4342758710402849 -0.7461879825098526 -0.05547401313839627 0.38247268968337655 0.3539781425651209 0.7642973229800482 0.09047091641584826 0.07331476931417764 -0.2464823785860798 -0.0858645757059 -0.16173888237994472 0.20694663081093725 -0.3487384642394858 -0.2573400724068488 -0.4688319641050757 -0.08094468545881135 0.23226370011809602 0.2605256072396913 0.3004369344101916 0.356935028090353 0.3353948168625943 0.37444722666173846 0.579196558779814 0.8504481238997336 -0.06216953047632572 -0.10696395711394406 -0.07421696651897526 -0.2292088133212374 -0.2091936604083117 -0.5597861646579104 0.1883398394988176 0.8102711465709954 0.3162041550629775 0.753479140004449 0.5282811398137565 0.31678609917964085 0.6281732935597024 0.5472409795840764 0.5747899047169489 0.2742631790742467 0.12060775550491527 -0.3575985097618786 -0.15194520250244484 0.24511805709343368 0.24139529686267888 -0.08431666995361854 0.18334967597770305 0.489771797357575 0.6910983225593836 0.6744258538804865 0.35282260772610147 0.6610097516649827 0.11846561925522266 -0.5509860794486541 -0.031472022238725736 -0.8317674513563617 -0.4090441601476495 -0.5607406632291834 0.4977925526789023 0.506407629671962 0.12894848301214745 0.847432933772616 0.8139205616328549 0.43296281965991407 0.10757624667742269 0.10499992583080937 -0.3510649378951671 0.07594726360750541 0.030987065659646464 0.2320898877583428 -0.15632671577193602 0.009510499785481713 0.03726954339289762 -0.21360344562721797 0.3180500349580248 0.17154973291808584 0.3876633962933029 0.5305824510911847 -0.015700383830956295 -0.08951847573559273 -0.05973655529269515 0.43740869852617853 0.11698965112024702 -0.06230159871541124 0.17039303367634878 0.6604154284172119 0.5991749474708656 -0.1326126620878088 0.22637802678251065 -0.1317122416133166 -0.0872797151784951 0.15680847234604753 0.31969925256576925 0.2986310714251734 0.3873638484508134 0.22067040131305063 -0.48151336667124045 -0.45265419803342355 0.20167863219098148 0.23983827236444047 0.4244999104921777 0.4566404834821911 0.11636151850769051 0.4818189850400846 0.2770145200002968 0.15643253377898905 -0.3718075675991679 -0.0393043665319202 -0.015941580620310192 -0.02714717157032389 -0.07967361605866169 -0.2042858916276929 0.1351547975577849 0.16437041910065697 0.1867700872080507 0.12053978026557438 -0.2535672098369802 0.6804690852257437 0.0165303381015471 -0.044760169081221546 0.07317554722488583 -0.0603793951996961 0.138302965124208 -0.21775233201112504 0.26007427438272335 0.21740973043906853 0.24796471253932845 0.0971184314555203 -0.44422552747418226 -0.2520292593660002 -0.3858617442451041 -0.4237396875583841 -0.06345796526968787 -0.7296135407964283 -0.020214738144051555 -0.00733245974613522 0.06989965702474372 -0.2128511685769555 0.1447372797625795 0.4110315445485586 0.6613423050518474 0.19493497420516773 -0.18516249422606507 -0.15448755636669154 -0.3250979891886892 0.14580815189905882 0.2832412458274248 -0.13467740439088918 -0.48630771067839423 0.44151485644068006 0.08584157956686463 0.1847372750759223 -0.43582454431797046 0.18955402671519359 0.01773325803747572 -0.3983522844386965 0.16103203250173703 0.5009534066795454 0.22597376734431907 -0.19563269480998158 0.017891382536285184 -0.22256672184437834 -0.32011598110637973 -0.06640268251348218 -0.15280466225235056 0.260903376380746 0.31039754218645355 0.2580258363877782 0.2233094638040754 0.36286557568445693 0.641120443514423 0.340443689883403 0.19033344516790043 0.018692763993530433 0.4907977731652429 0.12780093913331164 -0.3822615672491227 0.12425200141569348 -0.3874890062514262 -0.4356605243200121 0.1475075451184282 0.16374390988460308 -0.02497854670974664 -0.032765268490899 0.13477380647933312 0.0720383193149134 -0.35257527625203317 -0.1311386016771533 -0.15561472477818683 0.1575907728741776 -0.1760933622038505 0.09445371965535967 0.22567198402360417 0.13246904637289245 0.6861914758891055 0.5043251326813537 0.45064007399900413 0.60982010798308 0.16439363665179635 -0.2831326848837593 0.2616621473286596 0.14790228068215236 -0.15364722781607107 0.08770630802178447 0.27275001201410926 -0.08048437853821877 -0.3706241558214557 -0.028085384156477787 0.21586521007408835 0.4322947485063837 -0.32470828939483654 0.2598283255775157 -0.30916830215001057 0.2968753647368587 0.13607521530806738 -0.14204118601131563 -0.47255594785446936 -0.3652783462181628 -0.36114010806399405 -0.2641223720835302 0.04327430830408537 -0.2333097717309803 -0.08549256234040742 -0.08467567205294939 0.3973240419706405 0.6401815957792256 -0.08384181619933757 0.5408067567365897 -0.30489943166947936 -0.008095175006412724 -0.3349870618458919 0.27936049259877177 0.27379285379750484 0.1645515071645717 0.3655652212062338 -0.41892119795028837 -0.3602705710963097 0.472963582190121 -0.02451392982273215 -0.3241510835207061 0.12631430625733253 0.1520203756008193 -0.1384189765000596 -0.36133405433827465 -0.0909071501446548 -0.43415028646883835 0.008348459542992778 0.07531174771442509 -0.4864436853186715 -0.42597522679640165 0.36240934401222585 -0.2614766215395276 -0.22913123275266037 0.37988085522422405 0.20418974308697888 0.008352122323771537 0.10213719170157216 -0.34132737621147197 -0.4930115846909239 0.08330846493834937 0.426214011609677 -0.02810863211667963 0.24685644466357873 0.42085924115192547 -0.3654184391377122 0.47989797971849224 0.4668962285397851 -0.46214297679901295 0.35833931018739384 -0.08425532034106886 0.22395287143416961 -0.48089361486906124 -0.12914939620069493 -0.3845976914623507 0.08157674787411189 0.36500921649855633 -0.27883130029778364 0.09386289132995661 -0.3795848058022499 -0.15317998734557 0.014487022801350136 -0.19601260483177058 0.2880543000364704 -0.36054867133325197 0.3630811054881539 0.2438943570924417 0.06600218813040482 0.23405240998643578 -0.4684728010514227 0.03440223056947737 -0.4836797812293364 0.2692874631232106 0.1484486537069839 0.031994316559140756 0.18182138465197883 -0.12666083916986692 -0.443871369275622 0.47856994878783055 -0.2760490200301352 0.2388552731889122 0.3151395908667791 -0.49096182767434593 0.4752005210772784 -0.3920306767947609 -0.4261483430565035 0.4683516517788777 -0.44190677143316615 0.46913902551560266 0.1310356532043523 0.025142745304739422 -0.3061310450277044 -0.2897426729265685 0.10327490518770388 0.32998099964609773 -0.36317559897011154 0.2017326883084759 0.2924670448892587 -0.44318803726639033 -0.19879976280345335 0.4889819335838742 -0.08694137244294209 -0.43467398893655906 -0.4616710801813536 0.07810034077777606 0.03835893425536874 -0.21693727216588532 0.32508812159356193 -0.4631536933196955 -0.10960991249773802 0.2561308467719421 -0.17177281105946893 -0.46111042949515296 -0.04825602320304837 -0.06397418221189906 -0.4198675154618972 0.13398925501436032 -0.424195898830645 -0.32159116386812453 -0.13754720054208283 -0.24514946670740562 0.09922289018888418 -0.2937709470648951 0.11426305632159371 0.20483778734300553 0.3266215584761012 -0.2511623456487014 0.42958727230014204 -0.37713188873974623 0.40018250192017424 -0.04429745489106185 0.40274289046563627 0.26448496543221134 -0.32866965908377155 -0.2454362732756556 -0.32656188138751047 0.055236572956368524 -0.1010274629320529 0.15542518049988532 -0.04250846849710311 -0.3599573727914084 -0.07950041331633989 0.42098821595034375 -0.12002555504693498 0.2547742526903764 -0.5553332353351372 -0.06632020813884927 0.520911984262176 0.02156749106622458 0.41010808525180886 -0.18236560416793027 -0.18564630978453864 -0.015626151473606138 0.37707783969952097 -0.2911574217484125 0.27085958521329107 -0.10794334461670141 -0.30543946449827775 0.29093928315494777 0.22237577103473605 -0.04069855668480682 -0.496581031273425 0.3645479029048617 0.11546799017288599 0.3127635850168173 0.06608893151421355 0.13823406918946826 -0.4589439009789467 0.3035626431497603 0.035502299819179906 0.016737981722290792 0.215526961192636 -0.007780185147951088 -0.5381586589742337 0.41962657245022844 0.042868702813017426 -0.46832025115900044 -0.12449250426364368 0.056932851047600326 0.3440244405347434 0.08418904438592646 -0.200753154839084 0.033987661376224526 -0.1333722298388478 -0.4087893184646028 0.14357122173142484 0.11455662768285925 -0.11710875125286757 -0.23009372552332763 0.2135441608311559 -0.4349335577346639 -0.28773970463038734 -0.12800728347823373 -0.08404480411494482 -0.2109533392177897 -0.1668235227805191 -0.3760091133609088 -0.35306810302515773 -0.1185403482194241 0.49197901632140256 0.2975412451450212 0.03775533244823281 -0.37374939990786005 0.27925127815302364 -0.26279336223380806 -0.3841896215433855 -0.10471831597194917 -0.2635778546789714 -0.5107486361758383 -0.07243604481931341 0.5268875336223027 -0.042560228124905494 0.004312174015451141 0.33200927135270497 0.09896141594780264 0.010281858869600145 0.4306938496540057 0.11247408279784266 -0.39186337343370714 -0.18983968031561094 0.47440524334753087 0.355842460194597 -0.17537318415160746 0.1646747475933931 0.4513035066489089 -0.0016092129226837155 0.05540443336359869 0.1365587666038008 0.6927582535946692 0.12773894483851692 -0.1026341161161028 -0.27269161933099073 -0.3624137681633045 -0.2677200487915246 -0.036788014529307154 0.41436031963685027 0.4698536698636647 0.18367129821213096 0.10500201074485864 -0.28127364507547686 0.15251440090931803 0.5047998806656021 0.4099594768592433 0.21014865755659898 -0.3256523772454576 -0.2841826716954191 0.13482897381271064 -0.07094615745972582 0.368405752196352 -0.17469093175387557 0.21824566013314486 0.013697524671590026 -0.08455258378783478 0.1211956978656857 0.31221310018202697 0.745399410820541 0.52442411248407 0.5464613608840001 0.07892897086506909 -0.4219840391908276 0.07280736963179926 0.11168534078743977 -0.1738189050747947 0.003284138667283546 0.400929588041652 0.17126493721309272 -0.043900575276996236 0.6822915054276228 0.42572668791823276 0.3403517240605319 0.08982416100309029 -0.028536467009731475 0.1335880506128731 0.22462781985528352 0.043739071837918926 0.3642601895371056 0.5390294240563498 -0.09455751379957408 -0.2619900591558912 0.4519078061451079 0.2531909090713635 0.6603058326352377 0.9065936238385919 0.10878906125847825 0.005532959925062471 0.44328906665707185 -0.31184479161933815 -0.01638890255316629 0.3358325180186855 -0.2705458970515109 0.24239715248062302 0.11507979137915417 0.15389693014370795 0.5347626597446988 -0.18502241321076013 -0.06798789713958785 -0.14294458155871592 0.021328114020554255 -0.359861035506868 -0.44670647901298977 0.42372626939938335 0.05130447992450426 -0.40600434080602726 0.3230291919361482 0.0852386373110868 -0.21489508310265587 0.6226005538265548 0.31549993003231375 0.13749835834524804 0.7250961962780357 0.1409739821913775 0.4067895973577853 0.29957104030249326 -0.3319721130326383 0.3254585622581554 -0.011819906323675914 0.08029767171329999 0.0008639947031602732 0.22619612752190554 0.08872729600931191 0.04704784612594377 0.5233389320894268 0.6237221157206866 0.8183179355319417 0.08199466475631402 -0.10684007097497307 0.5443128944639383 -0.2730499816194578 -0.23683694725734822 0.15344895336855427 -0.28090892483723756 0.09587283312649345 -0.36640833237234455 -0.05014925832809591 0.1783247233811312 0.6010532697241308 0.16114975906227602 0.3662073110572681 0.39484010283667004 0.7391924776895021 -0.00010168029574181936 0.22250004644365887 -0.7146196771869207 0.21802902931739146 0.04516798236959782 -0.1693277215417421 0.06327321941073254 -0.12137553111816818 0.31472069569153605 0.19356097854805204 0.6882906993685406 0.7095646368813465 0.2602921855489373 0.1790320444319762 0.45887087241949914 -0.16830594130076584 -0.4412228540442688 0.2716624265188129 0.3031922565120398 0.40340345919676773 -0.08429817256465595 0.3944287063542337 -0.008247238908710245 0.6216789024081477 0.18801126998800444 0.512280357250443 0.009952015507457604 0.14689540736289375 -0.31952552382929233 -0.33082381253702764 -0.3164609261747714 0.6584939426452141 0.2666259419841 0.14006014064073347 0.1712048282600523 -0.3655406742027671 0.2622500970546328 0.05625735714628826 0.27026315181043 0.845442102903046 0.7994521112000575 0.3262816340993803 0.12991320722267707 0.36889724121500694 -0.12187586572272859 0.1203095758534327 -0.34489582594724827 0.22141794864026978 -0.09486341711395295 0.07808570717273544 0.026384158584266914 0.20855228485385252 -0.008595746195938897 -0.01036443490156487 -0.1347376740246185 0.2798256601635697 0.07089337385214466 0.31316416757671917 0.20711986752899988 0.8692252990479398 0.5956988758360752 0.19013206333486232 -0.08357485023415563 0.38430133839084474 -0.06230603307955684 0.015997415196299828 0.471885917204072 0.9303310694987497 0.7221947844308604 0.6038476125819031 0.1649152249113995 -0.2805783081491064 -0.24372974268320605 0.39792714769600557 0.3436019611758942 0.43931055736331015 0.17985477337977082 -0.15817480959683872 0.2999313473494328 0.37530877846805333 0.2110957627153433 -0.029076240783584 0.8086315391898582 -0.22853004115450332 -0.46518838394688844 0.11914664038453454 0.3528126619674269 0.7779897851711737 0.28135556928877187 0.608374210222067 0.027468264616354942 -0.1270788337146982 -0.35398803509111143 0.17617239606901708 -0.31351017095212536 0.6644914362120274 -0.15362757584696374 0.3948651399839098 -0.11021059377347985 -0.3785755509480478 -0.022681645097637676 -0.18778792042859413 -0.00631440045431851 -0.0588013490257572 0.3237305285599582 -0.17254498964306225 -0.07127886227225479 0.3605769740202215 -0.6208737133315778 0.14001488696825332 0.34494876741557584 0.007787380985250143 -0.7204293641457408 0.1691794906243437 0.4329041155417276 0.569477504551216 0.08628646542190611 -0.20029856131192741 0.15012411681348978 0.020960171655498985 0.4127951704667845 -0.31747374110964194 -0.4423750473804451 -0.2902765756162849 0.1958424911162606 -0.3323131154505932 0.33990494112621567 -0.28455040189406344 -0.13060223215680758 0.4226526470801331 -0.1837018006826882 0.4134994570236873 0.09679538737354916 0.2568165856858266 -0.03314545455961411 -0.07683606438188585 -0.4940319104682811 -0.12239248063947922 -0.49183359050077735 -0.6544084912236657 -0.09482615649839442 -0.17489012078442412 0.04571476704733817 0.05782208529672566 -0.17159122306157673 0.5552809924738454 0.11931480746282296 -0.539298773607531 -0.3699588474574836 0.3929258794592965 -0.4199366218452333 0.24631038588622678 0.37926029035578646 -0.1767939916970376 -0.07694032034157511 0.2786112297554432 -0.47101415225327026 -0.36671398725171844 -0.31050357398261424 0.09592588906446795 -0.013184564284065626 -0.18909325673336894 0.2807002806011713 0.13846858710943888 -0.4114672066733347 -0.38025242089827416 -1.0200088197624446 -0.5323127209908012 -0.18519751767013856 0.28385933401588476 0.36402012727445837 0.04076477107797367 -0.11221937595926544 -0.34281710144860394 -0.2899432616933996 0.1487982837959145 -0.11432235847322883 -0.12121722333013567 0.13839103033232242 -0.1967253142990873 -0.35558477599873056 0.038012988546523414 -0.5066929701488947 -0.10275935397939648 0.0313830719204688 0.2537916140599587 0.4085019265639854 0.021267980589110853 0.019803194486446886 -0.12440144710417174 0.3196393819703002 -0.06806784386890187 -0.024106462824645358 -0.7267311831617214 -0.09488683849492302 -1.0089611391520812 -0.7540214757769993 0.446685418328406 0.11683745469402734 0.0818408088711295 -0.43527086192710757 -0.7132293715067685 -0.11929318997549788 -0.3297752283389206 -0.16425446557181123 -0.12284384032697288 -0.07084476169896428 0.08473093988414827 -0.05937580854497748 -0.5748860778262452 0.23714859056164253 -0.4935054176016685 -0.11934047555114113 0.33994243359009857 -0.37905185383160556 0.38249055737050885 0.22473326339199495 0.10693523377735106 -0.11560023030222966 -0.3902942236458383 -0.5077429145435415 -0.6720391175104737 0.11573831804957416 0.06645782160194781 -0.26502958439573243 0.26085060001125054 -0.34572762550769137 -0.4207281155003647 -0.519894571053053 -0.440464225334377 -0.6226269608391068 0.34313386260496104 -0.040234980125290414 -0.04872337290102776 -0.39958700969349076 -0.055811841249672 -0.3337148885345082 -0.7724819551740209 0.09903192838931987 -0.12801265809425583 -0.01105262876422159 -0.15830657333784898 0.06325690100251953 -0.22907419743753063 -0.4421554120562887 0.5352581951840961 0.32608881033633813 0.08286943045478397 -0.5398581468858191 -0.5203964618434056 -0.17915828926211594 0.34966194402148093 0.13188215071324588 -0.1770161254003685 -0.40075488062108694 -0.3054616968905509 -0.6346508714134853 -0.5559743778550562 -0.15034484470308035 0.2792776638605781 -0.6002155937258914 -0.8714828118764478 -0.7307723943049148 -0.25734795585787273 -0.2997234427143207 -0.5546973932284669 0.3692444351229213 0.029028103766710174 0.08530744243633397 0.012441579370543528 0.44065845138638227 0.0740798902475518 -0.6111777633216615 -0.009087767730583758 0.3565224600202463 0.10381733073810424 0.16423675759158615 -0.2943395652526199 0.08458593926003417 -0.024564776608380117 0.027969646032284277 0.06635304788745927 -0.12093024013364857 -0.5385093166573168 -0.3843662972494266 -0.13011213200579105 0.04221110222293385 0.012963904239912963 -0.0960262424383477 -0.4731734037041433 -0.1661872533691086 -0.6996566666602758 -0.03516238838591534 0.1451933456539652 0.08185761414275454 -0.4283018612032687 0.2410252739548563 0.2736958566407241 0.2935099886360206 0.1321957238842852 -0.29566512751039215 -0.2630639067385551 -0.006644211902486717 0.023294051134234176 0.24915586870590398 0.04805461659317209 0.2921401976791666 -0.4376716465815624 0.4555377027234804 0.7175473960303326 0.758580316400665 0.4151076642397579 0.06783428022713626 -0.27280899292552935 -0.39948535892990883 -0.3492651802464149 0.11159482139433217 -0.14815723322048477 0.4107784079266157 0.03435323580105554 -0.5529652655145553 -0.059227628079287865 -0.5471682095381143 -0.4810348785271595 0.470661033859376 0.11356868306765253 -0.018709654519113467 0.11522468056520185 -0.395981474171977 -0.4604134037125448 -0.03855149162493903 -0.23545740474326834 0.051679522065682014 -0.058195215320044624 -0.01371039741782741 0.5002286207545689 0.07136364800877051 0.6728914654298107 0.29361665808908405 0.21315047825268163 0.6933907864271096 -0.11550862318771797 0.4948825596123998 -0.2311453613387263 0.42089980938371435 -0.4573674472500115 -0.6824371406679844 -0.04190034993503497 -0.24073590131694989 -0.5059821305280312 -0.1847072955151037 0.03408446518330079 0.2566139054277606 -0.14598569771117229 0.453883711648991 -0.30110212657823493 0.22543691093767435 0.2694778648540922 0.4706245685677996 0.06648331986020622 0.03455949506271228 0.10613895024058584 -0.0755929056129322 0.23170608878667828 -0.013300346316592115 0.3889248179950034 0.6361606971060967 0.3563782756901484 0.35755240288709433 0.20885828637899995 0.1538145792003138 0.3977340977389618 -0.41067956355909857 0.07590922699751841 0.1513332317888451 -0.41185300793440494 0.09890851381964354 -0.31144558638077896 -0.20097075565057318 -0.46761617743873807 0.4357185847967153 -0.00879395601968902 0.42193469685281837 -0.12849952777414253 0.2508024310065381 0.2756945985255959 0.2291429086597444 -0.13826765327325935 0.12454617483428257 -0.3412353613576722 0.6207584022317783 -0.07910318017021291 0.5530553378668583 0.46345269810453904 0.31322917211586637 -0.01269279896249015 0.590879563344772 0.521418095814652 0.5032082787229761 0.2546450716374586 -0.286469971507005 0.29003390764238796 -0.4133219774839094 -0.1252736841544002 0.40794403789943273 0.35426313863417835 0.09654962694563837 0.14812673094056283 0.206086818510418 -0.06971394025558286 0.38985991257742597 -0.04175864539893452 -0.17906836908644752 0.19000000878059545 0.18507043952584729 0.46091185196094947 0.6263450176631021 -0.20960769531014847 0.8507528472670083 0.8606712679933133 0.31438768487816 1.0173979113282605 0.6883092970557609 0.6974493882432289 0.11126559532816468 0.5974011921492581 0.32470112559285985 -0.21345270870543084 -0.12187590756696487 -0.10160100636976037 0.17086464050923011 -0.13283814783202086 0.5025039334520202 -0.49974101309694663 -0.0909326032961427 -0.30581990536409 0.47405097115578654 -0.39578408518741226 -0.29360622546425813 0.048841692600551066 0.01528012086009494 -0.1690480373305888 0.0030205635421809785 0.46953030775035764 0.09693656772955567 0.5845040125041512 0.15182448895452313 -0.15094550489674893 -0.061030858344343505 0.36512321846261403 0.6122099757338952 0.44292908834166206 0.06563740206298088 0.5154992215129051 -0.0135667906288689 0.31374116883576947 0.3644354397519664 -0.3418233828986746 0.45147101725488603 0.06474608022928112 0.17124444781838924 -0.45310293390949447 0.4825711394624101 0.11217259691944625 0.387236024082933 -0.4499752128949457 0.4916106405186228 0.4368402612233818 0.288865728108397 0.2789672337445226 -0.3519504811573027 0.10240998269558906 0.12046795894773481 0.3422539510513022 0.22240066805800376 -0.319193255211593 0.49437553654961186 0.14653611757275503 0.49617260197035196 0.15601698628450084 0.40338693529923675 0.4651705852028763 -0.19143215993543272 -0.05188189973267106 -0.03437089878725474 0.23328938689056192 0.30558279607429517 0.14247062831576282 -0.1433754205638604 0.2669358450622435 0.12184103565731863 -0.1733560109610548 0.46914699075184285 -0.25831993486117766 0.4029422631879451 -0.4576943827271823 -0.27548881158048616 0.05862535264494806 -0.46277666498398273 -0.48040197336040324 0.16472698317302673 -0.053609751650276746 0.44605360881728995 0.37394921231326106 0.13789483087759985 -0.11085194508383925 -0.17604286674189207 0.18443599569775124 0.30706962764086443 0.21048767488408385 -0.06408742125381504 0.34625459641816314 0.30693473989386455 0.49981388466977367 -0.2775765303070869 0.30684456539648397 0.045078510758295054 -0.45539518500868925 -0.11701769645013171 0.3516649106004125 0.3623973022798088 -0.05460145599459587 -0.08165442668354483 -0.46036049209053054 -0.46430321353954096 0.034367439341023154 -0.4409714610108385 -0.29136514752687304 0.12274463416769466 0.1086038222398178 -0.045582284879813084 0.0762488706959712 -0.2879725412134885 -0.37882746020527974 -0.31694837111726215 -0.4285276120790699 0.17507274528969793 0.294022259680073 0.23962553943991194 0.16408496305345455 0.42965214830038934 -0.3072093872730912 -0.017866565956532243 -0.06553000421584554 0.04508533187731523 0.3761688494973423 -0.27257267071574454 0.0759823225439048 -0.42262301535123137 0.3302178994687279 -0.08120358692854912 0.42695228427097853 -0.2980130245959577 -0.3816235447363241 -0.18549088071636383 -0.186091812393766 -0.13033389315253083 -0.42501504622868747 0.1063767676149589 -0.42997206631686363 -0.18894033595461943 -0.3840433200527854 0.161923013735455 -0.0539085948040276 0.2763618998223403 -0.005968433274528939 -0.4220086603471318 -0.058374832274153875 0.45151219972106305 0.15435741584418852 -0.4287485625376128 -0.16732107333252294 0.060409055818748045 -0.28739214559964743 -0.3643304358512941 -0.1520804835199615 -0.23193820640749574 0.4506403114715881 0.1635233759675927 -0.18938184005647782 -0.19304231001220645 -0.18258343612636188 -0.21966828025547294 0.179609773054596 -0.08063382107534563 -0.13386180818655047 -0.2337315034645765 0.12997976485991503 -0.18955776453974063 -0.1544420735854402 -0.33222476393077516 0.37761048809146036 -0.17771574669819035 -0.05895066949624622 0.40926749999683687 -0.3581658483949838 0.222504493108087 -0.19225166604384253 0.2757038670667959 -0.044591242350069026 -0.45246842594411274 0.20892260818139746 0.484892979659083 0.32188605219167044 0.19947627566174675 -0.48170037083600226 -0.2721641840483958 -0.3724287533253978 0.08607593215830313 0.05423829094613323 -0.1144737128730394 0.32354482023076686 0.12380437067870705 -0.3154053000121732 0.0018633826475716996 -0.49540574837350715 0.09511838256704562 0.2575191391885097 0.5288012111850914 0.16113227872357347 0.4025036058381996 -0.02791571505430259 -0.10206988447144669 0.38285222907012195 -0.06646430196584197 0.6563481009605702 0.46567500134410245 -0.2477422473925816 -0.07318881382350849 0.4417153382620567 -0.3593087377555844 0.33563452098306007 0.16250167737737298 -0.3627343960821531 -0.2552233232207152 0.4818754337612242 0.4336731811312553 0.30757335198027586 -0.03366528660608787 -0.39272350903208725 0.1994336670989599 -0.05160709380392929 -0.01435887023361231 0.385440725396834 -0.11359318660051185 0.15205840028086445 -0.041105611309722644 0.15376451398012955 -0.5159342780532575 -0.4671240680169546 -0.25118711521521153 -0.37808687990490925 -0.2984172824718629 0.043593026238657635 0.46655440737615655 0.446961637661812 0.47928287772698275 0.014979088489812099 -0.3639200259397532 -0.08401641568455959 -0.4746858129137962 -0.01794788264292546 -0.13338462312687238 0.36286873255775515 -0.4544582932041363 0.31033475176773295 0.5019907281792897 0.3875399032155481 0.04760761878322069 0.1060723185962851 -0.32154782154475836 0.1199476216849527 0.24682368760984627 -0.1454326230369665 -0.18944551716573133 -0.3542163709611028 -0.5138514803531985 -0.17537901877283887 -0.9881996771425969 0.012446020552104092 0.2798224233629955 0.1808280821736076 0.05230344467975781 0.3297785576595347 -0.19545019988924486 -0.29423349269011895 0.24706241228540776 -0.12800435028551171 0.404714247290492 0.4479827254177625 -0.0981705822408349 0.21279211289994002 0.047415223659284265 0.38499247391744257 -0.2138797785318019 -0.23628180613051242 0.16747718798380568 -0.20741099354441334 -0.224882052336272 0.21898724054130683 0.5294442720821653 0.42259352855089694 0.32245070473384424 0.760900144651268 -0.3241860945492047 -0.19983842541185215 -0.33796964911365507 0.09113292714350177 -0.40815340535842737 -0.2497659523872286 -0.35984286822801054 -0.15799065061629852 -0.7321247522307548 -0.40756412050069823 -0.5231451921673504 -0.303966483189127 -0.33705944092639767 0.28992541965149704 -0.15109674733725334 0.46201930463831203 0.32978220371356337 0.32463192380294414 -0.29213713695315485 -0.2360136738571976 -0.43251965380970725 -0.2847389957289059 -0.3145517345804687 0.007913513121594296 -0.05423037679597304 0.45758935211545687 0.389102098661564 0.8553066562110061 -0.5227627937614143 -0.36110923315966614 -0.5901967290468216 0.0437672872102442 0.2384017655867899 0.38214937011884265 0.06823534270393426 -0.5359060528750744 -0.5418469628250946 0.32094482461821044 -0.33402122297167597 -0.2962604077882479 0.4595886412772028 0.24522343377899694 0.09475861517317977 0.12354628134169486 0.18100911089936048 0.23726129887714442 0.17451197958057268 -0.3673983431552127 -0.23679035235261453 -0.42337598634294576 -0.22157913678632007 -0.29816267350741005 -0.05809411244763739 -0.19020274933720652 0.21093828974143697 -0.23037437879580203 -0.7326321598264909 -0.7465412331633553 -0.894339820243436 -0.03144532291819314 0.18701130847711256 0.4617805791442222 -0.5329993250434167 -0.28722577410469946 -0.46452601930133464 0.035848149153607095 0.42141217300013817 -0.18733305975994702 0.19725543757839642 -0.07799518448293931 0.27333564449340136 0.3259186164393474 0.18341476555570152 0.13513272835854387 -0.2022526027580306 0.31230736909022005 -0.3858791700331554 -0.29187887992654604 -0.32052642663836245 -0.2728734661766542 -0.19145060636290467 0.4456301788755716 0.46009018017250675 0.11359964702743215 -0.21395021955450422 -0.5907064853182987 -0.17773851850400227 -0.3328517622061459 -0.5834053679706828 0.037542021941597815 0.15806610972926896 0.21820558167924883 -0.17012208906408813 0.12556090537330933 0.18454593000694683 0.381622184145399 0.08172060370006427 0.3189071179331467 0.4215551769114005 -0.06201328682712946 -0.07288280227840023 -0.20783921056575272 -0.12225165078056954 -0.3889432156131092 0.02062861720242764 -0.11233307129080433 0.09335496382930593 0.07263851440861432 0.33713421052651665 0.9782943189554366 0.3771716192892988 -0.4655703131937472 -0.49771136725407145 -0.4369330334241466 -0.4934189717629129 0.22322541291945114 0.31854263417706064 -0.5953464694602215 -0.7345662229687684 0.012625817032164616 -0.25513142835353525 -0.5716924884800068 0.3037943977570985 -0.3906687199166212 -0.16741834352482093 0.06287007831915732 0.1336885886139101 0.1957881846207878 0.42529860385300816 -0.17263533014794574 0.5814406964304278 0.7056601270348534 -0.12758546451982258 0.07591028263029245 0.14377470286577718 0.5445611529717685 0.9984540571753984 1.299790196341531 0.6045900266587274 -0.41199205947062223 -0.1296401220171461 0.0557400471856294 0.6331820431079854 0.6159417294710102 -0.18872704736432835 0.21940248980557117 0.1677093386660775 0.14961813313766975 -0.05535048366883968 0.0830596910091684 -0.5845084211024248 -0.30489968524335 0.06659493681700301 0.3091623081412983 0.05131935480984735 -0.18698689439808133 0.5021398676617741 -0.1393908357422783 0.23646738707471354 0.1531879679599504 0.4455249539870149 1.1974263906639133 0.2750662239874812 0.5157809820118388 0.24338634491644057 0.05088118071589662 -0.06595324697837955 0.08014715365872839 0.08685797206824815 0.8874175394610071 1.03280811614572 0.3536642973730526 0.4780036925146171 -0.02103175524629574 0.05264721926333112 -0.054872461367350044 -0.07015239641561129 -0.4568964767175837 -0.11541164912024711 -0.3015818090140197 -0.02855460783177912 0.17920831737797438 -0.17245007626841632 0.22656421817819572 -0.10717860481435938 0.6275615520672327 -0.03214044414510378 0.7271577679425765 0.188509896431713 -0.007436836638027397 0.6084761283130897 -0.20034675809280858 -0.17420525756717115 -0.7072715613918295 -0.5582611212453271 0.07715105028883275 0.41135926280993973 0.5885697139814674 0.18423434593985638 -0.21959863675594582 0.5116797757242358 0.31003976308343734 0.6437904272666825 0.1720795877762677 -0.21783854780164716 -0.19873163247070183 -0.24719512581086323 0.2878589750687272 -0.4858438831603717 -0.04426561921555172 -0.27380638341120694 -0.3617887761756867 0.4534870084898712 0.3738747305040361 0.08841137600370534 0.801231478022071 0.6372594993034374 0.7530053695556719 0.029665953504284002 -0.24559308502613547 -0.5060355653904627 -0.14187717903908126 -0.6561288563226984 0.08137048920652924 0.17979506187004526 0.9022560749955737 0.5125363044788926 0.7993987468279321 0.13415629073897406 0.2925856978776131 0.07919782868580165 0.35325952653664316 -0.41859598185825153 -0.41566472285858774 0.06512044272233537 -0.4123904590722767 -0.1249726318166739 0.42564849216114276 0.49142060338894694 0.3025248545342793 -0.29777587946586553 -0.37164890165384973 0.1238989620946456 0.2270562223431521 -0.40389551184886285 0.3626012531256171 0.22626016245921965 -0.20649526505707416 -0.7824933427130342 -0.3196732728703963 -0.5520422889113572 0.3022020858311198 -0.008041414209899081 -0.2691912789880322 0.7874813358597694 0.6767872292697124 0.2848596925315522 -0.010338666155936347 0.33517885643297546 0.024836718836167598 -0.548177263339767 -0.3730939524756432 0.22570031409101418 0.1365822680082345 -0.1470357242492591 -0.19955090124196617 0.2060688790383308 -0.011169662804529044 -0.22453234506673947 -0.5263650416123762 0.44192133864814653 0.0885736963662943 0.2069711180510977 0.11980576777479701 -0.32420835005412435 -0.08385409344022383 -0.007255264886611424 -0.524991080133048 -0.47473695553636863 -0.14472895575907743 0.021970554524957886 -0.10424937605455416 -0.6683495688183428 0.10716488499011904 0.36551938973084497 -0.13893909743184252 0.3722859485618905 0.5336682411168379 -0.07177261086026965 -0.4637543319606813 -0.5904247394659494 -0.3442785998883593 -0.3300498248238695 0.4883179247884256 -0.1963273246753725 -0.43420889302321153 0.316183241714667 -0.06339461267708738 -0.36732138491132815 -0.13457208682735672 -0.4674406615079165 -0.20488342513330282 -0.77214586048386 -0.4869095702931617 -0.7200162436322758 -0.0006437375086126797 -0.8011484725159634 -0.04330370817683967 -0.12679790564414417 -0.6008763488898662 -0.049435423359573516 -0.09338437370169775 0.022282203693113605 -0.08441008710674988 0.04298602532315791 -0.18214407210422395 0.012611442159023357 -0.057870314919399445 0.04744647615676886 -0.14832505321249118 -0.40000712569278896 0.1272730055758831 -0.12414361032263616 -0.18697467367553286 0.20874573206255032 0.033774605146221694 -0.08235102796546437 -0.3726245364173454 -0.011388784998697632 0.05350221433484563 -0.3022325873781294 -0.5267397794473823 -0.688203403945516 0.16041234356461173 0.0834469121771909 0.41362173531165186 -0.04610846171244773 -0.18907908838969034 0.2783609837059539 -0.23731243507066763 0.4181659089354203 -0.1311698991208277 0.35566610036303226 -0.1967964440413507 -0.8829008192107776 -0.12431964109107382 -0.38996778833897056 0.4276339202457342 -0.19973992658271345 0.2747823673748563 -0.45941233082568445 -0.3763533988774194 -0.203470695920948 -0.3056746156835864 -0.5766218333501854 -0.300660833238371 -0.05447218103825309 0.22721330242617296 -0.02591222863032184 -0.34060813199428047 -0.5859849757661004 -0.23231841508976978 -0.14599219807135108 0.33922613323116035 -0.17776920186411235 0.28417750812164555 -0.4380739741393997 -0.09107340912496266 0.45944770677043273 0.25125035023420295 -0.22531407903215794 -0.4135364517521495 -0.2602311816904839 0.02247016884165651 -0.14259625967868195 -0.1988812377956932 -0.0051123246678069405 0.31597917858166436 0.3821523708106759 0.06409231194426772 0.3674046785334694 0.002663077179386805 -0.3692520796666965 -0.5234072506891491 -0.3548354384000731 -0.5367460433197461 -0.2539828526063676 -0.6194056459744931 -0.46099889447756304 -0.22365128313978608 -0.3080338791437345 -0.06716737047399539 -0.07199720275360731 0.2851522337785204 -0.2310336589807755 0.6766210484779503 0.055987502973221796 -0.06996121881367078 0.10941756838298154 -0.1690861822912467 -0.7086007958461703 -0.25156981370673176 -0.5108722707587632 -0.3659931046865382 0.47045753273910706 0.19367070442795414 0.0952353057039385 -0.27086977371147614 -0.47955328534701064 -0.12740903097542114 -0.2426162926780986 -0.46092450945447344 0.12847207451615503 0.09168102336012854 0.7634489598502721 -0.07838223691383055 -0.03640584111203468 -0.12994123519938475 -0.7923074506357098 -0.14160846939079422 0.542354515152804 0.12565776263512105 0.0396139754026397 0.6609278527591813 -0.18903669386472394 0.30359333007115125 0.023825590972087488 -0.3645245258649216 -0.19344250909731983 -0.5912585552352047 -0.1488737979208999 0.039971310210321014 -0.16534213447226362 -0.0942193328835619 0.4230146488795337 0.16381206310074736 0.2310892964459324 -0.19232502098880122 0.2569369661719529 -0.40221769958516984 -0.14652868956222875 -0.637056547539549 0.0433343119631643 0.020347922030493706 -0.3717834006089795 -0.386329288028403 -0.4046147487142768 0.28836518029226765 -0.05498407536675359 0.13531239614824844 -0.15834051939094748 0.3405791210789989 0.1962942734650786 -0.39179345616013006 -0.33217420654475704 0.25911462978157906 -0.5920078223810328 -0.5482744504152316 0.3445344486873359 -0.4853838472942709 -0.2928003925233964 -0.14396269773954384 -0.12156820140816327 -0.052231897084376575 -0.08568019516918512 -0.22463376044901753 0.15428611281565996 -0.29858933596103343 0.008393911886744092 0.23871395212390958 -0.282989904118247 0.1616713332506929 -0.28747129093191176 -0.531748388809039 0.1999501973197323 -0.26060616734832737 0.1287461918471916 -0.39798523223274335 -0.34560990054257745 -0.26689322999863846 -0.28656612927467073 0.09895892244860764 -0.07310266705349124 0.007203191688916214 -0.08228683692961418 -0.2657087868721475 0.24488887868456172 -0.3846783022493197 -0.103901190915759 -0.2415757125799607 -0.19072280435299316 -0.2034940186543259 -0.40500085406467345 -0.18646493934504596 0.46952130425071903 0.4680194181047406 0.2605740063694605 0.5004769774105597 0.3620305226512463 0.678501565946905 -0.17400497993571176 -0.19186208067094435 -0.3439907105676353 -0.31951729598191836 -0.1647848225886592 -0.19008961738896132 0.423763984527169 -0.19469001710222075 0.33251476910161226 0.03573804119701721 0.7548145325413613 0.37760923714426403 0.13246599866954314 0.010820828726103056 0.0861411613003353 0.13337906249325485 -0.166909559468993 -0.23559941400785722 -0.43375406173007314 -0.41340626935765773 0.3244308995179341 0.4696517383395031 0.12891642767187206 0.5893173519764298 0.07266370513596626 0.06976449413468122 0.3115130454560043 -0.3255883673783044 -0.0354447825554264 -0.1278810720503269 0.35749465889102183 0.26959758837080156 -0.12174310441397747 0.13986436778944106 0.42237480150564405 -0.21349127707673396 0.3833944108330338 0.5877751573354031 0.5133106408790885 0.43702001333334645 -0.3108168026357727 0.12329827834524767 0.09962726877081093 -0.040572695617292924 -0.40969585613970594 -0.3980591691265578 -0.22399911972037811 -0.021911566563375118 0.3176403027274941 0.043016200733831216 0.11433897971857236 0.362489553357479 0.2814748209961326 -0.14954333101316206 -0.021478508082435743 0.16143193930165708 -0.07422324863809993 0.42980929968525405 0.6243836419400136 -0.14201517780346457 0.4943227405491511 -0.3539302532108916 0.014216167770402329 0.5453630619296869 0.414619785247898 0.5460795894430546 -0.2806655428539981 -0.08769739655050544 0.4975253642872876 -0.10296794009315961 -0.12782572072931422 0.25713405597533956 -0.4986429723270078 0.37574719457692374 0.3590965076617937 -0.16822430604722138 0.14656533479590494 -0.205163039919401 -0.0021998589744491336 -0.03426860801300766 0.11131584301459882 0.0777121343198346 -0.06994889200895112 -0.16311655187888036 0.4044633524594791 -0.34250533851744214 -0.05516357990280009 0.32719000850083974 -0.3449326695367566 -0.36801851406844766 0.15195779367837323 -0.30681123881699296 -0.21206049616750017 0.5341522608881034 -0.40702042047672204 -0.08938118590224574 -0.2995480165421396 -0.3749534008536807 -0.005640973243149383 0.007138444173421465 0.39813524267971234 0.7842897745611912 0.20658666293906047 -0.4592399732241944 0.4199725922138813 -0.13233265198552546 -0.20677894948624798 -0.32436465054345043 0.22079102439495313 0.036649730382109724 0.17262887701209295 -0.44794725741986663 -0.455660482710622 -0.01583667593856175 0.06618889452961 0.3333477075661183 -0.4427185353401753 -0.028563306544855966 0.11739201023433687 0.06578029332779911 0.29588273412313204 0.09540003376446538 0.01988654191840533 -0.10340578968736813 -0.13676123973125376 0.07433471970473915 0.15125107066246157 0.022700455806820785 0.38062758353214987 -0.17615288380102112 0.20034508553121622 0.23875293504676331 -0.15950656360913074 0.1398755082012274 0.32587833111030673 0.08607126032473485 -0.21846482755285018 -0.5017804310384036 -0.23131899993272434 0.26124022697707816 0.41313582258805925 -0.3746884892385638 0.10317010936874353 -0.1623946013972126 -0.05741662985412995 -0.2329874318523197 -0.34985883209152807 0.4227073185104124 0.46451194445709726 -0.04821057083409731 0.44763490794754907 0.22909902753967812 -0.3914939371398296 0.487401397821087 -0.3007146308461265 -0.21136726257474892 -0.4830160888189975 -0.25735160263477463 0.23913278733622423 -0.3854823009820222 0.1512640289812226 0.3689223749852144 -0.33497292376193916 0.15051287379304912 -0.03833949829317659 -0.14078760945284133 -0.30211931233154077 -0.33392166444975757 0.39699047930645 -0.2263197722837812 0.4852223333348728 -0.21223666807062522 -0.05473926983964599 0.16452569615118562 -0.4812683439159589 0.5014522370263421 0.16317596691697359 0.41707127528993077 0.08447309697986119 0.28639721325801265 0.23960002867311864 -0.38075725894949847 0.31862306180761124 -0.48915671023177215 0.3816581638653316 -0.45131023160609296 -0.11745154319299489 -0.25499109340582904 0.03297892037378285 0.26107409243537993 0.050993325355150484 0.4405457318820579 0.4546562402590624 -0.24132553879873733 0.41324257990953633 -0.459284761022135 -0.11991835253600215 0.2113831113903114 0.21502869884243866 0.2023282853471877 -0.23060136908231435 0.00902948537152227 -0.5280596742095961 -0.13783588104382388 -0.2295897806063093 0.33838716822423054 0.14671503116366563 0.5010210330352131 -0.3733376850090258 -0.05961554095065931 -0.2602558910001909 -0.13847995897593432 0.41541261353470604 -0.15319226075103032 -0.042358904955740684 0.04018312311975215 0.1335539225702569 -0.283265026069162 0.2555630724634502 -0.10281628381210466 -0.38033813564326224 0.2588885059609929 0.07690355672845221 -0.005769233784060787 -0.01398804433209762 -0.3028793868835045 0.4081361526549476 -0.4430896648103074 -0.43070311859678984 -0.6511820618880774 -0.18032103863984955 -0.21914020332747466 0.27102422976079454 -0.18648247103277268 0.009972067875075586 0.20967986872087155 0.3597904616892122 0.5922582066578197 -0.4115890873708904 0.4774963797321263 0.3410786482634318 0.10491173660880224 -0.4224554610832777 0.3377199111396716 0.27945459834863673 0.3817315364303246 0.340418798908587 -0.5169514869301451 -0.20107420903434 -0.4301813424389565 -0.19339691009546892 -0.14492419334778017 -0.003086728116643098 0.08689747927402514 -0.11673546659625138 -0.5076164960923893 -0.23035961617508016 -0.1898929551105787 -0.3290244786653951 0.3336730000716881 0.5657200066806397 0.1457404786962272 0.15635950216602085 0.3897430845300882 -0.1981861953767754 -0.02669032712099565 -0.24961632771057427 0.1630847901003877 -0.42007124839303733 0.14488080674591208 -0.17450991206757638 -0.11421651343659071 0.34434490634773296 0.28547929314701526 -0.2693255168644279 0.0069153879013401694 -0.7299081262357593 -0.573628791480713 -0.19914846646328033 -0.4016947154216802 -0.3851560527798437 -0.19375119142074348 0.155552847664422 -0.632986360942937 0.5977079998554634 -0.4775919531037254 -0.08636888085195452 0.3978626593711497 0.029710391397833248 -0.06005049137739921 -0.01334433638492047 0.14854009795214987 -0.1019198194714816 0.6523759249235022 0.2123745940023579 -0.3394688275509948 0.06246521351019064 0.18811876230213262 0.3092781022318204 0.12825422306718418 -0.14141007824210333 -0.18669833964666682 -0.5516674001920235 -0.10746752559939578 -0.3340635562237534 0.17591030514513437 0.7138929632191875 -0.08375234274332945 -0.07823963914488251 -0.18995462435367846 -0.5459890875578693 -0.3541123898016134 0.179836206811364 0.37505395687564325 -0.2849505221655793 -0.2630041889736433 -0.15599150872703896 -0.18653375770408567 -0.26557316160863753 -0.24866470057150222 0.22285060739206827 -0.061589869798669324 0.7911708243309705 0.1812539382755484 -0.3622098269101363 -0.3455249431255603 0.13015013779230342 0.3943930940455565 0.2468758680487034 -0.16051497663294723 -0.6155336345370593 -0.2883583000209185 -0.002038163445314289 -0.28929251744687856 -0.2399523218054689 0.11695827541394957 -0.3351398029580916 -0.1105276938247136 -0.5898299762281156 0.1834205029785907 0.4386044423006522 0.46282154642008516 0.6527896581152381 0.0335865808074347 -0.2775905958287636 -0.5258237735024162 -0.274676598438592 0.010542848675708066 -0.10481794623672779 0.3041010326941865 0.162851895478906 -0.008091438597915642 -0.3683420089309756 0.07940832199833264 0.18801204402643482 -0.3551375267452242 0.41486204727858095 -0.6008665309943985 -0.8307794624320075 -0.529183290924806 -0.21791752524689137 0.061312876734388365 -0.34372465267439584 0.21832473383199552 -0.05731806456106183 -0.637362660967168 -0.9547638630742175 -0.5473859204882077 0.3001748046854918 0.36370730658235123 -0.3055581231004545 -0.3857066947730266 -0.25523321490068884 0.1461482754121192 0.1893331823744193 0.3114554478349315 0.4469570781841966 0.4412936054189926 0.12338144228209053 0.5770873318350684 0.40565561834869096 0.4550461968518376 0.30494172822887583 -0.40475858706442613 -0.1179538965187699 0.22226654433988105 -0.22949455000728436 -0.2008531878282914 0.04185901638871832 -0.0383037950335502 0.10888295720427846 0.8796266205524351 0.5639623486041924 -0.15447670685382456 -0.7054399725741068 -0.3672036199034935 -0.2361444454227775 0.33759472021045966 -0.1493999744231928 -0.09706129380711653 0.2764731068129529 -0.4176074591049137 0.14310694334037413 -0.559751194300395 -0.13903640941028153 0.24894377220664024 -0.04883528111309625 0.26053102913995 -0.32866964170730384 0.10014637240336183 -0.21298459937345726 -0.09175384088764542 -0.2608374752372087 -0.3767910732848937 0.08353699509319096 0.23799301914026455 0.7100983349175563 0.10049557903107102 0.5994910477013289 1.1575595847473608 0.8597803703015688 0.5497720369444035 0.060759039070014245 -0.855961484416073 -0.8660592066887025 -0.4237367180791721 0.23562321362197247 0.07585143469747406 -0.7061462323387194 -0.20677374058376755 -0.22464906903180198 0.18672980728255179 -0.002075888457674058 0.3881307534568649 -0.09309590783431912 -0.38059996505867494 0.16581722257522413 0.22673094992334533 0.3379392558183659 0.3168116713662405 -0.23017885302312285 0.0780785561688758 0.345909733866582 0.9009819127600376 1.0101598493639385 0.8987181040615729 0.4889778940351578 0.6520553890812308 1.2246825431335708 0.7766944528838203 0.5306879823401748 -0.30425891201834127 -0.9275337758458322 -0.19426678124045682 -0.7400179787758281 -0.1614822920325861 0.011322945828743351 0.15270564113987725 0.3275900764520908 0.25168080687248195 0.06306823794850606 0.6228910643539968 0.31942952155194065 -0.06984146426233621 -0.4030065694414061 0.17854122114240004 -0.3568827327110989 0.38488069161514643 -0.16995551973262543 0.2346201873560189 0.8722710117758213 0.45893828615836874 0.9184842314442606 1.2096037361360428 0.3091927545427805 0.7433249010232005 0.8742003601664525 0.7564234452491717 0.9176544789190733 -0.3221054673699178 -0.2752955540320754 -0.019041991880234498 -0.43969037901220076 0.019377780463002016 -0.28842160983857706 0.5709207347764711 0.5991636428453471 -0.07314842636411178 -0.15940620306656064 -0.04813806607782713 -0.47956028665490436 -0.5439178537944537 -0.33915749085611563 0.13419413368275554 0.36511897279135574 -0.0027492641885801397 0.3993563398673671 0.4555694725272367 0.2749198890209655 0.8092620622674619 0.8014055434252776 0.5169906676964353 0.5060532631201985 0.23093238671718788 0.3389804587194513 0.7683806112729775 0.343701447104031 0.2457050024650978 -0.29239923655324446 0.3118155245239002 -0.04314798599571955 -0.44464670688113594 -0.5252059482007405 -0.34517343832599817 0.38805870602830955 0.3562020922651916 0.17277409942252506 -0.6214534340507412 -0.2815899770395393 0.20511701479347663 -0.3469276911139869 -0.3968167919295383 -0.14078935297618558 -0.4732054995287527 0.12158321071177401 0.052717011605773675 -0.22399838079388146 -0.038908252102612347 0.8159651441736472 0.7226651302000665 -0.06926799743858846 -0.017756665542329648 0.8210814096926227 0.04504206279778171 0.2879018788652379 -0.5662312099244424 -0.16215492307470852 -0.7826337890366619 0.22339905512350478 0.7471996056925654 0.03906222665472585 -0.687454574205282 -0.7263070033133354 -0.6962298685587165 -0.22848540293951483 0.04742595817876162 -0.5413425670866682 0.3198198368465744 0.11914680492537595 -0.18559252478127122 0.2245946991770168 -0.2398747942194387 -0.16634244974312692 -0.33136147622583634 0.4838688206131811 0.18260407259258918 -0.027936143724887324 -0.44742798871752526 -0.13412917021123624 0.3548148517821295 0.3318818420180348 0.34052867314090635 -0.22193469585816 -0.23093988809318947 -0.19463300575072617 -0.016406511755486505 -0.22793649094592053 -0.16808596284264327 0.1362024468498446 -0.9141780927039193 0.11578499833236719 -0.12872160462980234 -0.3930483594761958 -0.46865732641512636 -0.8142002027447626 -0.38432075576949515 -0.5766310600566086 0.15978723244840154 0.25037178822447914 -0.4450174208827762 -0.3486300282564737 0.0895422290823805 -0.16962649656572912 0.5667765939833628 0.5612415412071038 0.7371022387962356 0.5576023260070369 0.8245993371143665 1.1657693875249973 -0.2768506132976492 -0.7933568885120443 0.06781504743313743 0.3366663669945154 0.050669136481017715 0.27395275189788204 -0.11881922079872075 -0.035156367600154746 -0.0219842064847635 0.021100009054311423 0.15565632752984074 -0.23251531055667393 0.13381350042408602 -0.6263393841146495 0.05219189519745633 0.3386132588754544 -0.2912428627773721 -0.3063783869486774 -0.008184013752582417 0.30274172170324803 -0.22097934081487142 -0.5801024756150417 -0.04722646497638974 0.49239514016654895 0.7243505087251085 0.04538741975588952 -0.004076627816321987 0.24248902129005917 -0.7729267375260622 -0.5038262417553895 -0.40075549997948046 0.36849836678959547 -0.36791006664611 -0.354354108715992 0.6672555627919148 -0.15116579121669108 -0.46000706490099935 -0.14788043754650937 -0.23490875191199312 -0.28037410620615877 0.21130404634658878 0.36202063329246675 -0.07906495085330013 0.25836659646773097 -0.4440483871436219 0.12977366461168674 0.02338266294501392 -0.22281310799977067 -0.3869734147920424 -0.3820425948295737 0.15219775593728677 0.4625499650214732 0.30466448282701525 0.09084273491763062 0.5307655659319412 -0.4734494711684352 -0.5128825114566291 -0.11200347184846439 0.5053138272002239 0.4199917770581708 0.4653573543584253 -0.26220149982020236 -0.6593458346008664 -0.022518669489874518 0.40083842313770285 0.0785115658784699 -0.06642402497600443 -0.1555803287949786 0.02801840341092786 0.14903885465303413 0.22125252087102545 0.29957564214728316 -0.16580967524410167 0.07564090264151446 0.35975435337533923 -0.18951924826345823 -0.028033063822355233 0.35048285105775695 -0.45543156397775886 0.05859715001940981 0.2650495030242333 -0.09335930471748259 -0.320022217664508 0.2860935920889356 -0.17746935908947875 -0.4349517668693028 -0.5477415507224482 -0.03245945933470575 0.06599556854360428 0.11733451944863064 0.2559481969259133 0.11717174988314195 -0.16977161442602692 -0.41077772568654286 0.0483643241778946 0.5820973655081636 0.03965707324575897 -0.40241627989280665 -0.19300020721633876 -0.17944226794012907 -0.10429210088874799 0.30578409859735783 -0.273474882504025 0.04297094036186435 -0.43674567415355703 0.08361738089320504 -0.20666723980677548 0.045989943803488295 0.2802343462262602 -0.05359184246315589 0.08651008290318234 0.3953515982511905 0.10834047198166198 -0.16203300489440936 0.15597721282278632 0.05053220449717165 0.12618765373174198 -0.26936681123902484 -0.22544514772574545 -0.07499201575846445 0.09777963670290392 -0.30247927807980396 0.024388444450126643 -0.01509550720984879 0.3878908786307917 0.25179294272515096 -0.18970653916962898 -0.222672638838087 -0.3284524991153074 0.02313728339233288 0.4870671343927313 -0.4248052470574099 -0.34592961749390827 -0.29879985594985914 -0.5928377283257654 0.05978836105973192 0.24698779503939092 -0.4605353767882364 -0.18862494024281468 -0.17589436079785886 0.11832676180736415 0.33649857353914614 -0.2709662083793643 -0.719082082458309 0.28726301138934474 -0.006745272450003471 0.2250856107630752 -0.4683152419403108 -0.1786603917885277 0.166488978365002 0.18133223687241115 -0.13011122981540593 -0.059089506993316956 0.10843728865457491 -0.4932545409488207 0.45892336143211965 -0.2936202378053401 -0.31614650920420784 -0.34306296880949505 0.22997687475446243 -0.2870534792836129 -0.23899943075308921 -0.38404936099132203 -0.7703322906651363 -0.13664555320717128 0.32862570050997153 0.155466754889781 -0.28121198902696437 0.3568192069653146 -0.09484237146408855 -0.0032843516238879114 0.35094273399032483 -0.5955206554147174 0.2306153801312743 0.44629563181368764 0.27639409170575974 -0.28680214305345314 0.4496416409596573 0.05254539214684359 -0.07065630530375767 -0.31649809106315485 -0.4989533056571688 0.4792206677752891 0.10064058112173932 0.13184625683195172 0.08354244491966223 0.49693976610086943 -0.36397216087220047 -0.2369308502602009 -0.2629314335979114 0.16924232009342607 0.050077788191857764 0.07992049394348556 -0.5177854211796269 -0.03936889274928329 -0.5043404966083707 0.03938096157051408 0.461079301108812 -0.4831266814675642 0.09069291758202366 -0.19107934231620718 -0.17746655412243326 -0.0183787747757195 -0.2938397869372419 0.6253802521571024 0.11671501235524721 0.4408052299001333 0.5059780195884841 0.6079238109777163 0.24322157937238326 -0.2203320850253513 -0.005118772865139156 0.19084541667906207 -0.06448987791964611 -0.13256505636506088 -0.472881244207136 -0.06636709939710471 -0.40259003561616785 -0.2551987222130266 -0.30075159829769027 0.376430970483493 0.24619017672192073 -0.6106650266184293 -0.07852216199189936 -0.4420321462646817 -0.4036711161757259 -0.32514334456494115 0.2611588299798187 0.7126112183808337 0.40336231133284933 -0.06041886086636911 0.426002547857071 0.3104205431971373 0.4479286620238263 0.04451152682867007 0.30137986081470536 -0.030101577710617694 0.09199317579876559 0.322852282985112 -0.05350467935484377 -0.1725233275707001 -0.4725101524388302 0.24373569274478568 0.36709956972269453 0.22227933741210285 -0.43423872125302293 0.5409825292141007 0.1169365274676759 0.35014443028899517 0.27118680117702687 0.19406460529067637 0.01213591439300462 0.04587151000602046 0.4650599370563043 -0.37321400023427886 0.17145874527254076 0.210462596713167 -0.13426722974962096 0.23134721291288787 -0.04253423731421547 -0.5083103839602596 0.2858917652550077 -0.06944806119930746 0.5025754295332121 0.07673525411672197 -0.042483827502099225 0.4060051045219468 0.28349455979313565 0.26285776022917573 0.14250748735036944 0.47339986098385756 -0.08495074022304538 0.03975604802134669 0.47533952564290627 0.30180226442124597 0.4479376115567015 -0.4340011230619987 0.09631342139466706 -0.08308615343547593 -0.13894765454956556 -0.22741990807742718 0.10137312047780785 -0.42408823133005646 0.45696253453096564 0.31278647870453374 0.451910122432235 -0.2645270446382237 -0.142953180154422 -0.2327961781047863 0.35521379758412913 0.06038057591141314 0.3169071299381791 0.4922603465706037 -0.4748409294965601 -0.21721897418257008 0.0866794417535931 0.1217317961378821 0.8251556787958035 -0.3692013911230716 0.029267401331156684 -0.3808806041077284 -0.09007663978491309 0.13883770096631975 0.2122492694973923 -0.00012532141221566206 0.4122611541776223 0.2507021663423651 -0.06855201267867705 0.4735795408130755 0.040914147095869935 -0.3107545333606606 -0.4623648974843486 0.02485343969738834 -0.30830457337134903 0.4834605127389108 0.4259700445197486 0.10901598440694615 -0.1711198324458839 0.09681923215093524 0.2866446336562639 0.38420108013361365 -0.33793351256396087 -0.11739486792264264 0.34384607382571164 -0.018511391340958028 -0.4875886501870528 0.1922554099668795 0.15984616245084227 -0.42502529090582297 -0.05505652179910692 -0.4609467972271983 0.021595734446538044 -0.021908409636729576 -0.3662489858815796 -0.09673737393996241 -0.4214447772867079 0.13980957819046153 0.18032973509058253 0.33324496633209133 0.42389803189359065 -0.5109125597388313 0.473923435214862 0.2662727860227485 -0.24679919525450303 0.1018964783267658 0.02750241513930754 -0.30974716671739677 -0.18610705995229054 0.2477303017989668 -0.09871442645888397 -0.42507922479958216 0.1422466618555831 -0.34051882098479136 0.4682820903944952 -0.44647521998783457 0.39922526267531677 -0.4801683954710352 -0.012796914424347093 -0.04659099140353852 -0.45135773067467566 -0.24822011177388512 0.11816874577008205 -0.3673438310124789 0.398450938938379 0.41816378315838104 0.479067444803808 -0.15149113848887383 0.35982976550657075 -0.13238209197693143 0.34519379323121163 0.3766040558497462 0.18742401135255068 -0.08479770528889218 0.41956805509541456 0.267967128118531 -0.17052905938506727 -0.15100874399309117 0.4115029197907468 0.35666834703648537 -0.06207200254865926 -0.2061969805208742 0.2310570477204631 -0.07104800362364427 0.1781007037303718 -0.11646272171475877 0.1353244167240256 -0.4412072249438376 0.12433742864032511 -0.36493165810462974 0.25813050430030715 -0.2141567853756852 -0.20633639617880123 0.3971770403232406 0.4021569810675335 -0.3538007100593779 0.47964617827884626 0.4566650180383217 0.4391439628322325 -0.13863117070151748 -0.029563834876698662 0.15031543112181336 0.1313154724481808 0.16139297025699834 0.4513918262595418 0.4646458678590004 0.3020414598213559 -0.07540025038852907 0.16869801383503977 0.0027405332050782463 -0.016972897081994454 0.18907354756052996 0.18018661587532137 -0.3561570606934858 0.456891647592881 0.262783723101331 -0.4344755823393899 0.2273857107707394 -0.45300650265208003 -0.1253232388926349 0.09270441568348742 -0.2801057893673475 -0.005244202234401909 0.08348768588521054 -0.34251180520385754 -0.24676176843497707 0.20464508818365215 0.033451706955020886 0.4127888117065609 0.4735409628898626 0.44794698580345055 0.016052634539800777 0.5023122008665697 0.2644107122822815 -0.04446065415206459 -0.3065779166907228 0.4837410163497357 0.20767554631905502 -0.028234016264773756 0.3040838749981106 -0.3678803448969685 -0.2224174158008852 -0.31871543511261585 -0.2687284236352751 -0.5415830916493329 0.03349941694403321 -0.2094960442795569 -0.38111982300683633 -0.36267331463088215 -0.24959560828041027 -0.23349260350888196 0.459978423419281 -0.17745195981782522 0.361338671947354 0.7429321164210982 0.6428551213919476 0.6395382291243642 0.8818193625326545 0.6594668835243785 0.04055879603781811 0.5333059741646549 -0.3798283954877126 -0.18367267700133685 0.23174995128432996 -0.2252723698397051 0.17936984437300948 -0.03513141430108786 0.22037888292776797 -0.0874210401261391 -0.13101112078438729 -0.025107291963256673 -0.21411503144907534 0.12963380647002945 -0.5171226971384764 0.4170707327545769 0.10960948680726833 0.18386580393733576 -0.6216726044152011 0.11172972629200191 -0.37730675693720395 -0.08773111801031441 -0.5850012077732208 0.37665629904958425 -0.6481997416937164 0.25653511159761594 -0.5065493924562453 -0.37848779321220744 -0.25119529370570853 -0.7410196903483798 -0.212754310942631 -0.15149041657213633 0.28914421646949207 -0.10911549996754338 -0.20665643853622295 -0.12135938070139693 0.08803427594090338 -0.2635733743961835 0.44467431440223976 -0.25278238420505367 -0.067726090228463 -0.5812139718290579 -0.438149974339043 -0.1092415049446177 -0.1240653869130617 -0.030309061366562483 0.0825213366183291 -0.35916016338141826 -0.32644203023123874 -0.22980192818524095 -0.4005569934278313 -0.8536918305434199 -0.15384246693501966 -1.0268063320037504 -0.7585458794257054 -0.8702889032451545 -1.0398092221488675 -0.34481826735558285 -0.5606873648365653 -0.19112823127767456 0.24145369418368054 0.35912905203395923 -0.2370011190429689 0.060464271394769155 0.4281899179607806 0.21469780860518997 -0.027455806413336187 0.28812554369358284 -0.3697809534673063 -0.5149766739136272 -0.3059357688215851 0.11913585798062405 0.14569153194203358 0.27557722173082166 0.31803223892623217 -0.538823786523992 0.43331736621176964 -0.31981526142149147 -0.14795192574003035 -0.5923623787351121 -0.21174043310730373 -0.9562218207458497 -1.3317773513464997 -1.3467311677651799 -0.7993143569511489 -0.24342018909663898 -0.7943307960125849 -0.008239712634582194 -0.48943120593741657 0.18352324616284096 -0.3591878706252668 -0.11622984693130164 -0.16661512839188072 -0.11256860749430414 0.30337449410332623 0.1808419600469779 -0.24392782185778195 -0.6512790471164375 0.3057578961458384 -0.24528579327010028 0.11987005210355417 -0.40627240275544113 -0.11148584042394974 -0.19718971514147232 0.40965408578271784 0.036881112788039794 